encog,BasicNetwork,java,3.4.0,1,63663371356294
[BASIC]
[BASIC:PARAMS]
[BASIC:NETWORK]
beginTraining=0
connectionLimit=0
contextTargetOffset=0,0,0,0
contextTargetSize=0,0,0,0
endTraining=3
hasContext=f
inputCount=130
layerCounts=3,6,22,131
layerFeedCounts=3,5,21,130
layerContextCount=0,0,0,0
layerIndex=0,3,9,31
output=0,0,0,0,0,0,0,0,1,0,0,0,0,0,0,0,0,0,0,0,0,0,0,0,0,0,0,0,0,0,1,0,0,0,0,0,0,0,0,0,0,0,0,0,0,0,0,0,0,0,0,0,0,0,0,0,0,0,0,0,0,0,0,0,0,0,0,0,0,0,0,0,0,0,0,0,0,0,0,0,0,0,0,0,0,0,0,0,0,0,0,0,0,0,0,0,0,0,0,0,0,0,0,0,0,0,0,0,0,0,0,0,0,0,0,0,0,0,0,0,0,0,0,0,0,0,0,0,0,0,0,0,0,0,0,0,0,0,0,0,0,0,0,0,0,0,0,0,0,0,0,0,0,0,0,0,0,0,0,0,0,1
outputCount=3
weightIndex=0,18,128,2879
weights=##0
##double#2879
   -1.8190552462,0.9995143634,-2.9507474001,-2.304693239,1.5816474258,-0.2497775026,-5.6220516901,-0.5266449144,-6.7235869997,1.9946550703,-5.9897821001,1.0472334567,2.9653847502,-1.5496513713,1.4975992375,-0.1278129663,-0.1381771837,-0.9625606133,1.9263485894,-1.6723093594,-2.4878278709,-5.8886026772,-0.3401383648,1.8015505327,1.8203075826,0.1748908865,-0.0929933387,-6.2570253933,-0.2288019985,-0.2999960266,-0.3394375067,-0.1638307443,-6.0767432587,-2.0075085989,2.3580603746,1.9405336986,-2.0293893476,-1.1286844657,-3.0562589031,-0.1628657693,-2.4102444577,0.5511841209,0.1257400961,5.9198679733,-1.4107426017,-1.7687769648,-1.7699641794,-2.6408845306,-2.4367129372,2.3825152701,1.6937409368,-2.6229229373,1.0716581798,-2.0192243916,3.0230888828,6.5504734831,-1.6669312475,-0.9985187618,1.5493390387,-1.9329853947,1.5074011743,0.7130625094,6.6795250688,-1.8712932751,-2.3181626813,-2.6972222942,-2.4663466325,1.401492994,2.7109974349,-0.2212652403,-1.6223428148,-2.7508708294,-1.7504705297,0.7162026548,-0.0276945953,-1.2728200098,-2.5227463775,-1.9204635699,1.0613804678,0.7227751268,-2.7482277452,-1.591615504,-2.588211432,-1.6286381561,0.9247132975,-0.770845205,0.3301220087,-1.4585787538,0.6811312033,2.1104844915,0.2149012822,2.6545491953,2.2831420495,-0.483920421,-3.040927916,1.814439625,-0.4177853701,2.6663657146,0.7010796264,-5.1781253061,-0.2760999183,0.0268151628,0.4142722951,2.46730159,0.5959454526,0.1682166926,0.0898012087,-0.5911890699,0.7562250129,0.2075403103,-2.6815909803,-0.7572525005,1.3473484589,-1.9943212523,-2.6883860374,-2.8178328671,1.6723397243,-2.7733733239,1.2848075124,-2.4085994785,0.2450065963,2.6138923144,1.0885165508,0.0062689399,0.8233557537,-2.2305223459,0.0416046208,0.3350595391,-5.1393343993,0.8787639809,3.2552732317,-6.4952538393,-4.1954830827,-0.8885384552,-5.6007247579,-6.2537444799,-5.5799862522,-5.408147352,-5.6970321288,-5.8617413244,-1.2697382809,-5.4714220494,-5.6124165657,-5.199677582,-5.5947530729,-6.830694341,-1.6238270321,-6.5525976036,-6.1765855919,-6.1228124113,-6.3346201616,-5.9134138063,-5.431005737,-5.6361840612,0.6156388329,-6.5340030824,-5.7780813765,-6.6043336147,-6.8359212716,-5.7562036834,-5.7268273163,-3.5869564409,-3.1899237374,-3.4226738404,-6.5482697839,-5.8048069062,-6.8969283597,-5.0395742292,-6.4303410833,-4.5905849859,-3.8946884746,-5.6724892914,-5.1979459655,-5.7826121136,-4.3835780945,-4.0352185654,-3.9089870729,-3.9923755263,-6.3182363311,-6.4010352145,-6.1051665475,-5.6427693249,6.6665081334,6.7696452158,5.032552449,-3.4937430857,-2.9702993186,-3.4836610103,5.5882642961,6.4509852088,6.0119320606,-4.1372554411,-3.0114011077,-3.9426117322,-5.747663787,-3.6972783157,-0.4724495008,-3.6110721868,-4.2469127865,-4.7122711875,-2.9783973723,-4.4986007678,-6.7515411311,-6.226454862,-6.319549604,-5.991182961,-5.5143692133,-0.2251682915,-6.0349833756,-5.6124599402,-3.7136926814,-3.4916283222,-3.7757070116,-3.050175179,-4.2783683043,-5.0975086317,-6.7027088337,-6.8730962993,6.8270600428,6.6393121796,5.037309032,-6.5069213684,-6.5108032075,-5.0653650062,5.6382531303,5.8454393879,5.0551124988,6.8032970707,6.0178204957,6.7798666478,6.4950678244,6.5042599735,6.1165809674,6.0982101621,6.3279103438,5.0497640828,5.9103798805,6.203523357,6.6395271689,5.3598903624,5.8262742585,6.6131418485,5.8782723457,5.4034891894,5.4116938684,5.1691895622,-0.1221045277,5.2080928312,6.4119157546,6.0595525527,3.8329181374,5.9403583188,-3.7993200603,-5.6922388834,-5.6343825686,-6.4501647006,-5.1242891392,-6.7381654306,-2.1833202286,5.5572156862,-0.2426535769,-2.6389787946,6.8308958587,5.7880364893,0.1632155901,5.9049992603,6.5819677774,5.0581136234,5.6226444303,5.9927145108,6.1313276678,0.7527991265,5.2608281543,5.6395146189,5.1797787939,5.2131335373,6.3290441322,0.2398228936,5.3185269685,6.6328567116,5.5268576231,6.7617563232,6.0592626906,5.7751161562,1.5457050478,-1.4212620979,6.1406069599,6.4032912242,5.2753472134,6.4278476804,6.7299367812,5.8211661926,5.9399735625,6.2194598416,6.7106851934,6.3593778794,0.5496812373,0.842497869,6.0779105281,5.2694897588,5.4744603627,6.6829978897,5.86439403,5.4996315262,6.4130370176,4.9764441755,5.4279714573,5.5789116996,5.2745705006,5.7956851324,6.3337048354,6.688651841,6.5102110037,-1.2351496012,-4.9992954284,-4.9580654921,5.9942992707,6.2834029222,5.0007245159,-1.5165022498,-1.801010333,-1.8564112401,5.7916757487,2.0359755206,2.2922145847,5.6520007302,2.5979928685,0.0445667574,1.9064739906,2.3359047177,0.9907625034,1.72665253,1.0314799003,5.3391472531,5.8162183877,6.4107639871,4.9402208719,6.6346684506,0.409674684,6.2039583527,5.9597506816,5.1291379687,6.7443635761,5.4670859857,4.9415241573,5.7245792145,5.6561930285,6.3934785935,5.4076325886,-1.5713092609,-2.1895027237,-2.4040884956,5.8208201569,4.9837637227,6.3407047434,-2.672152582,-1.2240976036,-6.6630107899,-5.2220465402,-5.6147136728,-6.5236674899,-5.714804876,-1.4250562683,-1.5906120472,-2.1600126849,-1.3678838515,-1.4329218769,-2.7556861569,-2.2938366823,-2.7122560846,-1.7467654254,-1.992789521,-5.9856850472,-1.445479364,-2.0993467124,-2.64195775,-5.5284054617,0.3122066403,-1.4648005514,-2.4108648638,-2.9662767207,-2.5537116317,-5.2646382126,5.4447011708,5.0905816276,6.329371737,6.0263526286,6.5685505884,6.5902744893,1.0753656465,0.3263332439,-0.8159713063,-1.1061597711,1.1180777028,-0.2211654904,-0.2440586419,2.8295719116,1.5972528382,2.0442334312,2.4572940993,2.2014942171,1.2240945573,1.0182887758,5.0071335696,6.5570878319,1.9016611623,6.7460536425,1.251374331,0.5681117163,2.3052144323,1.4156585306,1.5067621673,1.7969863945,2.3394599373,6.1156887818,1.3093690072,-0.3485539345,1.7250355277,1.9637094858,1.1996618041,2.6607399736,1.3342000793,1.2913696763,-0.149693152,1.4132399402,0.4920463052,1.9067202416,-0.0926707729,0.1320915263,2.1941747425,2.5971143799,0.6071398261,-0.0631507365,2.6177212483,1.5138210643,2.38564951,2.15528803,1.3229426249,1.9438425651,0.7356702218,2.6621236963,2.8891643356,1.9676906951,1.2647889189,-5.5039401746,-6.2955552597,-5.0905451402,0.406758132,0.803289186,0.8563882726,-5.8205295917,-5.075607949,-5.2821850741,-0.156908563,0.4567714963,0.0734005072,2.2259815114,1.0215135905,1.1871137983,1.310975385,-0.2786832393,0.2034666683,0.2528526807,0.0189312346,0.0923818391,0.275309891,0.6633008585,2.3089425007,1.3745477663,-0.8063196759,1.151572853,2.8757082368,0.1557158404,0.40536176,-0.2988909387,0.0773141649,1.3609316694,2.1594692973,1.3410466572,1.4614762643,-5.928395404,-5.3060818586,-5.3007535424,1.1111695716,1.7648499813,1.2122807267,-6.1894202638,-5.6627206265,-6.0331124594,-5.8288354589,-6.3107604679,-6.8817977271,-6.7358377668,-6.3705480785,-5.197161846,-6.6521554252,-6.7014867057,-5.0599062331,-6.4351045869,-6.6811460199,-5.090684264,-5.5303475505,-4.9526905957,-6.4083318829,-6.5751342688,-6.1723286766,-5.9567984701,-5.1642235099,0.6636151939,-4.9341916758,-6.8085882076,-6.7122317188,-1.6315396631,-4.9603203274,0.7569332298,2.3767014707,1.4152843522,1.8039112454,1.1502699756,1.9580880851,1.4720403803,5.9070625347,-0.2680981871,-3.3302190028,5.7555865947,1.0364309303,1.1364484088,4.9210983934,5.2073497401,6.2966859384,6.8819312313,5.243170878,6.0555656287,0.3621922317,5.9579284168,5.8717036549,6.2285364853,6.2316469966,5.2960630275,1.0199807917,6.1016895134,5.0709051211,5.697646052,5.5963230657,5.6254252161,5.4696937951,5.0454577515,0.1806867026,6.7085408725,6.2320012475,5.9915830842,6.4519099991,5.2416594533,5.2460460301,0.7294374438,-0.1537946336,0.5687708755,6.0679964158,5.2461304722,6.569038336,6.31507365,5.3472562052,-0.3032906108,1.2294105088,6.8962964126,4.9428834375,6.1622200744,0.1497068924,-0.1369972382,0.139242362,-0.7684901177,5.1757947524,6.0870522005,6.3870174109,6.087939478,-6.1237554574,-5.2383700778,-6.6264819147,1.0643494567,0.1237689281,1.0499075456,-5.6174533454,-6.1606819551,-6.2853303548,0.6720498582,0.8555548427,0.9640300632,5.3882582264,1.9278612499,-1.1417278311,1.7287262658,1.3885578622,0.7235669785,0.8053442532,0.2286665766,0.5931265491,-0.7138076182,-0.1353068871,4.9605515227,5.3547850635,0.6845236349,6.212313824,6.0880520787,0.1520574359,0.9762553722,1.1197453812,0.6750597431,-0.0775213992,6.1386897281,6.1222132049,6.8586643989,-5.3453686518,-5.530177464,-6.4607937482,5.5664469649,4.9894706365,6.5492337391,-5.4537226979,-6.916504885,-5.2629651186,-5.6900920433,-5.3765034985,-5.7305175051,-6.8823058232,-5.8226560107,-5.8354991017,-6.6407699425,-6.6787665727,-6.856170928,-6.8665325343,-5.6685314144,-5.7460644351,-5.591233142,-5.4536347745,-4.9630989106,-6.4081260587,-5.2810396507,-6.7217999165,-6.5443547934,0.2558726243,-5.5558765328,-5.1309269984,-5.7798314284,-3.0713953224,-5.5027882319,2.2095593098,6.0691149696,5.7395759517,6.1405244596,6.7463692025,6.2689284977,1.1780856365,2.329982402,-0.0052187866,0.1912133169,1.8509219941,2.444651211,0.2458667603,-1.7326827381,-1.6294513594,0.3508633815,-0.1891745395,-1.5097515934,0.095591005,1.6848908657,-1.6524063819,-0.2677945819,-2.5471009032,-1.4498293795,-2.3484923668,-0.1401998583,-0.6550558724,-0.8199686161,-0.6200380268,0.7020144809,-2.7114846034,-1.8614559053,2.274421063,-0.4545546156,-3.383567405,-1.6942623905,-2.5438389729,-2.0756287561,-3.6120043856,-1.9966800459,2.4563762269,2.9437206672,1.9380186191,-1.9381607374,1.8694653711,2.248406897,-1.4987882743,-1.2856134552,0.9810795016,2.9129600791,-0.0023075734,-0.5337173038,0.020505126,1.9266617299,2.9422862982,1.8988931021,1.0526066307,-0.3098621752,-0.4740558166,-1.1168141934,-0.2536663307,-5.1613696917,-0.953852903,-0.8068657665,1.9055952807,1.245462483,2.6887775966,-1.1129125231,-0.8214889396,-0.0911830813,2.5946690192,1.9380911394,2.7674673455,0.9210602464,2.1012424241,1.8055590903,1.7644553147,1.0813050322,2.2649365787,1.2947214048,2.4555833827,1.7493835212,1.8917557905,1.8425418315,-0.8279625536,0.4957884859,-2.8737489371,-1.1988316408,-1.0441215333,0.843830904,0.850822296,2.558970929,2.5605609518,2.066069976,0.033071966,-1.504682074,-1.0788529632,-1.719513927,-1.0221578266,-6.5032143637,-1.6359147285,-1.2007134606,-1.5438474663,-6.0198833221,-2.2441577768,0.0500707128,-1.1008168115,-0.4371462249,0.5199412123,0.1418422648,0.2802179774,0.2123799204,-0.3284409336,-0.5370042714,0.487954316,-0.4427009398,-0.1645588013,-0.025026161,-0.161170381,0.4035501706,-0.0945610796,-0.6195001992,-0.0744274366,0.0754088167,-1.0953049194,1.2712409168,-0.1583535388,-0.7817865749,-1.0083257706,-5.3904117161,-2.2035361601,2.9753094861,-0.8219637832,-0.5440449661,-0.111010595,-0.726886241,-0.7384629429,1.6827264041,-0.6651392764,0.2402925913,3.231519895,-0.4593118623,-0.728160594,-0.7904919732,-6.6511003504,-5.1015340286,-5.9789880174,-4.920957826,-6.8500795047,-5.5928143731,-1.4809444396,-5.3803159997,-6.7954167415,-6.1034472944,-5.8321447134,-6.7994702811,-0.9702335528,-5.7274067973,-5.7604581,-4.9633509563,-3.1814736592,-6.1013769503,-5.2418311537,-1.2446060429,-0.1616738944,-6.8583906087,-5.6071787163,-6.3722154272,-6.5018084866,-4.9236530242,-6.501766267,-1.3162859978,-0.5996453341,-0.9612918003,-6.770639913,-2.7603211854,-1.6088079185,-5.8508960646,-5.0120756002,-0.8606723312,-0.0756124159,-6.1677133074,-5.6506114698,-6.1019098103,-0.2731058087,-1.4701485352,-0.8201600531,-1.7387925106,-6.0087247142,-5.1417203593,-5.1292122687,-5.2005225756,5.2011121457,5.2982598731,5.0861208784,-1.2321924099,0.3931562697,-1.0801178493,6.0080321017,6.0916890777,5.8827868639,0.1191801441,0.079973846,-0.8902383682,-6.7520841294,-0.1910650189,0.9004707349,-0.5007636389,0.3438890217,-0.3989050891,-0.0590633599,-1.032108445,-1.0918256412,-1.0630756239,-0.5163850507,-5.6907871918,-6.1031077891,0.288080429,-6.4981309378,-6.7711452179,0.0819985233,0.4607609754,-0.4980501312,0.2143682848,-1.0154942409,-5.4257353714,-5.9099818007,-6.8733172807,5.2901872193,6.1719903495,6.3544050592,-6.8882331605,-4.9683118826,-6.3338476072,6.8165497155,6.6207562385,6.3689123631,6.3385876125,6.2623450892,5.9220791761,5.4581037836,6.3859311758,6.4671150499,5.8727473472,5.2135832953,6.5227211674,5.2889005236,5.1676633098,5.41174588,5.0583543815,6.3521200015,5.0624526581,5.2039517044,6.6656130253,5.2400760167,5.3978552299,-0.7823779607,5.402580158,6.6688833375,6.5423289675,2.4394637041,5.4647443157,-1.1446504326,-5.8932414134,-6.3867619715,-5.9884462138,-4.9889332149,-4.9303592834,-1.8526635589,-6.7611046097,0.551423261,2.4379319669,-6.6240318854,-5.4595286755,0.8983041691,-2.5189007351,-5.5337089107,-6.0028085825,-6.5504782934,-6.4856622058,-5.1204149938,-6.8312073619,-1.4418858385,-1.4788820355,0.0121165188,-2.0473180828,-0.6000843461,0.5532257105,-6.4265017544,-5.8370364713,-2.5871876756,-5.4824055491,-3.146430174,-1.6677539436,-6.5786945343,1.6874279795,-1.2876199547,0.0713355839,-2.8150790752,-2.550094689,-1.7155734099,-2.6380533872,-6.6391478449,-5.7700036889,-6.1304520122,-5.8920143642,-6.7589134135,-6.7078532501,-2.0899577779,-1.4921891701,-6.030704319,-5.1906215652,-5.7498004813,-5.9062009495,-5.9160253997,-4.9467337094,-6.4657509669,-5.6414243275,-5.2695906564,-1.587400988,-1.5480121516,-1.7027065534,-2.4219692812,4.936497394,6.7365196253,6.3862044799,-6.5878946556,-6.8964277692,-5.0547837699,5.9915425037,6.095515857,5.3478102648,-6.2555232473,-6.585491075,-6.6904851467,-5.1147218617,-6.4841948941,-1.0273664784,-5.7566124521,-5.4522519086,-6.7565197236,-5.710375097,-6.7490107695,-6.6941652641,-6.8385600819,-6.3506549789,-2.1851523403,-3.1374541196,0.2582846167,-1.3125138266,-2.0824344182,-6.3309770382,-5.9164281473,-6.4500270325,-5.5059973646,-6.4737540025,-0.7064702505,-1.0622512908,-0.5053501672,6.0681510796,5.7252640737,5.1964607528,0.0915545374,-1.3518361009,-1.4103593619,5.4604693122,5.756244671,5.1135897777,6.4484114113,5.4818871918,5.9731913688,5.8589025479,5.0859609405,6.4033056383,6.6374087537,6.4599111059,6.4048551467,6.515747464,6.2811217938,6.062425464,5.6618660682,6.7042060772,6.0393234459,6.3035023842,5.708077568,5.1132881027,5.5715591109,-2.0825309331,5.0308486335,6.5163228593,5.3025255503,6.1685245694,5.2875430371,-6.5289398672,-2.2794481662,-2.4303495714,-0.0654529446,-2.4716993931,-1.6545154595,-2.3708343299,1.0538976491,4.9665470011,6.7317149545,0.3600738204,0.5192698496,1.234337639,-6.272283184,-6.7191654442,-5.9834707738,-5.7583551699,-5.3402553975,-5.2402926563,1.1213786351,-5.5884528731,-5.6411921003,-6.3127118923,-6.3360820624,-5.5826290914,-1.3538388334,-5.3009075943,-5.377529693,-6.5936847774,-5.4093431106,-6.0911928812,-5.9389327843,0.8481457026,1.0812744276,-5.6264042317,-5.0750065204,-4.9778454285,-6.293914463,-4.9285905547,-5.9223139626,-0.125907096,0.861348989,0.9326765441,-6.482538196,0.1124479284,-0.2497026887,-6.8492397963,-6.5626576094,-0.0625927456,1.5505748577,-6.6430227895,-5.5798484546,-5.3325663909,1.417471541,1.2968529433,-0.2253043176,1.0927771271,-6.0675762478,-5.4663469775,-6.7486646062,-6.3309665049,5.7661794875,5.771078043,5.1381641869,1.4817571704,-0.2725363737,1.6455922574,6.7183261,6.31237948,6.5761603553,1.4125094776,0.5772471842,0.697468285,-0.7498314866,1.6309299767,5.9225412742,0.7798609869,1.1020342463,0.7549190629,1.3253445503,1.0763887825,-0.2792244153,1.2162031576,1.3656595944,-6.4142202723,-5.0081148753,-1.0357841371,-5.2649997074,-5.8965706401,0.287780897,0.0171539198,1.3004964598,0.6098973318,1.2135473096,-5.8734909412,-5.8391345203,-6.0121799219,5.0294543868,6.707690114,5.85844457,-6.5312761634,-6.8060245439,-5.5365775519,5.4275696857,5.0599670532,5.7133426586,5.9690780216,4.9493755158,6.0225008526,5.4942611561,6.2333903132,6.8304800726,5.6365895423,5.1389220507,5.727688867,6.2912125109,6.3252546216,6.6105040757,5.9028134965,6.0487492434,6.7560955117,6.8894672803,5.9369125641,6.8862940808,6.208431224,5.4892003008,6.7323169372,5.4966370764,6.6022386316,0.4493150432,5.2903852259,1.1769915806,-5.6938239665,-5.8119306214,-6.1256846875,-5.9285763227,-6.095719623,0.5053425718,5.2246176499,2.8597119558,1.9471448143,5.9963119202,6.6774443554,0.3630096298,-5.1671942036,-6.6786391743,-5.9011993682,-4.9590503666,-6.6683371978,-6.1165074711,2.3249342066,-5.1435979689,-6.4684372188,-6.5573352005,-5.3665332805,-5.7335279997,-2.7179675198,-5.2733146419,-5.8582868031,-6.8644653195,-0.6387490033,-5.6364601667,-5.2620669996,2.1009611949,-0.8652228634,-5.1044258941,-5.1880969453,-6.3514855846,-5.544250591,-6.9153443742,-6.6834708609,5.6203374009,5.249014862,6.1342294454,-5.7276191631,1.9609801781,1.4717289387,-6.4643537344,-5.5277154839,5.0643661302,5.342719773,-5.6334450816,-6.2079172112,-5.1307488699,1.7188054136,2.7531307158,2.1517747242,1.6332176159,-5.0798255941,-6.356648592,-6.1035644026,-5.9536172957,-0.3417236593,0.5684863223,0.5807354167,6.8461599657,6.1774879923,6.6460951062,-0.7622040072,0.4170012098,0.4703520934,5.770872977,6.5989444412,5.3381725328,2.7084308229,5.4520199962,6.7408825586,6.495103522,6.5154506702,6.0560012139,5.8879500222,5.1948125615,6.5947698427,5.666360481,6.2611373715,-6.8424160945,-5.7270250417,0.1794678457,-6.278514967,-5.7449368689,6.9119045641,5.0040295189,6.3243475991,6.502263908,6.285380419,-5.6003002499,-5.50776797,-5.2274878268,0.9096863467,0.4970153924,-0.2948962828,-6.0208919221,-6.7395527296,-5.6653997948,1.9476974639,0.5702661639,-0.527962009,-0.388236334,-0.1192318357,0.2961005135,1.0169973089,-0.1616205304,0.3367494485,0.2065776885,-0.4532633093,-0.1502554636,0.3052362503,-0.1350617894,1.0607708349,-0.6327786909,0.3881412861,-0.3074701405,-0.821858739,1.1625456344,0.1001525492,-0.1883479592,1.5511386682,0.4831613262,0.6692133888,0.0036550727,-0.1376578238,-0.1136899703,5.8457383583,-6.4628739094,-6.2581770929,-6.439603985,-5.0853088685,-6.0326323458,0.8784216314,5.9331594356,0.1572690169,-2.4734199625,6.4110431957,5.4256362582,-0.1130195192,5.6247395028,4.9216873953,5.8485652073,6.6368298622,5.4603977885,5.119161957,6.3992396609,6.1390531897,5.8455119752,6.4360601657,5.2504603249,6.8515256792,-1.2766590324,6.5309959899,6.6888319895,5.5491616216,3.7930156655,6.2369578524,5.7467757774,6.5257611403,-1.9039651047,6.6863073482,5.1780519905,5.3677075321,6.4661336623,5.4457524225,6.1458849037,6.354792033,6.9150064764,6.0712922919,4.9347614757,5.7764432704,5.4265458344,6.8716777944,5.1082722275,6.1634705202,5.5834313168,6.0899866219,6.0331347692,5.5247556346,6.8654362577,6.5104580799,5.6343652702,6.2202527575,3.0071220286,6.8605745583,5.1166990474,5.1964021531,-6.6043093231,-5.679016271,-5.0428268705,6.7152255819,5.2527027196,6.0746879406,-6.8871105769,-5.7591940028,-6.8161444114,5.7098507614,4.977442354,5.3584745975,6.6898748929,5.7624260144,0.8619211389,6.3938090174,5.6461815995,5.5937268113,5.1741718809,6.2775458159,6.7863741516,6.7657456024,5.0506694746,5.0525304834,5.7681644535,0.3125761639,6.5184604486,6.6936891953,6.1461955324,6.1242636978,5.3192768061,6.5826761004,5.1087898296,6.6207495637,5.2130337126,6.4235113242,-5.9906099378,-6.8918377719,-4.9560091719,5.4620630529,5.1551905229,5.4002630144,-6.6955031639,-6.3930489465,-5.6979275964,-6.0938524292,-5.298639876,-6.8526087198,-6.2410217846,-5.0600342118,-6.6711754723,-6.2172787074,-6.4406176626,-5.1258060923,-5.3925751198,-6.6248348065,-5.6110703976,-6.5449776731,-6.0785234212,-4.9582018209,-5.295269183,-6.6864560441,-5.5146956316,-5.0289201923,1.9715369943,-5.6098288319,-6.0351423123,-5.6900964224,-6.2152052704,-6.3861945753,6.0432106559,4.9364503501,5.2874920845,5.6168099179,5.7822913242,5.2135106699,1.0999784276,-2.12275418,-1.66686483,-2.1519607796,-2.9641635777,-2.8147103772,0.7803100615,5.4004710123,5.922202025,6.69973292,6.4546634748,6.5801132589,6.4925720121,0.5068736202,5.9324404527,6.105979133,5.833629914,6.7894852505,5.4632959303,-0.0789627582,6.4989254565,5.6809641741,6.3205293488,1.6803616791,6.2480889946,5.7497507691,-2.7448770813,-0.4677513957,5.7984192878,6.1167044263,5.761529459,5.4491848948,6.7426166068,6.9033437194,-6.2841486713,-1.2712765901,-6.075861028,6.6745440912,-1.4281319676,-1.0462212354,6.4805324196,5.7900502089,-5.8378305728,-6.3726265251,6.0599337225,6.3376708046,5.4477532918,-1.9616815961,-2.2643267058,-1.9474252901,-1.8575645136,5.0523873382,6.7666235314,5.3509713832,6.7269343202,-0.8507302971,-1.8335213764,-1.0628435096,-2.3452647293,-1.4443274604,-1.2883118342,-2.9257190829,-1.194843467,-2.0776479106,-2.5770813649,-1.8240377642,-1.2715843019,-0.7938629289,-1.7626813203,-1.7600310281,-2.5395306436,-1.2184162714,-1.6633804533,-2.3797952396,-1.2791380777,-2.5664718834,-1.8963892721,-2.2919119263,5.5067637444,5.3342160035,0.2239076087,6.8557840911,6.0243893839,-2.0013700594,-2.5047171715,-2.2916817881,-1.4721259734,-1.8341475185,5.582018764,6.5908218453,4.9773113811,-2.3901448341,-2.5222892936,-1.1281141628,6.2072476573,5.4770755984,6.2202039022,-2.414893396,-1.5056502598,-2.1144821147,-2.1522767103,-2.3360312662,-0.8850755105,-2.6075059873,-0.8749428848,-1.2430485019,-0.9527345915,-1.5872223274,-1.6756686302,-1.5045766889,-0.8938214611,-0.8607231881,-1.371983628,-1.716441682,-2.4637053281,-1.5764991807,-1.3318679936,-1.4124580755,-5.4884259331,-5.5994300482,-1.8662234414,-1.3957088904,-1.2049808858,-0.3180748979,-1.9356234214,-6.3124498722,6.70184864,6.5306037765,5.5515408034,5.6034674759,5.8435347298,-0.1552203242,-0.7959512967,1.2208829242,6.196852611,0.5094889994,2.2882694809,0.1881516043,-5.2751989869,-5.2375378954,-5.5611164507,-6.6970897567,-5.0077149356,-6.0460510296,1.051741961,-6.3071065244,-5.6191611982,-5.9956319029,-5.4916456419,-6.6737428325,-1.4294303609,-5.60310936,-6.279840103,-4.9856729964,-3.2027281847,-5.6616398975,-5.9313760209,1.3730928642,0.6087509874,-6.1047242568,-5.6370419332,-5.9591090637,-6.285562771,-5.8083762148,-5.8395044612,2.6969660981,1.548562005,1.2220238556,-6.3260395924,0.5720384559,0.1443745734,-6.3207063513,-6.0249290201,0.5669262656,0.5436351508,-5.2675519764,-6.3837088688,-5.2131616307,1.6297634422,1.4318035599,1.1756011302,2.0081412525,-5.4079012705,-6.5762484258,-5.3720852911,-5.0533075361,6.4927667014,4.9536050847,6.3550239966,2.8897370803,1.587598103,2.8286877354,6.1349929781,5.7459736991,5.0697694356,1.0394646817,0.570798778,0.8222881073,-1.1572534264,1.1081480918,5.1445660787,1.3547244095,0.7287307355,0.6794147381,1.129600189,0.8867198072,1.4203967536,1.3794375536,2.9442448129,-5.8261111448,-5.118832646,-1.2304851912,-6.9141619978,-6.36522953,1.9388303636,2.7889584605,2.3916676997,1.1725702944,1.9699494122,-5.8677400988,-5.4419637697,-6.8313786284,6.5490074426,5.9021528004,5.8322744867,-5.6365515751,-5.1024212,-5.1055086377,5.0770488037,5.8475485243,6.3044597,5.1153848824,5.0780983828,5.9811620708,6.8970688497,6.6182464695,6.3774207194,6.3139993247,6.2609395363,5.009878628,5.8363507403,6.5079915596,5.0420340114,5.0855405992,6.5740743352,4.9355216631,6.7377292569,6.3624917275,5.2123696824,5.8486538925,6.0599885681,4.9202276738,5.9726527962,6.5558487054,0.3613876881,5.0403044168,2.2797535772,-6.8397959945,-6.6665728743,-6.0159090492,-6.3649695736,-5.6478182183,0.0004899727,-5.7080879885,-2.4894176599,-1.7750437588,-5.0339391697,-5.2622070109,-0.1125782151,2.6880697874,1.2387800197,1.1100673059,1.3760119937,2.52014624,2.2116020428,-1.4896041787,1.2220092806,2.7108880809,1.2158427796,2.1073040779,5.501793721,2.5422445473,1.677174734,5.6964154638,2.6737951884,0.6621675624,4.9594717743,5.780059337,-2.5785283608,-0.5350579974,5.7537021901,2.0952260674,5.7542599955,5.9074023733,6.4300512585,6.4653557034,-6.3328224492,-6.2381993799,-5.2786396389,5.1411632216,-1.0696165181,-1.7449536421,2.1110421925,2.1771072255,-5.5831696887,-6.8634194377,5.5121522418,2.8059484133,1.3556291679,-6.1577981977,-6.2313797163,-5.7354845939,-4.9853958301,2.8589279581,1.6274864488,1.8692638177,1.119149668,2.1078004744,1.0312303057,2.6147929348,-5.0793290772,-5.1726551141,-5.5574047345,-0.4217344504,-0.0373783576,1.0035556151,-5.0356123811,-5.1276475154,-6.2498648275,-5.0763988058,-5.8618290084,-2.0235417179,-5.2500203951,-5.5657166879,-5.0422749585,-5.8126333676,-6.725364046,-5.5888807655,-6.0020516519,-5.7389735779,1.922367682,1.8800658828,1.815053976,1.6682481841,1.6464510002,-6.0321122515,-5.7636480912,-5.0006929552,-6.6722292284,-6.8060114616,2.5829946292,1.0550834441,2.3232742179,0.2090045868,-0.1160312638,2.7073753823,2.4045201768,1.5048111761,2.5015438409,1.2134866608,1.1905649123,0.7673288124,1.0786490401,-0.2694317846,0.244111678,0.9334931976,0.0556955712,-0.5760387174,-0.2702315934,0.5985022937,1.1890940422,-0.4598468496,0.0273564786,0.417567748,1.3058902676,0.8016519068,-0.4176592166,0.3421678067,0.1847597661,-0.1074560386,0.6491589403,-2.0649515969,1.125069673,-0.4041109336,2.8734091384,1.7763146124,2.4359807075,-6.5783109067,5.4109337546,2.5232857322,1.5377816223,2.6840803303,5.5464703322,-0.3435815167,2.5839043775,0.3221801453,0.9567933074,2.7273467206,2.4588547482,0.568237902,-6.1984252861,-6.1970597828,-6.2665726008,-5.5933505504,-5.0914312229,-6.630707546,0.9937343076,-5.5710281555,-6.6584757649,-6.7785978065,-5.3323313065,-6.5245168319,-5.6836510546,-5.639892421,-6.4773889619,-5.2956043344,-0.1288797406,-6.7077845725,-5.340798678,2.1666170428,-1.3711887286,-5.2617908941,-5.6795747302,-5.6755140287,-6.0933400845,-6.6880046659,-5.9993099109,2.9496487449,2.8006963352,2.5819924086,-6.6868422198,1.8130789569,1.9055622344,-5.8274708692,-6.7769464533,2.3697919662,1.1008111133,-5.615488834,-5.1033336046,-5.3941356486,1.5636912602,1.5415331915,2.630665583,2.8527936195,-6.8362038694,-6.5552736165,-6.8367934394,-5.2154609897,0.7073285246,0.8864351872,1.2533909175,6.6566850895,5.5682453106,6.3961485556,-0.8830053611,-0.5906498123,-0.2590879655,1.4180782603,1.2505700669,1.8531707786,1.5802357366,2.8225350683,2.8901817394,1.7006225213,2.171221574,1.6148657118,1.444383513,1.2451512969,2.4992285076,1.2704233767,2.453938843,-6.8264975808,-5.2479589657,-0.0027808006,-6.7787380339,-6.5398324493,6.4970688873,4.9823671626,6.6975279635,5.2036710122,6.1940604901,-5.6913991974,-6.061994094,-5.3143921207,-0.4264285344,-0.4577876966,-0.4925263896,-5.3175891751,-5.2145465679,-6.9157104836,0.4655123779,0.4920945089,1.3035388624,0.301052009,-0.4950005719,0.038660575,0.1601912879,-0.7929637366,0.594440798,-0.8531680466,-0.6052733547,0.5294527655,0.329154261,0.1903922023,0.9545205235,0.8116601881,0.2018742465,0.5846241039,0.1589093571,-0.0373730572,0.6227172619,1.9027459002,5.162096629,-0.2768908985,0.4446705095,0.1159028237,-1.0440038508,0.9144765998,5.712774264,-5.0575564904,-4.9882155983,-4.9774486376,-6.1038101907,-6.2454678841,2.2629014034,5.8155262949,-0.6038210252,-3.1366493301,6.0768594812,1.5177678935,0.1125979294,5.0456679519,6.6765539226,6.2426238056,6.4434464767,6.3550615159,6.5495222423,1.5673538958,4.9548955941,5.7547885649,6.5409058582,5.3793281477,6.8862375793,1.0579145172,5.1434442914,5.7062575178,5.6052625797,6.0255914112,5.6846936227,5.6220859553,1.3731716465,-0.8064455231,6.8860901836,6.1887597606,6.6569080584,6.0475363336,5.7670918558,6.6175032219,0.6147376414,2.9702177422,1.4264807737,6.4283669709,0.1652743669,0.4100384249,6.6267756911,6.8978049336,0.3847878221,1.3713964489,5.7110547958,5.7381961824,5.2843548266,0.9005615613,1.250559895,1.3624397709,1.6630268105,5.2239335218,6.3984776909,6.3815726197,6.5646453172,-6.7411514855,-5.0728491526,-5.0960137062,3.2061951758,2.1342449948,2.9583214605,-5.6369139164,-6.3009829918,-6.6350842396,4.9749932298,5.1701227688,6.7347253401,6.6633532586,5.5003733879,0.9762257631,5.8699603746,6.6607431488,6.4901615956,6.264734537,6.1837022962,0.4011396824,1.3388669107,1.2288959182,6.3250467234,6.3901354379,-0.2049104667,6.6365294594,5.633365284,1.4916327831,2.078037825,1.6321995047,2.5247027024
   1.7729869405,6.1365372656,4.9879785087,6.1823067577,-5.9337463178,-5.8392679081,-6.30139886,5.1341780946,6.5933011051,5.7566487569,-6.2765333435,-5.8053524321,-6.3676473011,-5.4212463472,-6.3605565724,-6.5269251901,-6.0106385057,-5.7284549366,-5.2687737198,-6.7540365438,-6.3501916851,-5.7117211561,-6.8545542973,-5.5968280428,-5.3814417973,-6.5011729205,-5.885082982,-6.6735682272,-6.8672640072,-5.5192307953,-6.2657249743,-6.3769812851,1.1197056131,-6.3566450492,-5.6055772959,-5.9735280103,-4.0311341819,-5.3321574118,1.8593844823,6.0494375848,5.2737118659,5.6808022133,5.2226114311,6.377394363,1.3042431519,-1.448513751,-5.7072262814,-6.5775290782,-0.1404643352,-1.8695835332,-0.0212467396,6.8924854742,5.7312483214,6.1519113961,6.4726117297,6.5065316546,5.175392205,-0.4145869002,5.2901115521,6.7066012918,5.3696380604,5.6344517817,6.0157670532,1.2030791536,6.1477968782,6.637547666,5.8091482244,3.3844174754,6.6293680955,6.37711878,-0.8385736338,-0.4375600761,5.2975979924,6.6719201327,6.6809183646,5.6836400045,5.4585141532,6.246132217,-1.8543846498,-1.3732488358,-1.0299196522,5.4105574649,-0.7491131315,-1.1060478448,6.6948300235,6.7932222187,-1.3819647494,-2.7217086176,5.5898828854,5.8213783972,6.1734925067,-5.7914207684,-5.2352308427,-6.0872469177,-5.5404922629,6.127764666,5.5391388482,6.6925516835,5.8410659632,-6.2166905465,-6.0494806641,-6.1279772376,-2.1840352315,-1.9827690088,-1.3755561661,-4.9726914093,-6.7362338341,-5.6645139654,-2.772447987,-1.6107422476,-1.5927051714,-0.7030955708,-1.726548057,-5.1201824612,-2.2855672606,-1.961944758,-1.3893664878,-1.4611750197,-1.0284111245,-1.7379432068,-0.2433152572,-0.1547927047,6.5316013552,6.8770087398,1.1082198465,5.2151732129,6.8469863459,-2.7031604959,-1.6640907749,-1.2286710317,-2.2747724133,-1.3552302157,5.6359748182,5.5261127541,5.7380149629,-5.0400219299,-5.4283380892,-5.5419058681,6.9142640065,6.4062866435,6.2659119131,-6.3670230682,-5.416508767,-5.4462919601,-6.5492004899,-5.1238693232,-6.4376673137,-6.3485550635,-5.0655522831,-5.284882011,-6.0929785553,-5.4645987435,-6.8702610423,-6.5611727953,-5.544393969,-6.6735508897,-6.5100540787,-6.4799290362,-5.4972492775,-5.4639510356,-6.7527899368,-5.3223979149,-5.1351225293,-5.7121672829,-5.3948135918,-6.6744028878,-5.045195791,-0.4327366488,-6.2417171678,-1.4088116584,5.6958981411,6.7048821411,5.8810094413,6.5309654295,5.5732335926,0.0017492505,-6.0557265464,0.6972581789,2.3062533639,-5.9823023663,-5.7347004855,-0.1257998712,0.1115786815,-1.1240213339,-1.3752764588,-0.9033032511,-1.674270405,-1.4502647588,-5.7319870734,-0.9886189257,-0.5416779679,-1.727742291,-0.1707998832,0.182922436,3.8936341932,-2.3669681462,-2.9335085638,-2.2166407198,-5.5463332536,-1.2434155738,-1.2765272624,-6.7638609017,0.4856802164,0.2797622526,-1.3331794792,-1.3374274277,-1.5735488896,-0.2742939677,-0.6037165069,-4.9239788996,-6.1159520592,-5.4279071253,-1.144985682,-6.7058495403,-6.0977263791,-1.1368749166,-1.5600023668,-5.9517748779,-6.6634499895,-2.7801262316,-5.1920737439,-4.9661793476,-6.1389289597,-6.7931214635,-6.6328881921,-5.1958319229,-0.8016905731,-1.3056676594,-2.1586825602,-1.5473903225,5.2186702556,5.2921026127,6.0342069431,-5.5314804858,-6.1656435314,-5.9790117941,5.9934537052,5.142173051,5.4628209325,-6.794943923,-6.6743496338,-5.2067773073,-5.0280675432,-6.6035787424,-0.9838118199,-5.3358459809,-6.3042036804,-6.5794239191,-6.2546014391,-5.0013695974,-6.3429146462,-6.4200908744,-5.6126581554,-1.8259258433,-2.467003199,0.5641269471,-1.6339708942,-1.7184080904,-6.7953305774,-6.3780021627,-5.743790259,-5.0630823318,-6.4749066846,-1.0613859106,-0.6357736973,-1.7974905297,6.1831411287,5.284440728,5.1044011349,-0.8833507686,-0.0020231205,-1.2369907244,5.3598292202,5.0833641142,6.3823745099,5.2660525563,5.3467192475,6.6060037779,5.2736063294,6.0713806409,5.8599425102,4.9324354138,5.7248631635,4.9575889529,5.0969966781,4.929953929,5.7215912029,4.9971253434,6.7647610296,6.7819939553,6.4290564588,6.3646194708,5.7925059147,6.3603525885,-1.0064702351,6.1447078069,6.705998578,6.4946427883,3.2354504688,5.1117783394,-5.3888215359,-0.7631846037,-2.0309261172,-1.3764280349,-1.64837362,-1.853269855,-1.226526348,-2.0243487871,0.5540725048,0.5335485693,-2.8655120763,-1.5706592564,-1.4227543289,-0.6164406614,-0.3336782009,-0.8744836666,-1.5342817937,-0.5537006391,0.226838494,-2.4343677105,-0.6757774942,-1.0066454964,-0.9385788528,-1.1572478204,-0.7686514876,-0.4370911544,-1.1674604532,-0.9415059187,-0.2588714483,-2.3611129622,-0.6922237205,-0.8146936366,-1.8564667213,-1.0468518562,-0.8277550463,-0.8345248786,-1.3606849784,-0.5869775594,-0.0221772696,-0.0175914233,-2.5943494517,-2.6095186047,-1.4663695524,-0.5482650047,-0.5003504764,-0.6890303812,0.0670914213,-0.5967475727,-1.1921999312,-2.3057423776,-2.7609056895,-2.5267496245,-0.8425573223,-1.1623883291,-2.4630487639,-1.9946496804,-1.935631916,-1.9827386407,-0.9844904118,-1.2997734114,-0.5403494632,6.0564444601,1.263185931,0.9300755341,-1.1260122486,-1.1584939944,-2.3188923143,0.3706519392,1.5803935005,1.5225434693,-1.7093309704,-1.4796135405,-2.3224472322,-1.8084013183,-1.282618013,-1.8592072897,-2.6833417783,-2.9379213364,-2.2958748296,-2.1626566585,-2.0088099382,-2.13988709,-2.2728252506,-1.1213973813,-1.5047530939,-1.1036212197,0.0073824005,-0.1043213019,-1.308992677,-1.1337352196,-2.7968189972,-0.9860165041,-2.6871737451,-0.9806151349,-0.5992475843,0.4717700308,0.44401548,2.7351960012,0.9536672118,5.7156942816,-1.2385357856,-1.4626249444,0.0108316793,1.5041591178,1.439361165,1.8184087182,1.7514251153,1.0728545771,1.2132964661,0.8568796157,0.1545660003,1.6755913402,-0.1181948902,0.2467879068,0.0600303906,0.7515084654,0.3768938158,2.8828829736,2.9214924717,-0.0498887272,1.7169749941,0.4200783029,0.4214061725,0.9908942902,1.8971307994,-1.0572203694,1.7831848887,1.0787978363,5.5430253588,1.3137817557,6.4025489983,-1.8639681982,-2.4111857934,0.0011732644,0.1674834101,-0.2239849503,-0.7011078804,-2.8174484102,0.2088850862,-0.6062177537,-1.4662252885,0.4836218084,-0.554599934,0.4749049237,2.6250508785,5.0305469372,5.3700260009,1.8564791009,5.8615621314,6.8487140014,-0.0632980788,6.7482895999,6.8783966721,2.3941258539,6.2276228756,2.7077225311,0.4912926205,2.5454136537,6.2811402973,4.9526436254,2.1819179684,2.0977699376,4.9388734912,1.9694793155,0.8694300999,2.0804300756,1.5508375036,1.7278132196,1.744061823,1.1086181715,1.4008696496,0.6397372428,1.1606385943,0.3449833363,1.3406715782,0.504673422,1.6342155359,1.8275118452,5.2211132581,0.1710566556,0.7529781738,6.1345324075,5.1171888915,6.4024904852,-0.5912245396,0.2873148619,0.1545198465,0.3074886379,1.8976575695,2.0903155721,2.1120207572,2.9665170215,-6.8482820158,-5.4820423985,-5.0167400502,-0.6637370053,-0.7170430345,-0.5012246795,-5.4463182038,-5.8482619509,-5.0032492988,-0.3786206662,0.6680272099,-0.5483165819,1.9492373262,-0.0568051343,0.5220430106,0.8669413663,0.2677114938,0.5678244594,0.1552712308,1.0726353908,0.3490121379,-0.2381592838,1.3472170355,2.4323345388,2.4961427705,-0.0637123499,2.4136906567,1.9393827161,-0.6028617199,-0.1097608585,0.7453615479,0.0829351066,0.4117055841,2.2088876378,1.7700073598,1.4632715413,-5.9562568427,-5.2439121773,-5.801395453,2.7966104024,2.3824786863,1.0591038341,-5.5540565981,-6.2308049999,-6.7237988458,-6.6677484474,-6.8892675722,-6.8433497994,-6.5793264097,-6.4556169302,-5.8474197149,-5.0007761968,-6.32522462,-6.2604282709,-6.2287301948,-5.6857716789,-6.798355109,-5.1636748929,-6.5662008243,-6.2133579427,-5.6299249794,-5.061091369,-6.3812536436,-5.4940553142,1.5941548925,-6.7014157622,-5.1424938115,-6.1858955022,-3.0344707421,-6.57529427,0.070763719,1.0803632304,2.3964880773,1.4725456702,2.5807093544,1.9795121132,1.4653931213,6.7230186359,-0.4095026863,0.2781188648,5.0815368761,5.4371435402,0.319463843,-1.5020041939,-1.72450676,-1.6363841471,-2.5099254403,-2.4313554012,-1.0438411996,0.2837198407,-1.2682327439,-2.6961794248,-6.8825961258,-1.036565607,-6.2936157804,-0.9928007895,-6.8672873265,-6.2511051806,-5.5090576059,-0.763137585,-5.6965416599,-5.5834004872,1.5003488817,-0.5011936727,-6.6413022017,-5.2753317534,-6.3865478613,-5.4666357229,-5.1845767089,-5.7541136019,5.8420723001,5.2485195698,6.0504481667,-6.5591439994,1.2455294048,0.3508661021,-4.9706524862,-1.9247533735,6.3218237149,5.785940261,-5.7596750766,-6.3604134067,-6.7631918545,4.9294167729,5.9503006325,6.4386095802,6.0952656833,-5.2914259938,-1.2171435698,-2.7903179484,-6.764897921,-0.9297043249,-0.7654162932,-1.3739892841,5.2699074681,6.0545068127,5.2281254363,-2.8206691113,-2.1861667402,-1.0829984654,5.6672979149,6.6837411894,5.2495601504,5.0245863944,5.3438290378,1.1834400852,5.2836176698,5.8279845337,6.6152317792,6.2238601377,5.8734476962,5.9582279953,6.8647468173,5.0639871406,-1.4669302151,-1.47236054,-2.0267233328,-0.9865285843,-2.7964619328,5.6895129144,5.495967732,6.5050434319,5.4531912079,5.9755626549,-5.9518356849,-5.5812508047,-6.5638112824,-1.5359262357,-1.4139089241,-1.1410800469,-6.3907890019,-6.5482454829,-5.4762016844,-1.5904437918,0.2887636486,-1.2748004708,-2.3363702188,-1.0747886865,-0.7734428332,-1.4703292892,-2.8647362911,-2.2060835047,-2.2963698099,-1.2131282274,-2.8015274643,-2.9239691529,-1.0899174294,-2.7443994418,-2.7603287822,-2.5784657163,-2.0213651211,-0.9840844214,0.0868540088,-1.1445422365,-1.0541775876,6.4613213145,-1.0735525029,-2.3437872438,-0.7042127858,-1.765227803,-0.0097375792,5.8005738551,-4.942294064,-1.5563496024,-6.7686909175,-1.8024636796,-6.0548039335,0.5587831192,6.3458351983,0.0903666698,-1.4679007013,5.1544243694,5.495379694,1.1950575757,5.2045825926,6.8575957109,5.366474583,6.1838976523,6.6944767189,6.5014925504,6.8196295816,6.632811914,5.5545329482,4.97233155,5.5911121148,4.9429624928,0.279157589,6.5213692754,5.036093873,4.9962144215,3.2351252845,5.7352506559,5.6014420933,2.8267650152,-0.7431996122,6.8664635978,5.8786535472,6.3681946114,6.8224312308,6.2356613573,5.5542684144,5.9133157306,5.6917448317,5.9323362377,6.8482647677,1.8256804766,2.6775983632,5.2817429399,5.2255700548,6.6330101358,4.9880868345,5.3064247194,6.5446305943,5.8564179879,6.672310259,6.7381137664,5.0402109204,6.4417495837,5.601510878,5.5113863221,6.3183630525,6.2019099515,-5.3372904241,-5.1775536696,-4.9244908783,5.5525061789,5.3053740693,6.6738858668,-6.8377209538,-6.7217008954,-6.5136457027,6.6558114475,6.8126179305,5.7548546161,6.7993712219,5.1297992943,1.2893564488,5.8986062952,6.7916473401,6.5974190634,5.2667075062,6.3491668354,5.1685480905,6.2752055206,5.4241647499,6.7701358859,6.1309128139,-0.3644658849,6.6260068545,5.470062623,5.5511632555,5.3038001611,5.1902193,5.6362497828,5.6101914507,6.3159423449,5.438071198,6.8852359019,-6.7465469212,-6.1220419859,-6.59782805,5.7688378667,5.4701284107,5.1943407032,-6.1890393147,-6.0445549148,-6.5519896902,-5.5729679282,-5.1753276857,-5.8998898169,-5.9927176596,-6.3913526262,-5.6587214799,-5.5166820821,-5.7257017925,-6.4219248311,-5.5083591391,-5.4831159667,-4.9536344334,-5.2048417768,-6.2119017435,-5.0655280697,-5.6269385911,-5.0529640913,-5.9670376065,-5.8689738395,1.1108879689,-6.2003613995,-6.1627089592,-5.6839124619,-2.3144862401,-6.5165353098,5.8283887155,5.3196322053,5.6645769871,5.0376989776,5.2333463888,6.722483958,-0.3088896469
##end
biasActivation=0,1,1,1
[BASIC:ACTIVATION]
"ActivationSigmoid"
"ActivationSigmoid"
"ActivationSigmoid"
"ActivationLinear"
