encog,BasicNetwork,java,3.4.0,1,63663380639628
[BASIC]
[BASIC:PARAMS]
[BASIC:NETWORK]
beginTraining=0
connectionLimit=0
contextTargetOffset=0,0,0,0
contextTargetSize=0,0,0,0
endTraining=3
hasContext=f
inputCount=130
layerCounts=3,6,22,131
layerFeedCounts=3,5,21,130
layerContextCount=0,0,0,0
layerIndex=0,3,9,31
output=0,0,0,0,0,0,0,0,1,0,0,0,0,0,0,0,0,0,0,0,0,0,0,0,0,0,0,0,0,0,1,0,0,0,0,0,0,0,0,0,0,0,0,0,0,0,0,0,0,0,0,0,0,0,0,0,0,0,0,0,0,0,0,0,0,0,0,0,0,0,0,0,0,0,0,0,0,0,0,0,0,0,0,0,0,0,0,0,0,0,0,0,0,0,0,0,0,0,0,0,0,0,0,0,0,0,0,0,0,0,0,0,0,0,0,0,0,0,0,0,0,0,0,0,0,0,0,0,0,0,0,0,0,0,0,0,0,0,0,0,0,0,0,0,0,0,0,0,0,0,0,0,0,0,0,0,0,0,0,0,0,1
outputCount=3
weightIndex=0,18,128,2879
weights=##0
##double#2879
   0.3733199077,0.8452995081,2.6803232792,3.4223603699,-7.9220687252,-1.9254359992,1.2809507455,0.7284369693,-4.6743747697,-8.349304433,-8.5401474621,0.4448297215,-2.1563419671,-3.1384661133,-0.7371414191,-3.2140008878,9.3076252095,-0.2437008452,-1.2553235116,2.2818472085,1.7576936158,-0.8598557078,0.9696373401,-1.7304376477,-0.5320715491,-0.6145542353,-0.0386449406,-1.8827611369,-0.6688064353,1.5593621358,2.4473599147,0.0976924933,2.4363330471,1.7267270344,1.9454671644,0.0401425573,2.1815585752,1.1059665757,-0.5723201377,2.3239014547,-1.1424634455,1.7798083621,1.7381575406,-0.4679928227,0.2228867067,-0.8154211862,-1.2968557115,-0.7790597355,-1.0529837533,-1.5900601703,-2.1934206856,0.5575965629,1.9034273015,-0.5675814792,0.9438800478,0.8415273077,0.4456605273,0.6653439815,-0.1866235819,-0.8680124312,-0.095340637,1.1197714747,-1.6479867517,0.1798406703,4.7240255934,-0.2206398044,-1.4798117304,-1.6166273101,-1.2369263702,-1.2275677882,0.717728679,-0.8392018799,-1.106472249,0.9599331264,0.9094779579,-0.7347592317,-1.5007416188,-0.9651230167,-1.6908853917,-1.4415053088,-1.2283170721,-1.2757967701,-0.5037044,0.7626530158,-9.7419238218,0.4236738836,1.9155831134,-8.2393640103,-9.1512509868,-8.3143961523,-8.784691077,-9.1643184064,0.4002948127,-9.6699548631,-9.6896340062,3.4805454453,1.0344124471,-9.7330833783,-1.2022977448,-0.6247597619,-0.3794262298,-8.58660384,-0.6493905719,-8.6510986259,-8.9516526836,-0.1734840923,0.6286881865,-5.2157968775,-1.5958619142,1.6586246694,-6.2330864569,1.0020784369,-0.6558910944,-0.2007943568,1.7648087727,0.9983464662,1.0094660431,-0.1309827354,-5.9924293284,0.3511493405,-5.7995467914,-6.24627284,-5.7761849437,-0.9408283962,-5.638959068,-1.2587598094,1.0252864386,-0.734233732,-0.5642338131,8.0661003626,8.3373072772,0.8173925188,0.6317632372,0.1566459544,-9.5036308008,-8.4783952656,-7.8229776339,-8.4521933506,-8.4403903895,-9.332243118,0.9334782626,-8.7291315135,-7.9246647645,-8.558014772,-8.1139192059,-9.4149074616,-2.5267844606,-8.2913216315,-9.6138090414,-8.4727643916,-3.2855956313,-9.3422530131,-8.8532987687,0.3443421364,1.2597887392,-8.7988874989,-8.7635146326,-8.9043110761,-9.6587090629,-9.5673050654,-8.7353386984,0.9236333762,0.8861829937,1.152564197,-9.5470746436,-0.3602292267,1.3766631009,-8.1570987235,-9.2921088743,-0.1872520485,0.9026060072,-8.1086863297,-9.6521187478,-8.7502922586,0.9954393887,0.9177448282,1.3991133162,0.7185122666,-8.0260052047,-8.76639298,-9.5785711106,-9.1644644695,1.0635076473,0.7027568262,1.7299162632,1.1616749428,1.5383284643,1.5691412484,0.9411202092,2.5486814797,0.8649147599,0.0155123009,0.3803249305,0.9283270592,1.0415323408,0.7640876572,3.7763647975,0.2597730593,1.4846533743,0.1019120947,1.8689900491,0.7424905922,1.2288560689,0.771881838,-0.4399946304,-9.5820834736,-8.3804855282,0.3359058062,-9.0536330756,-8.3645813875,1.7294591036,0.3005391003,1.1963402826,1.20918364,1.000748288,-8.2654991262,-8.77613029,-8.6136256691,0.0882833684,1.3359769617,1.0346141206,-8.5446892224,-9.38446979,-8.2381651839,2.3889280374,1.774384865,1.5741121865,2.0688647456,0.7487225489,1.5598031904,1.0334749906,1.2415420717,1.7851732698,0.0517510697,0.5354131379,0.7491773314,1.5018108503,0.0921504284,0.8094998723,1.6269935573,0.9940917645,1.062672921,6.598436483,2.8228740962,1.8272330052,1.2316859282,9.4545307603,0.8294167401,0.3352981267,4.1984583305,0.0385365295,3.3683621058,0.5441444791,-9.6241364327,-8.6330436265,-9.0936225079,-9.7356272002,-8.5431445987,0.5582649204,1.2713193711,-0.6823311729,-1.7618232859,1.6365320641,0.1899255424,0.3974265982,2.3554365907,3.5705158653,2.9142264374,3.5185048382,2.7809036015,2.7336081586,-0.9356306619,2.7892320914,1.9959419994,3.1102584578,3.1614940163,3.661752262,1.1186363957,3.1798650274,2.0754714292,3.3828148178,2.1718041809,2.0249739792,2.5027231595,0.3311584687,-0.6504381051,2.8766932305,3.1568167811,3.2626543274,3.4664034785,2.2958992674,2.050354302,-0.245959419,0.4418831291,0.2855625824,3.244875738,0.7173180399,0.6191776214,2.0531071136,3.1580521283,-0.3174196165,-0.2931918586,2.1751794062,2.9223424741,3.670091098,0.0239065074,-1.1195762341,-0.9400858074,-0.7135975086,3.8965843608,3.3320049873,3.6902555915,2.5782838858,-9.6748140526,-9.2867439999,-7.9991189985,-0.2940807493,-0.1806075602,0.495661136,-7.9136980379,-9.5688699276,-7.745634848,0.1560274334,1.090854484,-0.3283936217,1.1940927999,0.0764386746,-0.1912370436,-0.6279604914,0.3389869789,1.2102245478,-0.6606565858,0.245976475,-0.6845354152,-0.1477020328,-0.5785732533,3.1962508816,2.0760545172,-0.9932902039,2.4144657303,3.373802561,0.0058758009,-1.0605537588,0.2093864626,0.352671821,-1.0618625566,2.5410140727,3.8181623797,3.5522217432,-8.8158093358,-8.9145875176,-7.8178416377,2.4821794473,2.1578966389,1.9770836094,-9.2423486342,-8.3289720361,-8.6567680847,-9.6687941036,-8.6636836857,-9.0200403271,-9.0017395843,-9.6899191185,-8.2185166869,-8.7798983196,-8.9717083409,-8.6547809189,-9.2515447237,-9.0574054433,-9.7272790258,-7.9172875647,-7.9415532293,-8.1928563276,-9.4253331484,-8.9888034885,-7.9032494219,-8.7466854753,-0.6410384021,-8.8316077518,-9.6303760388,-9.2386796917,-2.3751285244,-8.4325158187,0.2038696068,3.5339112345,3.2642666862,3.7882727253,2.0003182925,2.4602491057,0.6800896727,-8.1917931279,-2.2921436746,-3.0528983031,-9.3608124783,-8.8875113095,0.2576461103,8.4702130771,8.9760382812,8.275368466,8.5042916221,8.4951014259,8.9929174067,-1.4353380418,8.8028482704,9.0992163042,8.9489025924,7.9379027661,9.5618210627,2.1812733743,8.0550068094,8.3895878858,7.8892246716,0.9545875197,8.3097718479,9.6317838735,-1.6781707193,-0.8913994162,9.6248200086,8.3359329105,9.4497541064,8.9567422321,8.8735344329,9.7401101885,-9.3251642571,-8.0754433367,-8.1450994387,8.4007105241,-1.1492948555,-1.2923642737,8.2072732998,9.2056918484,-9.4938135395,-8.9695604922,8.6510122392,9.504373321,9.5609843458,-8.1756903734,-9.54396137,-9.7253090495,-9.4127608133,9.1499965763,8.7593233932,8.2577651357,9.5355750775,-1.8508292976,-0.842071349,-0.9667572335,-9.6257724843,-8.6668204881,-8.8602182421,-2.5994189458,-1.6440844562,-2.2282814477,-8.8212169681,-7.7566844372,-8.3250217568,-0.3480675686,-8.8352972104,-2.4243413732,-9.2863895209,-9.025952916,-8.7119412722,-8.841853509,-9.6939926229,-9.1940264529,-8.3831841676,-9.3805359346,9.6850262626,8.7081328996,0.8185543109,8.6546619154,8.5243012897,-8.7474184383,-9.5216108501,-9.4666762199,-8.1319035785,-8.7849129981,8.5962654,9.17188938,9.4132360607,-1.8632268513,-3.105555045,-3.0878800345,9.5483026101,8.8262196288,9.1050580381,-1.2822972421,-2.6555076738,-1.3005618841,-2.0719894236,-1.921617411,-2.6631009814,-1.7809053409,-0.3860095705,-1.2921724994,0.1944439665,-0.6916635466,-1.5006907449,-0.4769545971,-0.1015056128,-1.0839544795,-0.6223217814,-0.442427936,-1.4178740463,-3.4623376947,-3.0731501211,0.1983922881,-2.3553453033,-2.6421937004,-1.8543886076,-1.9535204497,-2.3871173515,-1.0804167166,-3.0021666451,-8.9461169982,9.4455464944,9.2817439162,8.521773615,8.8999620642,8.7079673058,-0.5458059312,0.1721063142,1.7554544707,2.8173044137,0.2703140161,1.6666194814,-1.3516288192,-8.6226971105,-8.7273015308,-8.7278545361,-8.4439043068,-9.0616490155,-8.2113824012,2.3653591593,-7.9817433533,-8.9422739338,-9.2344055916,-8.12958688,-7.8916523557,-0.9152615616,-8.11322984,-7.891085605,-7.7872408645,-8.7470210644,-7.7511245168,-9.6394530904,0.4096948337,1.7304874275,-8.6624107139,-9.6392482507,-8.0563881741,-8.8038821251,-8.0788684049,-8.0897252307,0.9849003586,0.0246471297,0.3440345183,-8.4894396533,0.182931371,-0.803395472,-9.5405143794,-9.2599530951,1.9427885832,1.6312313712,-9.5792254914,-8.8593347029,-9.6939275094,0.7057996303,0.6409578699,1.2984222404,0.4774517131,-8.3573278888,-9.4685796607,-7.7700894957,-8.7856733019,2.5032782851,0.3146792833,0.6503654446,0.7015740773,0.3134929521,0.870951422,1.7094932564,1.7591777307,0.5197880163,0.1073972043,0.775461337,0.8044813233,-1.5403283808,0.8287127478,2.028854257,0.4784528094,0.1297668937,0.9973890665,0.9191898568,0.5314418481,0.6912557076,0.7080515664,1.2021978671,-9.059875444,-8.5829478988,0.7746610185,-8.4601150221,-8.4991165065,0.1034345041,0.8462083428,0.36524124,0.5062559827,1.8672817647,-9.490152422,-9.2323232875,-9.4855974928,2.2599589802,1.6127442971,2.2343782686,-8.2742352858,-9.4154621014,-8.5772566285,1.1878221549,1.0765730217,1.4692106686,1.9573117033,0.4231312113,2.2652622103,0.6685335243,2.0651404583,0.2969387393,0.4884346506,0.9466407904,0.6114715494,0.3542601621,0.4961624683,1.0770709906,2.2037588791,1.5073068246,1.2773970115,2.1566461823,1.129680384,1.5701734919,1.58315135,-0.2468832311,1.9134647189,0.9285627649,1.2496831745,0.4306319482,1.0633526389,-0.5504966747,-7.856342769,-9.7103352069,-9.4047421958,-8.3209231347,-9.4015216367,-0.5813968292,8.489540876,0.1338892563,0.1980599168,8.4482385815,8.729410684,0.1636915041,-1.9252278446,-1.2583842474,-2.3706989733,-1.29831786,-1.1917032042,-1.2525528605,1.812856245,-1.2762757087,-0.973703149,-3.3715515678,-1.6194418451,0.1874758855,-1.3654928505,-0.51988304,-2.5304691314,-1.2729270469,0.6635140941,-0.9535073498,-1.6438566487,6.8595683155,-1.6382994408,-1.1647577311,-4.3326772999,-0.6271621478,-0.6696449114,-1.2278917337,0.1766822188,9.2865229831,9.6768780376,9.3152122,0.117412386,-0.0112318322,0.5377989759,-2.2347883653,-1.3599304428,8.2007426247,9.1478239442,-1.2241209317,0.4193462175,-0.3623347339,8.0895130792,9.4278948676,8.3453556076,8.7724964072,-1.1569481497,-0.4583006166,-2.1757951589,-0.9907226805,-8.385352186,-8.4273059304,-8.1733732568,7.8662936276,7.7833253087,9.1998029905,-7.8197957964,-8.6994390536,-7.7794815467,9.2860833374,9.3728741096,8.8548394789,7.7462646959,7.9323161448,0.9098267602,8.8136331237,8.3515361017,8.5890093363,8.2895981074,9.3370440589,9.5316209212,8.4186591255,8.5841522721,-1.7664510034,-1.5403338152,-3.8500707454,-0.8864919468,-2.112968531,9.6107737102,9.2124094316,9.7064926147,8.1646196506,7.7571651123,-2.049221871,-2.5629654581,-2.58914569,-9.0264963409,-8.6139890693,-9.6483111099,-2.3354609969,-2.5137502232,-2.3822617221,-9.546614437,-3.3119722933,-9.6373257932,-9.0251208445,-2.3796720722,-3.9423176471,-8.8024895948,-7.9840225697,-2.1237240732,-2.8073615911,-7.8618605033,-9.5210469585,-9.1206943574,-8.9796824962,-7.8534208311,-9.582872885,-9.1655661272,-8.6566771364,-8.9688111053,-8.2158049401,-8.9031918937,-1.994315004,2.1377237536,-2.6830457625,-2.2884524732,-2.6003956207,-4.3356058317,-2.759843049,8.4456867008,-1.6044676691,-1.2303083328,-4.3328515671,-0.2342784913,-0.839862878,-0.8123625552,-0.6319388966,0.6508802025,3.2499704893,-0.5319303735,0.0884398121,-0.1627710403,-9.053490953,-9.6439144087,-8.451402234,-8.8309577883,-7.9872707192,-8.1140308482,0.737777213,-9.103194267,-8.6478686344,-8.3082443364,-8.2293330999,-8.9987419205,-0.8048002829,-8.6667673711,-9.4892967666,-7.8855184715,-9.7360395498,-9.6325799671,-9.2806808851,1.0143339097,1.0102519275,-9.3933840753,-8.6966517849,-8.1770463101,-9.433681157,-9.123053905,-7.9203822546,0.6493819831,0.0127855108,0.0035458959,-8.923932738,0.3327136051,0.3262421472,-8.7035074879,-9.0400596889,0.8386359379,1.0179348753,-8.5210667719,-8.3954281929,-8.8681294902,-0.0430846414,-0.2562387795,-0.3877575664,0.2521631836,-7.8089136516,-9.1851498964,-8.9061824822,-8.0494038657,0.0527927975,1.3486147207,0.6466898478,0.3738694385,0.1140006154,-0.3738666787,-0.2555020822,0.4458063185,1.0745643386,-0.3401043597,0.6207489285,0.2455845658,-1.2898280909,0.5978155227,2.6455146901,0.6463201035,0.0578538016,0.2435551692,1.2626108882,0.1511010039,0.5053619318,0.2628027604,0.2194061151,-9.4788189815,-9.340081682,0.0742780065,-8.5682288484,-8.5067226273,-0.309452503,0.881512147,0.2543446778,0.5112468288,-0.4032514673,-9.4194917591,-8.6271707697,-7.9654916542,0.3693185147,0.1692958255,0.4805243871,-8.8830276284,-9.5202092888,-8.2220298424,0.4057336305,-0.0600681858,1.793473776,1.5146745121,1.1187945296,0.668152428,0.1154303136,0.5342707836,0.6228674508,0.0829962347,0.1548003568,-0.2440308069,1.1433516778,-0.3625106558,1.1505072014,-0.0407255987,1.2581111351,-0.4525850581,0.9291693531,0.3569931247,0.1218880251,0.2889848406,1.8188464785,1.0722611313,-0.0370218369,1.6947311586,1.5186485031,1.1498137295,0.4462182749,-9.4667903572,-8.8073866146,-9.0257289264,-9.5781464564,-9.6910356979,-0.4323024076,8.7174062554,1.319510795,1.3730872414,8.0773652307,8.2348471507,0.0578757475,-2.6371192153,-3.0171919367,-3.5310646433,-2.980676346,-3.8758343979,-3.8311648638,1.0219603847,-3.301675799,-3.2694903674,-2.4557993777,-2.8175749103,-3.3520088454,-1.7221896109,-3.0228770613,-3.5107734741,-2.7578866681,-2.1579915467,-2.880134786,-3.5480591746,0.9310658579,-1.9416703807,-3.6471894521,-3.879169871,-2.9698482058,-3.2408484133,-3.946943785,-2.1340821656,7.8421245495,8.3699595826,8.6691721903,-2.8846247554,1.0489548653,1.5185370581,-2.3607564188,-3.556833566,9.4097369365,8.5123895678,-3.5248873511,-3.7491167596,-3.2511928199,9.3972602902,8.8141009093,7.7447985008,8.5150998916,-2.6219144737,-2.6368229932,-3.9127982892,-2.7409227522,1.5960673921,0.2800064513,-0.1130458363,8.3070958182,8.6813718297,8.6437678935,0.9629687767,0.4528163583,-0.1422360193,9.4079980194,7.7489872843,9.222619914,0.6910970147,7.7461004571,9.3901377884,9.117184251,8.2415988399,9.5835942492,8.4588329784,9.7060499813,9.6485030434,9.0020942421,8.5217271393,-3.5776313141,-2.711760687,-0.813257159,-2.7086969673,-3.9002204993,8.947877223,7.9156883301,8.4486064763,8.5584415152,8.9042179839,-3.6234263804,-3.0864510243,-3.5176158974,1.2330953192,0.0633440829,-0.0303924699,-8.1422942811,-9.1789691536,-8.5486888831,0.8505263429,0.5924016864,-0.5356417475,-0.0137216344,-0.3436237908,-0.0135961732,0.6729465033,-0.6256870895,0.1512294142,-0.1126461421,0.8062161965,-0.4832415606,1.3243924093,-0.2732519149,-0.1340860831,0.4434852468,0.1480795589,0.4931636106,0.2501524036,-0.3837686522,1.13013904,0.3700865214,9.4132194254,0.1617208804,-0.4162936464,1.4137816361,-0.663493514,-0.1435004278,8.9346775788,-2.1092659403,-3.6380854247,-3.5073298195,-3.7301855077,-3.4754550101,-0.2944633325,2.18512535,9.3745738385,4.1842479274,3.5382549853,3.660804806,-0.4984970968,-3.9045389248,-2.7809976008,-2.123288855,-2.7101146144,-3.0134609793,-3.1662911806,0.6909855272,-2.1979095136,-3.4527899844,-3.1271420899,-2.8108054021,-2.1428889391,-1.8604779069,-2.8204822758,-3.3248780385,-3.029845363,-2.4243486046,-3.5645317368,-2.7947404519,0.704351039,-1.8784395226,-2.6157360434,-3.133037279,-3.9090083222,-2.5146484284,-2.8933897395,-3.5570878673,2.534963091,2.5516002366,3.0915797161,-2.403220473,0.4079620326,0.2620155336,-2.8327559861,-2.9984601135,2.1007230167,0.336494047,-2.8922896855,-2.1692942084,-2.2244636157,1.7624063506,0.8757267959,1.3577624991,1.8496527016,-3.0798183284,-2.7728728441,-3.4659002458,-3.1980128974,0.4690014722,1.823121081,1.7133743547,2.3828199013,3.8740073161,2.7660654404,1.7405777339,1.2110724576,0.7816564053,2.0255217735,1.4322355822,0.6149810748,0.1558418599,1.2287927748,8.1113430941,0.8201036752,1.4497295035,1.5705808629,2.086342138,1.6745805251,2.1953712003,3.6978722808,3.4195692843,-2.6076908776,-3.648920046,-3.2219902137,-3.3853080866,-2.5138258322,2.1472205191,2.0694123718,1.0934375145,0.5015793433,1.1636139827,-3.1306691194,-2.6799581501,-3.9475782225,0.4797680836,0.6168776269,1.599728856,-2.5723676973,-2.8308994997,-2.6997929573,1.6472757327,1.4809785865,0.9349275459,0.1730505229,0.042912947,0.6621623769,1.8076328262,0.0818386548,0.2681835196,-0.2980917457,0.221672799,0.022797389,-0.3041549425,0.7873151235,0.9948325296,-0.5226237754,1.0434321039,0.5549748645,6.3848073275,1.7948273028,0.2723927518,0.2094731145,8.2163220681,-0.6131215644,0.607332206,1.5453798471,-1.1341616281,0.9566007331,3.8073311018,-2.2259237367,-3.1753965007,-3.4052338653,-3.6957960379,-3.0268363427,0.315718357,-8.0889845275,-0.7979948216,1.9823693836,-9.2335472819,-6.114542777,-0.3724434339,-2.5467656325,-1.8387852266,-3.1426077819,-3.5545776086,-2.5106633152,-3.5257447464,-3.6752929267,-2.5314910994,-2.1617848383,-2.4910903214,-3.3781020222,-1.8502222861,1.1787066787,-2.232845792,-2.4966803486,-2.8986402803,-0.2515271291,-2.2169840367,-1.7480956559,-3.0234211017,1.3229060339,-1.5332502332,-1.6187541151,-2.7764330438,-1.7853072902,-2.4464281103,-3.070098548,-8.0745669724,-8.2717052735,-8.4800834908,-0.3265889245,-0.3600241462,-0.8121282166,-3.0160342155,-2.7717709426,-8.521714341,-8.613808538,-3.4933124408,-2.4742392734,-1.3931232179,-8.8764890892,-9.5804887998,-9.2986965398,-8.2765165046,0.1940838925,-2.9074900306,-3.1082310591,-1.8769817298,9.7011172685,8.5539548818,9.0301389735,-8.0129156084,-8.0912691987,-7.7771840596,9.7090936887,9.0555649143,8.6897525398,-6.352901204,-4.9241253834,-5.6737004845,-5.3082691207,-5.5535296239,0.3004198536,-5.1110699808,-4.9655474739,-5.69352551,-5.5603980525,-4.9702963641,-8.5279048561,-8.6900343273,-8.0537617438,-3.082234293,-1.7728141622,0.0477555179,-2.619392267,-2.6574188113,-6.3460766724,-5.2927477564,-6.0309834883,-5.5096973069,-4.4777799617,-2.8535371029,-3.0078143158,-2.4097851221,3.0079596988,9.5928527598,9.233109605,-1.6469472619,-2.0065855386,-2.9182037848,1.9600429702,8.5383616268,9.7236452333,8.0978481983,8.9983793631,9.6908434468,7.8396763325,9.7219314182,9.1205244357,8.3053532597,8.7375485648,8.5794042918,9.703910575,8.0109231732,3.1664207807,2.0377540151,2.3589098548,8.1832191608,8.2899923111,7.9210730017,8.2107551861,9.3153446014,-2.639956476,9.6736445238,9.3166976949,8.9063858132,2.1372330358,9.6041483485,-5.6358602104,-3.5316205127,-3.5402062573,-1.760503554,-1.6565559973,-2.2971800057,-0.865917271,-0.4634587901,2.5065141652,3.4444827881,-0.2297659753,1.0219796007,0.4599878954,-9.3097938854,-8.8685025622,-9.6896100023,-8.4634219996,-8.6939353377,-9.5233712677,-0.0539116049,-8.7099794021,-7.911677257,-9.6136333576,-9.0177571973,-8.2378260633,-0.1438009424,-7.7765199875,-9.6765553343,-9.7417331522,-1.1837202249,-9.385962619,-8.035588514,0.3731199177,0.9768853019,-9.4523643689,-8.9589716861,-9.2950747921,-9.3856329327,-8.3058175137,-9.5231908445,0.2007080739,1.0711484972,1.3942133309,-9.2046669177,0.2076276309,1.0093716639,-9.0101142203,-9.5482223617,2.0030178996,1.0404715869,-8.4364468559,-9.6653773633,-7.7508251292,2.1987577843,1.7073312929,1.7705430935,2.3983342675,-9.5466462687,-8.1651339931,-8.2345328852,-8.6920018301,3.2843963433,1.4691645366,2.6549720968,0.7720525034,0.9415375965,0.7661945794,1.16007494,2.2285573051,2.3622126195,1.5226575821,0.2384421963,1.3865133201,0.6795920491,0.0965643336,3.5369707585,0.9963724037,0.8815387879,-0.1399278887,1.5498075266,0.7027095594,0.721980818,1.4855260977,1.3692677419,-8.5970820339,-9.0517516028,0.5301823863,-9.6533298033,-7.7744720446,0.0100509937,0.4756831727,0.3558497293,-0.225368182,-0.0837344004,-8.851765483,-7.7801690919,-8.6097945191,2.0708137374,1.5484304515,2.4648425299,-9.2739370377,-7.7758013483,-9.191042257,4.4237760518,3.3675861614,1.1725443463,2.4483717286,1.7058983681,1.6516045419,2.1259082841,1.1615936589,2.3890890551,1.2996570293,2.8069888082,2.1201813068,2.1032473879,2.2763220078,2.4736622924,0.9223056752,2.6034258789,1.8480164226,6.0638786038,1.0095254304,0.9543488519,2.041743659,1.7993966903,1.4223734999,2.6746136787,5.4197422566,0.8219576411,5.5175264108,1.3158741246,-8.2792259455,-8.3197480766,-8.8202010209,-7.8548428601,-8.7053714145,-0.0814900154,-0.5489651511,1.4268663825,4.6206585926,-0.9555773631,1.9658085099,-0.397288828,-9.563795854,-8.3238745313,-9.0747630125,-8.3234674745,-8.9026419887,-7.9612773143,0.009324827,-8.5209703214,-8.7146601428,-8.5322682607,-8.9037454737,-9.2145393383,-1.745497496,-8.0049260062,-8.5925330018,-9.158091905,-1.9447229084,-9.0820046704,-9.3179052542,0.1270931827,1.1802549138,-9.4957734455,-2.9238859494,-7.8376242209,-7.8335214646,-8.2525701523,-7.9213397604,0.2461702397,0.998654655,0.9144549598,-9.3843168286,1.4782283171,0.0167494135,-3.7748387092,-2.5494911617,0.5259162665,0.7657558903,-8.8176390168,-8.3861615882,-8.5864131629,1.6092040479,1.2777519165,1.8719682849,0.8568578365,-7.8712154606,-9.6625775934,-8.9727734079,-9.5340140589,3.7509232942,2.5179702777,1.4405778211,1.716227061,1.1546208948,1.6376802389,1.545292632,2.6222966554,2.6347681478,0.3752209025,0.4232779097,1.5143621754,0.2324053926,1.3390839634,1.1884239346,-0.4114477379,0.6861928264,0.6359725045,0.0857860126,0.7247572355,0.7965782307,0.8557649129,1.891844958,-7.854513103,-8.7649620737,-0.5491100299,-8.541844925,-8.7644470197,0.1336217563,0.52131239,-0.4379875566,0.7099599881,1.2822835528,-9.5623450639,-8.8601433246,-8.9156133917,1.6182210942,1.8141314289,3.8466373008,-9.2356999121,-9.1144277821,-9.6199452204,3.2218547205,2.0375354267,2.7981277256,2.300203595,2.0018938831,2.8415648937,2.7304253931,1.1326694266,2.4210209732,2.7606866061,1.8343292032,2.532522816,2.2342987355,1.474441957,2.392131333,2.6489802672,1.9695218005,1.8816468096,6.2153416654,1.3528361527,1.8532336917,2.5465971872,1.2105824621,2.5651847644,2.491001481,6.388968718,0.6642724486,5.8895392217,1.4548264889,-9.0893576875,-8.245106807,-3.4244443846,-7.8124712368,-8.0289970412,0.4730737017,-8.5034364333,-7.933789552,-0.9806548073,-7.9232515728,-9.0447674071,0.6347281236,8.4103886598,9.1100800218,8.4275160926,8.894685549,9.3728825511,9.6104129596,-0.9502515521,8.2986665955,8.6840405308,8.8314799418,8.0098289474,8.3788458426,2.7413017194,8.5687464226,9.5715545422,9.5784661143,1.9986888352,8.2270039823,8.9849961636,-1.1655025384,-0.932546206,8.1104044681,9.1700736484,9.5047291085,7.8502413945,8.8877515973,8.8855150289,-8.9245348175,-8.1793081089,-9.2252559536,8.2035489343,-1.4588751318,0.0568650185,9.5952124974,7.9863916876,-9.6670216552,-8.5518998971,8.8862405571,8.2028514882,9.5843041797,-9.1801333888,-9.6351745405,-9.0220595965,-9.2976928805,8.2166095599,9.2580699171,9.5838167441,9.5409062948,0.3192327395,-0.1646974964,-0.4557798871,-8.1449029725,-9.5826273949,-9.0700362915,-0.607186529,-0.692173172,0.5547760524,-8.9381636543,-9.0228107175,-7.8291129039,-8.0481709995,-8.5042132476,-3.0091527965,-9.586548085,-8.4833273805,-8.9923586672,-9.6612038135,-8.3468448185,-9.5266321242,-8.210969625,-9.372234671,8.439449004,9.1553510813,-0.7245890216,7.8292307004,9.005432919,-8.8258236491,-9.3096690704,-9.1545402738,-9.4086007965,-7.9204904538,9.3093199837,9.3211298376,7.9801543745,-0.2415057268,0.0769798942,-0.0684402291,9.6091163994,9.2503193566,8.4455151689,0.4035603896,0.7849735203,0.5440666695,0.5505732932,0.1155168326,0.3221452083,0.436061547,0.2193957304,0.5561303301,-0.4486014148,-0.8087069893,0.8979360965,0.16159722,0.2296071749,1.9367124604,0.9310842829,-0.4773722941,0.714716156,-1.2355615547,0.1561789822,-0.3816042603,-0.0233001452,-3.7997962374,0.8992478616,0.616550019,-0.0383075079,-0.6384622771,-1.2319995057,-9.3361231354,7.8128320051,8.3895421951,8.046850887,9.5576169963,9.5553278733,0.4943938097,0.1106266504,-0.0858120424,-1.8772254616,1.1004304903,-0.2685210735,0.0984340552,8.2801793544,8.7157305956,9.044667181,9.4344534228,7.7545097338,9.2783803665,-0.4906157852,8.0276923393,7.8947291084,8.0331311365,8.4404186309,9.6570387973,0.7475118917,9.7349017381,8.09579272,8.8127075138,6.2342108948,9.653821551,8.543641383,-0.2000844227,-0.9531038907,9.5041873619,8.7523244333,8.558708327,8.9605182683,9.4182082299,9.4855431371,-0.8387250629,-0.7411172049,0.7059871833,8.3983697082,-1.4052140461,-0.9080502221,7.8110255988,8.4074145994,-0.2526402873,-0.2443363032,9.1320916195,8.786791485,9.1031095622,-0.1959273254,0.7757892122,0.2681538356,0.9740493762,8.9849721411,9.1129282028,7.754067444,8.4371604296,-8.6221051479,-8.7441858307,-8.7832981947,0.5516434243,0.627226276,-0.4175476151,-9.1728106779,-8.7146810705,-8.3433422354,-0.5040118247,-0.0202922863,-0.2083954863,2.5203390539,0.0748701306,0.397585604,0.622750582,0.0773654194,0.4845343053,0.6971263288,0.0226801481,0.6321695311,-0.4641460843,0.2134211121,8.6894816274,8.7132069554,-1.210722881,8.0968481022,8.6286516154,0.0631030007,-0.3573037052,-0.3702558727,0.8161993795,0.5163982188,8.8460462348,8.1283296309,8.9981057554,-8.5862219689,-9.1135275908,-9.4625439864,9.5453770064,9.3477784987,8.5899546306,-9.0053584104,-9.7244505107,-9.3545745998,-9.4220531141,-8.3637764641,-8.1239668391,-7.9600389272,-9.1124734976,-8.9948259391,-9.2179919253,-7.8415105127,-8.6060409613,-8.4968330749,-8.6581731347,-9.2368199523,-8.3243557606,-9.0997576,-8.6281656047,-9.4691866558,-9.4346678132,-9.0247590108,-8.4115094096,0.4222351366,-9.6622536385,-8.2846980309,-9.4846511433,-3.3999621788,-8.2784893839,0.3191295378,9.0818700561,9.2231979682,8.3351910478,8.240849603,8.7264026964,-0.4348618806,0.7560044309,8.5711787195,9.5957224338,1.1601856415,0.6249836497,0.1221296776,-2.1648343145,-3.078089471,-2.8350316965,-2.6152137931,-3.1805804447,-1.8215991225,0.4732452845,-8.2883288246,-7.8032086694,-2.7642629104,-9.1108629372,-2.2538917275,-2.1128079057,-2.3675023789,-2.3756757739,-2.4873087515,-2.9508408112,-2.8021821649,-1.9479215363,1.0924383116,0.0235089157,-2.9134782003,-3.224009988,-1.9951690277,-3.8189997179,-3.2053981746,-2.0512001589,0.904946189,0.0846659823,-0.2256370615,-2.0761773647,0.0876818958,1.3835286399,-3.5466884889,-3.4516398378,0.7219227068,1.3731379549,-3.049654217,-3.8395860492,-2.4163637433,0.8350860668,-0.2500935904,-0.1853928835,1.2555440681,-3.2791951118,-2.9740041909,-3.069408386,-2.9976180307,2.4486599776,0.3130136022,1.3659965132,0.7097531189,0.3856602771,1.3602590345,1.9031933713,1.4102812574,0.3264448849,1.2706792758,1.0651319227,0.004228956,1.0333904273,0.0591028798,3.8914452396,0.8315190211,1.1058206889,0.491632241,1.0992538356,-0.0505653983,0.8634120129,0.5980180497,0.193886787,-2.747919693,-3.9239037893,-0.5719505014,-3.7389580774,-3.507486698,1.047860868,1.6495975656,1.1658325594,0.8411113737,1.7240691986,-3.6013608093,-2.550274248,-3.2991649975,1.7715015345,0.9103162181,0.6863125622,-2.729672857,-2.9874723819,-3.1200155938,0.7877015494,1.0804156396,1.3820261859,0.1342788339,1.4392535963,0.3253878887,1.1229255139,0.4603343552,1.7259390744,1.3903749573,1.6674283555,1.4503440873,1.7202419619,1.1813726365,1.3436665774,1.2166567115,1.1165124705,0.5669079481,6.8510111663,1.3838287608,1.6527428383,0.000886783,9.2685204851,0.5926076493,0.7489133862,1.3568852322,-0.5161491545,2.8607404522,1.5335475033,-2.5816452324,-2.8977117207,-2.8008889676,-3.49921728,-3.3177914691,-0.0030990751,8.4414337036,-0.7199955271,-0.4969861107,8.2862279378,5.6039643428,-0.0778183441,3.4777984656,2.6786786502,2.5947168868,2.4660855892,3.2055177606,2.5473973982,0.6905684622,2.1730948205,3.0308735694,2.4230862534,2.515479703,2.5977895536,-1.0105660018,2.1076284224,1.993851135,2.7341897596,0.7844254455,3.152779471,3.4646536903,3.3320469811,-0.447345557,1.1007016859,2.3817539378,3.3496726108,3.523958615,3.4260470103,2.8003003724,4.6301712613,5.5549998554,6.0874375462,1.8574355823,0.2583958398,1.8554332444,1.7279365799,2.9597599569,5.2796812811,5.0690018794,3.6055684034,1.952521058,1.3446057661,8.9964643208,8.225577374,8.8876956863,9.5647225181,1.0669120212,2.1844344533,2.3743755349,3.4515455572,-8.632241239,-9.1951241125,-8.1322829974,8.4565879433,8.7885876403,9.6307397556,-8.4204816409,-8.0842667156,-8.0890410551,4.5613912163,5.4516867576,5.4497992452,2.0625211251,4.4309030953,0.7503607027,6.0941358957,5.3795158621,5.4176788255,5.5133887269,6.2555074295,8.8375798839,8.4554150366,9.2073795623,2.0606673819,2.8095681878,-0.9526766796,3.5463282475,3.3748528621,5.4252894651,4.6110608946,5.4510558555,5.1146860745
   6.2413409375,3.044330539,3.1684116934,2.3526478544,-9.4782723082,-9.0801909719,-9.645434763,2.5330502815,3.0337841825,1.9540789698,-9.5633999153,-8.2287898073,-8.6575895429,-9.4164168961,-8.7321869258,-8.7493233627,-9.3878563033,-7.7625136876,-9.0560334105,-9.2156153763,-9.182831312,-9.5524029235,-8.0611403667,-9.1474491399,-7.9383522252,-9.0743393622,-9.5542044059,-9.7199472801,-9.4929098465,-8.5117361239,-8.1807426046,-8.8297670114,2.4732322148,-8.8018620538,-8.6016415592,-8.9454446578,-3.3497465712,-7.9864395129,5.820688991,2.6133925147,2.383781861,0.9186696604,3.1057901222,3.4177505942,0.4575719068,8.3624477434,-0.1358880253,-0.7966475563,8.5049675732,5.0901236877,2.1699718506,3.4999876863,2.2503061393,3.3039709573,2.5104659765,3.5808730053,1.8189863575,1.2726938176,8.4137428925,9.2647521333,3.6634281276,7.8945266565,1.8400249383,-1.137958463,3.4059270664,1.8704795096,3.625215085,0.7721320482,3.3672008926,1.8318442538,2.4877841358,-0.082043228,2.629466365,1.184318632,3.2486832595,2.8459749654,2.4528080357,2.0430039605,5.5180505403,5.9614748519,5.1349053754,0.3414249361,1.2143847608,2.2530487129,1.9528655796,1.8788840886,5.3862077472,5.5957057942,3.4355431141,3.8276493195,1.4184077523,4.9431302246,3.247990079,4.368012246,3.1810889288,2.6664768759,2.8854646612,2.3504693445,2.4613544189,-9.0220228866,-9.2630466265,-8.9952577812,1.9579039919,2.1513324134,2.8742661112,-9.5508151908,-9.4218244083,-8.6995474344,4.9688232874,4.3943739836,5.3200937649,4.9529636155,6.2873724964,-0.6541270669,5.576087242,5.6442576601,6.124189691,6.0706146521,4.5145385326,1.9965265443,2.6444212605,2.3335451451,8.7415647118,8.167076637,0.4618268044,8.7283983447,8.8134985289,4.5149869216,6.1679201344,5.1588187077,6.3296916657,5.0498536544,2.612805581,2.0670436528,3.3841721813,-7.9855596254,-9.3729880895,-8.5018847511,3.7921211509,2.0788515736,2.5318791426,-8.023051354,-8.2620957214,-8.371002513,-9.0991587345,-8.9727854052,-7.8945849573,-9.0027293743,-9.544598526,-8.6062322223,-8.6950234559,-9.2308294107,-8.8581054316,-8.6928988585,-9.0102359805,-8.119661929,-8.7406306381,-8.2058456428,-8.0666667902,-8.4050533865,-8.6805203457,-9.152629469,-9.379468802,0.4429208378,-8.438135597,-9.5512469883,-9.6450811026,-2.2163115782,-9.0444884676,6.2999511123,3.1705586818,3.0565585583,0.9928276903,2.7197664626,3.5816077122,-0.6025025216,8.1894136285,0.5768710209,-0.7059688755,8.4043986072,5.9617814294,0.9666194884,2.9287519806,3.0335334279,1.9144005817,1.6303491667,3.5258459321,2.4275408701,1.793006405,1.424823707,3.1731295678,2.5903267418,1.7059278192,1.5442064005,-0.7482422803,2.840705756,3.000464051,3.5876519263,1.9879240936,2.3735763613,2.8138996138,3.698124735,-1.6413573098,0.4377195711,0.8092306999,2.6066336981,2.0469360848,2.3772901124,2.9047824412,4.3954831217,5.0766242126,5.3448795247,1.5563814455,1.1586194996,0.3005942808,2.6161230044,3.4857185976,6.1040650116,4.9485081236,1.7253533734,2.8576295178,1.1558780455,8.5788057513,9.1111093112,7.8090547051,9.0867485743,0.6967393613,2.6979522571,2.7410479333,2.1113059963,-8.7286291385,-8.4599264749,-8.112870221,9.4085267834,9.4436460394,8.1322940699,-8.3016714147,-8.3333965065,-7.793897419,5.6240160103,4.5476588351,5.7165621632,2.7642530331,5.0820499946,0.3046885567,4.9718703867,6.1476421434,4.7333122116,5.517004123,4.4628255055,4.7723743046,6.2248124363,6.3678304371,3.1356498607,2.1252459663,1.0080058962,3.1143189928,2.0224404533,4.4236277803,5.5486987913,5.6418524572,4.8655933986,6.2436115531,2.2687703794,3.2206068419,3.3719670269,-9.4909387395,-9.4737876389,-9.0969982617,3.7454184679,3.745171659,2.951022977,-8.5824184177,-8.9360536713,-8.1902200896,-8.1368505917,-8.2323139794,-8.2100324528,-9.5863439438,-8.1474842587,-9.1408198787,-7.9760112258,-7.9357088561,-8.2024190845,-9.4090437038,-9.4870015575,-7.8861152509,-8.325121467,-8.8709008333,-9.0477608902,-9.5143031316,-9.0854347883,-8.2552744737,-8.1847060527,1.0133658219,-8.9193636713,-8.8993755871,-8.7593109908,-2.4137726115,-9.6062527249,4.4329966116,2.573644919,2.8164047549,2.5030175499,3.1082031503,2.3299771003,-0.001898778,8.5567981276,0.5046717142,-0.6928973251,8.7731702842,8.3387512248,0.3141163712,-8.0799879897,-9.3607789348,-8.4110565419,-8.6318982189,-8.816594058,-7.8508276006,1.8706458178,-7.8139428755,-8.540398623,-8.0467855045,-9.4374971181,-3.992853292,-9.4728476858,-9.4753274784,-8.9348802728,-9.2931305985,-1.712167211,-7.7934823909,-9.3881891329,1.8739713974,-0.326788109,-3.5020803366,-9.272997132,-8.711392563,-8.9324146633,-9.7017301812,-9.1859661224,8.3396389922,7.8000929652,9.3538578903,-9.3825471071,2.4711232746,2.2751326916,-8.2932437528,-9.3113047784,8.8693550223,8.7905194408,-8.6912942642,-8.4197438872,-4.5181454354,8.5314239386,8.6033978324,8.4058311564,8.8267522047,-2.8834329609,-9.223564859,-8.5306820275,-9.1370799452,-1.2495850345,-1.5513293765,-2.0225588116,9.4902802711,9.1929719499,7.8271812636,-1.4809902378,-0.5333396586,-1.1848692988,8.8242554379,8.1670739501,9.6574221726,0.5075471867,8.8527877278,0.9809320775,9.2850019406,9.32210697,8.2063099667,9.5067397101,8.0436241737,8.6967669932,9.5496360824,8.8571747405,-7.9097060913,-8.0005892328,-7.970330133,-8.5489885706,-9.5932791873,8.970689529,8.627450267,8.1425772234,9.2501297616,9.2860859088,-9.3367584064,-8.544805525,-9.2304693577,-2.0383323241,-0.5086082311,-0.4770198276,-8.7098909041,-8.1756167318,-9.5659237184,-0.1960010572,-1.781606167,-0.0052088868,-0.7940468099,-0.6767175048,-0.9755445449,-0.5018669812,-0.9387573917,-0.8829795811,-0.1403942691,-1.3808750382,-0.7944304272,-0.4053261008,-0.4648651572,-0.2055244173,-1.1907742211,-2.3403441075,-0.4818193138,0.0245274827,-1.7523785871,-0.8175187213,-1.3771256024,2.8353360551,-1.6891225962,-1.8611717573,-0.4591058453,-1.7525694086,-1.2175564078,9.1667042248,-9.2457335885,-9.1351036732,-8.1739452034,-8.828085908,-7.9969153263,0.1376486939,8.1915269047,0.565115879,-0.6648969558,8.8671582633,5.3271545236,1.6139586484,2.6625360435,1.2965069679,0.4549360118,2.6172839867,0.2440681103,1.020825487,0.7700331483,0.779328001,-0.0611394701,3.3544705288,1.5248882581,2.7501138755,-1.0133699058,1.9930839422,3.2945338312,2.6323255569,0.667990539,1.7150336343,3.7063365787,3.4578970794,-1.2767793804,1.5346270942,1.6239356141,3.113063871,3.2901906866,3.0664310083,3.4991689094,5.1819546454,4.8220585293,4.9252227682,0.3770084489,2.1920509967,0.7817459971,1.8162676193,3.0729222903,4.7211784968,5.3631271403,1.6852136186,0.5463177321,2.146130255,8.2169142421,7.830364567,7.9573670829,7.8757317316,0.6905545396,2.9596765255,3.1860324061,3.5308287472,-8.6009915612,-8.2948080609,-9.4270183943,8.4461378177,7.7636118045,8.0040817679,-9.2563456506,-9.6091559917,-8.4455213454,5.7558682758,5.5458734446,5.7937020372,4.7597906586,4.7581509525,0.3005880664,4.6098107338,6.1109372772,4.9730925977,6.1989249283,5.3655705768,5.4961361801,5.6064363383,4.6271854672,1.8531928066,2.6508247869,-0.072743455,2.9688296616,1.8789098276,6.3231200747,5.0445526427,5.1936616459,5.011793765,6.1277241449,0.1264818225,-0.628972653,0.419662537,-8.4058920602,-8.9144050929,-9.5441902556,1.8855511261,3.6217466297,2.4469778218,-9.0423923911,-8.4798293674,-9.6189566317,-9.5977549066,-9.4654136809,-9.7353164886,-9.2935708431,-9.1914908304,-8.1630534147,-7.832809612,-9.2043417287,-7.8160170669,-9.345381781,-9.1315954294,-8.2383506112,-9.257230802,-8.5529801446,-9.0430496786,-8.0335167515,-9.7173473199,-8.193673226,-7.8960913716,0.6831597304,-8.993702629,-9.6649830776,-8.6349299766,-1.9190011705,-8.7222011613,5.9075319415,0.8520664249,2.8656083223,2.1696213695,2.0281384732,2.3622136914,-0.8616080385,7.8217148499,-0.1510869867,0.3076434757,9.6187738168,8.9525981018,-0.2452424761,-8.5849980127,-9.7354706169,-9.3641402233,-9.2303402382,-8.2946012421,-8.8490548928,2.1919230219,-3.2737326925,-3.5393486951,-7.7763983763,-2.955487151,-3.7800206288,-3.2753622263,-3.4416153958,-8.7735254944,-9.2563165319,-1.7682797276,-8.6560807388,-8.7100970328,0.9045169447,-2.5677324764,-2.6602486402,-8.3686938733,-1.0925031075,-0.2338051917,-1.0534833189,-0.6183881547,7.9313513253,9.4720153358,9.2163779116,-2.4410087691,1.037771366,0.7955926231,-8.2137951376,-9.4061081853,8.9402900919,8.4816515484,-3.2444487927,-3.8085283486,-1.0927541179,9.246289005,8.7997689408,8.3273723256,8.8135153533,-1.0328139468,-8.3112076856,-9.7293044252,-8.4682376488,-3.1316716984,-2.5809816707,-2.7425672206,8.1372652323,9.7111077613,9.3699369333,-3.7721922252,-2.5782415157,-3.299643743,8.3392653223,8.6432233771,9.4032236799,0.9184799263,8.1129154553,1.4999295023,8.1001756135,8.0171664822,8.6197983559,8.4022175354,8.8689742156,8.4969959418,7.8017598826,8.390621746,-9.2638458419,-9.3488635975,-2.8756667884,-9.5284728675,-7.9630167418,8.9357364768,8.6001243286,8.7764018376,9.2112947986,9.6343779058,-8.0899894134,-8.9205776866,-8.2811883008,-1.558347683,-1.4232511376,-0.9293575494,-9.3853601623,-8.8892205519,-8.7075380722,-2.6400764319,-2.2635381987,-3.5902352752,-3.0735607275,-2.5317162745,-3.7732060049,-2.139823779,-2.3667388378,-2.5111625686,-2.4311926651,-3.5459206051,-2.7286585,-2.8258584043,-3.7674301312,-2.3621518371,-2.0989619932,-2.5873674913,-3.5143904735,-2.1548802131,-3.153674068,-3.4956739919,-3.4170158535,0.9907288449,-2.4599763646,-2.7898140874,-3.2317816346,-3.7898714439,-3.7084905043,9.2001893515,-8.5908744802,-8.4042785317,-8.2153934603,-2.2725517666,-9.5213572566,1.0112573424,-1.0096355219,2.8551808828,2.2227644563,-0.2400412042,0.8713783915,0.4797887393,-9.1672170017,-8.8574574797,-8.8677542687,-8.4019216905,-9.1573871853,-9.4408665799,0.1752407626,-7.8803009352,-8.5765066214,-8.4893324739,-8.0698608392,-8.0605496326,-0.0348999895,-9.4806239769,-9.3302085759,-9.2398171821,-8.0392456203,-8.1997097032,-8.7540298125,0.3932012711,1.0511223386,-8.3366111005,-9.552916424,-9.2269117092,-8.9682419015,-9.1385728386,-9.3654716337,-0.0943183458,0.4798495258,1.2253463809,-8.2841924243,1.4156184278,0.7524167731,-9.5982664457,-8.1906301425,0.1881146889,1.1455361486,-7.979983975,-8.7377379297,-8.4672084219,-0.4079180367,-0.3356486929,0.4235921108,1.0548768528,-8.2361031473,-8.9290506321,-8.051158429,-9.0511855431,1.5395012539,-0.3528069768,0.0662854672,0.5800548877,2.0086526208,0.9791207465,0.5283469517,0.2381027765,-0.0500896477,0.8997242136,1.4469491937,1.0635943528,0.8396650687,2.3563273763,3.3099652465,1.1774582308,2.1718471915,1.8406823331,2.349456802,1.9545468863,-0.2068458311,0.8478854862,-0.1211085245,-9.4659099482,-7.8185451057,-0.3095905876,-9.625142777,-8.1268950719,0.5099103016,0.8346549221,-0.5407992966,0.3573674134,-0.0267492728,-8.4062475842,-9.5642385601,-8.194923914,0.6880251483,0.8868610867,1.6702790591,-8.7270641739,-9.4659187082,-9.4856811423,2.0168275631,0.9671387029,-0.4132977778,-0.0335438835,0.182282099,-0.4494573482,0.8011556461,0.2749346267,0.3722321946,1.2340602111,-0.0133196587,0.9006405313,0.3932475388,0.9733903546,0.3289350099,1.2128876699,0.757861381,0.6283162494,1.3174823515,0.5761587803,1.0247989333,0.942839627,1.8727157986,1.2237629117,-0.3343251336,1.6085713416,1.1824154118,1.3272874125,0.400669833,-9.3159137708,-7.812550429,-8.7947401807,-9.5143755801,-9.4536507722,0.2004095848
##end
biasActivation=0,1,1,1
[BASIC:ACTIVATION]
"ActivationSigmoid"
"ActivationSigmoid"
"ActivationSigmoid"
"ActivationLinear"
