encog,BasicNetwork,java,3.4.0,1,63663380639314
[BASIC]
[BASIC:PARAMS]
[BASIC:NETWORK]
beginTraining=0
connectionLimit=0
contextTargetOffset=0,0,0,0
contextTargetSize=0,0,0,0
endTraining=3
hasContext=f
inputCount=130
layerCounts=3,6,22,131
layerFeedCounts=3,5,21,130
layerContextCount=0,0,0,0
layerIndex=0,3,9,31
output=0,0,0,0,0,0,0,0,1,0,0,0,0,0,0,0,0,0,0,0,0,0,0,0,0,0,0,0,0,0,1,0,0,0,0,0,0,0,0,0,0,0,0,0,0,0,0,0,0,0,0,0,0,0,0,0,0,0,0,0,0,0,0,0,0,0,0,0,0,0,0,0,0,0,0,0,0,0,0,0,0,0,0,0,0,0,0,0,0,0,0,0,0,0,0,0,0,0,0,0,0,0,0,0,0,0,0,0,0,0,0,0,0,0,0,0,0,0,0,0,0,0,0,0,0,0,0,0,0,0,0,0,0,0,0,0,0,0,0,0,0,0,0,0,0,0,0,0,0,0,0,0,0,0,0,0,0,0,0,0,0,1
outputCount=3
weightIndex=0,18,128,2879
weights=##0
##double#2879
   0.9042482805,-2.0249441297,0.6636926103,4.3143836687,-2.2806576937,-1.4187391183,1.9182524931,-0.4280994945,-4.4841738398,-4.8075187067,0.0422042,0.1168921465,-1.8507734749,1.2375123612,0.8307690302,-2.099132229,1.9872981955,-0.8717917492,2.1824770625,2.0556995048,1.083416937,1.3297212538,1.417591251,-0.2391706283,0.2374927033,0.4605079926,-0.9457415832,0.8727711307,-0.2142104216,1.0830453465,-0.670760365,-0.7398642008,2.2043407549,-1.1741708381,-0.5057414312,-0.3669457625,1.0606578747,-0.8990805406,-0.5390297209,-0.3366320624,-1.5246426194,-1.2925407393,-0.1635172455,-1.4779455215,-1.1985023896,1.2829737642,-0.0260599822,-0.3231366211,0.4552039835,-0.6905463172,0.9009213458,-1.4544551877,-0.9903903482,0.1701577316,-1.0638474793,1.132941706,-0.5490196063,-0.5901957183,0.2016744076,0.9176047934,-1.0236771273,0.5460603577,-1.5428203769,-1.975017058,0.1870026165,0.0561665598,-1.5633337228,-1.0598396966,-0.8363849771,1.1825790777,-0.3988509757,0.2281213705,1.5205869617,0.4452529713,0.7376763101,-1.1043463099,0.7478958681,2.216889836,-1.7309877585,-1.2728282506,1.3019317342,0.0859274303,0.8165181603,-0.5386084596,-0.9623955182,-0.1793831438,-0.658695313,0.7059931409,0.1966767574,-3.9261323666,0.3686489264,0.3288946917,-4.2424055718,1.0463150763,0.342861288,1.8512444635,2.4900008996,-2.2564057754,-0.3155918044,0.0349033406,-1.6308112998,-4.7921958259,1.3868287374,-0.9701587097,0.2034131117,-0.2060132789,-0.283185554,-0.5342367347,-0.5993900429,-2.455519322,-0.0080886217,0.7962703822,-0.5661476432,0.2329609453,-0.4226795831,-0.5450049483,0.5079425282,-1.5137702313,-0.930212318,0.5395790846,-1.0408724332,1.0260573676,-0.4194203161,0.0063481302,0.0431693103,1.1199606177,-0.4802355977,0.1926413663,3.4853069283,0.0693642566,-0.6253620772,3.1120859005,4.8542369009,0.1249959865,1.553720231,1.5534954754,1.2056497244,1.322011458,1.3034859255,1.6297633297,0.6735537562,1.87763002,1.9908938562,1.7188352611,2.3359479771,0.979169339,0.1346020754,2.2726631832,0.826671089,1.3591635602,1.7336199065,0.4884412059,1.8841881831,3.7589104814,-0.5391500331,2.7523683654,0.6532981502,2.3869894638,2.5783654161,1.7774410755,2.2570641094,4.6729747606,3.6685561086,3.1238860266,0.9548386806,0.9986882563,0.6609579984,2.1396999463,0.3732173603,3.9163362874,4.2896081878,2.3950687939,2.1411515653,1.4626943774,4.4353948402,4.4590008379,4.924965216,4.7799600652,0.7677904381,1.2201891944,1.506538247,1.1100087241,-3.8102744702,-3.2381325292,-3.1951907326,3.5552417007,3.4960849764,4.7575204168,-3.6971738837,-4.7433162732,-3.8455602243,4.9311761159,2.2160778955,1.2473831364,2.6329879498,1.6714249061,0.082519277,0.7018908699,2.0077224658,1.1824813728,1.3838558329,2.395879029,4.4701423821,4.7700186493,3.7411719789,1.2551556622,1.285389878,-3.8991781246,2.1070250558,1.6247769551,4.1731962857,2.9930902907,3.7777437191,4.1918185174,4.8325511004,2.5976322515,2.2658822468,2.1215857692,-3.8699740829,-4.2208117673,-4.2814423943,0.9726293716,2.0828347691,0.2518066319,-4.4902573711,-3.0494360413,-4.2258982591,-3.6097963317,-3.5733442897,-3.423015931,-3.8101645415,-3.9026983153,-4.0886489085,-3.988711314,-4.0237530029,-3.0037697807,-4.5240595573,-3.6354387211,-4.4079671771,-3.1043802809,-4.7868632628,-4.3206965894,-4.021813926,-4.9518834866,-3.8535432206,-4.1819196872,1.2665755365,-3.9330394265,-3.0433370314,-4.176604985,-4.6254188241,-4.3277399743,4.7692599409,2.6567518244,0.9051122591,1.2878504942,2.7182992165,0.547952615,0.2549534193,3.3369799287,-0.7173397653,-1.5135862707,3.5765334744,3.2183873013,-0.008750094,1.2325142782,2.1021227988,2.1879276189,1.6158119328,2.9888225241,3.062821943,0.1574080634,2.6798356748,1.7885843665,2.7147676018,3.0556898049,3.1265036443,-0.062911148,2.5328472866,3.4579164785,1.9495016114,0.9658958165,2.2732022299,2.5410423534,1.5779873499,-1.4246938872,1.7143277982,2.5499205616,2.386365034,3.5540662389,2.4676424958,2.4695654999,3.2597158926,2.5252362348,4.4538259291,0.9840345877,3.1325577816,3.556302736,1.3451239655,2.3246519395,4.502068933,3.7195677967,2.164012464,3.833730606,1.6523100462,3.239320393,3.8442713884,4.0404747908,3.3348981089,4.4502582121,2.4925137464,1.5169596042,2.1608766016,-3.3447887156,-3.6282078703,-4.767538433,4.5766444578,3.8297520565,4.419717701,-3.3244504065,-4.7899516067,-4.3754130507,4.5492905219,0.7848549615,2.2682006803,2.1180550443,1.3625599893,-0.0642730813,2.1963845115,1.3601962619,2.2745653779,2.2856239701,1.7525155278,3.8621912977,4.8158853232,4.3080990154,1.8635561085,2.951365546,-3.7362615192,2.4662770921,3.1586363164,3.8466742724,3.3501613562,2.9661688303,4.254323052,3.7660833165,1.902984501,1.6943681752,2.4650072366,-4.4591669421,-3.7885659547,-3.8891314581,2.7444547656,2.3588580086,1.7980521698,-3.6453346242,-3.5118210059,-4.6228387803,-3.7981385566,-3.387404526,-3.8454329815,-4.0337221172,-3.0468622578,-4.5859851306,-3.3868893649,-4.1854486025,-3.7881954122,-4.0345289611,-3.1043629974,-3.9947204466,-3.1775712084,-4.6163590764,-4.2354525978,-4.8258328159,-3.473932777,-3.2295196813,-4.6214912487,0.3600694225,-3.2506236874,-4.012233677,-3.7551762988,-4.5501589905,-4.7267239262,4.0109410534,2.2831646244,2.9062149894,1.255733099,3.459161695,3.2412606615,0.4078064932,0.095461914,0.0643581433,-1.1431895259,0.760059515,0.7276655821,1.1503251766,1.9789334667,2.4205189276,2.725355567,3.9587759642,2.7980477489,1.7095913338,0.2720305058,0.7995568834,0.0966596743,2.8280595407,-0.0036229892,4.4029824947,0.2712141444,0.1231984656,1.8352751378,1.5630114508,0.0594694257,0.5267730426,0.1329414433,-0.7633918079,-0.49344696,3.095345129,2.3480294657,2.698801884,2.6696299394,1.7032919917,3.5745902685,-1.0602028617,-0.2350757439,0.5083963715,0.62459711,-1.3771901682,-1.3586984763,1.7003618472,0.1323326395,-0.8743143666,0.855277476,1.8657765424,4.8332308532,0.6605722826,-0.4421487195,-0.5754267691,0.3327799642,0.5037315161,0.8734335708,1.914174387,0.997262263,0.4670173526,-0.506781376,-0.4814306778,-0.603100747,0.9453596802,0.8103862836,1.0309641374,-0.2630182005,0.3715044213,-1.2498048496,-0.3640220522,0.2674496938,0.7920858313,-0.1216425396,0.1478709978,0.3609621029,-0.6955045438,0.306435992,0.6437317917,-0.1106063297,-0.213902415,1.2592534005,1.1597436723,-0.1656053463,4.0604989181,4.8373807297,-1.7657546026,3.890163289,3.8663163228,-0.1407000586,-0.1838904522,0.7701837764,-0.0194141721,-0.4308682426,1.5074281456,1.9011881992,0.5836932325,-1.4954082566,-2.1156346354,-0.4318773039,1.5427197255,0.7811674751,0.1021867136,-1.3340129661,-0.7391634148,-1.7088232335,-1.1559816696,-0.6164393044,-1.2566608353,-1.7597262996,-0.6323267661,-2.1391915389,-0.8591986068,-2.1499935285,-3.522241522,-4.1009507661,-4.8058521804,-0.986057399,-0.2250017,-1.5943655517,-2.2853942308,-0.7304249641,-0.7089782499,-1.7517603349,-1.6277177321,0.9612021582,-0.9745021712,-1.541159682,-1.2942887437,-0.6503761431,-0.8528527559,0.1827123069,2.6273870854,4.2968309622,2.3332318443,0.4567976813,1.0602154814,0.9402942276,-0.2585294487,0.5195768382,-0.8150312384,0.0786081556,-2.347371465,0.0582036095,4.8672154351,2.9727170329,3.2154297654,4.4263609349,3.7085764385,3.5480294576,-0.0472224125,3.0872174252,3.9965642734,4.5107224257,4.0924294802,3.2100764106,1.5378297067,4.0563650994,3.921859576,4.560484088,1.0543183242,3.8893520614,4.5381376817,1.0488778074,-0.7587361503,4.4511562175,3.8270345662,3.4315203553,3.0987777824,4.0508967812,4.7586662155,-0.5782930172,-0.4073078006,-0.4265091047,3.9076592313,-0.1482554285,1.0083450054,4.832177179,4.244574881,-0.9442545048,-1.0174651438,4.0580279722,3.2425185538,4.5540430014,-0.7169369449,-0.6325579257,0.2078222693,-1.3435721139,3.3045914539,3.766953033,3.7575713708,4.7384117153,-3.0060965746,-4.9046289428,-3.0880197885,-1.0639088872,-0.015122579,0.1171255703,-4.8493836942,-3.6679237685,-4.9447556773,-0.0469244733,-0.0000073693,-0.9688625011,1.6625068638,0.4428669983,-0.0158550212,-0.9394153526,0.6614175789,0.4031220186,-0.1475565375,0.545893191,-0.7914008954,-1.0125626941,-1.1364680018,3.9329873441,3.5382628287,-2.3534691487,3.597176108,4.9425447333,-0.8799602604,-0.6918195131,-0.10396786,-0.2044814421,0.2694012835,4.9523227114,4.4260816359,3.0960221265,-3.0288342826,-4.5840795477,-3.3944283001,3.7240679437,3.5909543945,4.7376255663,-4.2870532822,-4.7987669372,-3.7689677556,-4.0670570533,-4.6623737402,-4.4892150377,-3.5018613892,-4.1343034615,-3.7091527577,-4.7764923247,-3.1899921058,-3.1208390624,-3.206386829,-4.382871704,-4.6564604249,-3.131659995,-4.5846009515,-4.5299247251,-3.9926421136,-4.8874663097,-3.9958425524,-3.6504022418,-0.9876294036,-4.3002124269,-4.9415233053,-4.4885993636,-4.0523624818,-3.5292107178,0.2036581517,4.4738465891,4.0460894133,4.942646118,4.635067679,3.5770825021,-0.6417393205,4.5104182101,-0.9106814713,-1.5733705609,3.4326019337,2.6749918841,-0.3003471471,2.2927650123,2.3479236908,1.6384056359,1.9714946925,2.2282914699,2.9489743743,0.2676637616,1.8820914133,1.8495456205,2.6432223269,1.9094881323,2.2809643404,-0.2448943318,3.0404706073,3.5753532797,1.7390146638,1.7877240813,2.8692754028,3.3173585318,1.1737754406,-0.9683802129,3.3742170025,3.2923365159,2.3417015293,3.0265363377,3.1847075119,2.6417074944,1.8734296676,2.2083594358,1.2178919121,1.5098954405,0.5370543044,0.8471593806,1.5645302873,1.410688095,3.7225357392,3.341553924,3.3214671484,3.2854275278,3.7412270741,3.7922202522,4.7433486162,3.255636723,3.7158230641,4.7940652855,2.9376695833,3.2524057494,3.5043899388,-4.3219637608,-4.7524182964,-4.5089907208,3.7417822411,4.5764593947,3.7963003326,-4.1129819683,-4.7672275501,-4.7750827447,2.0007421789,1.9566025552,0.8515261579,0.8072465145,2.2081537606,-0.5270305116,1.1938835812,2.0167299831,1.0902368883,2.1467163997,1.8306711823,3.2083486498,4.8332676842,3.4306962987,2.7498284323,3.1229169785,-3.3742571169,1.623788624,1.6472658031,4.3051585786,4.7746029608,3.5486419373,4.1283922258,3.3443695571,2.7654731521,3.1935134295,1.7293515261,-3.1570820047,-3.6706658923,-3.8115477902,1.8650122401,2.6391997662,2.7203204724,-4.7841942665,-3.2387697923,-4.3345454538,-4.4435863447,-3.1370533241,-3.1875480136,-3.7649252252,-3.7927062219,-3.1245782303,-4.7238710281,-4.3710636309,-4.4078471864,-3.5568193211,-3.950197443,-3.0720989995,-4.6510545332,-3.0236230196,-4.4019397757,-4.493431338,-4.2439142538,-4.8562624483,-4.7383671552,-0.1109873283,-4.0587158293,-3.2371470391,-2.9671950798,-3.6826918921,-3.2469309599,4.6107957149,3.3329227295,3.4860400575,3.1233653032,3.5292538143,3.9362999216,0.8434591377,0.7441178547,1.1920598287,2.7346576765,0.8378050855,1.040268258,0.7270854738,-4.8085840569,-3.8380758572,-3.7320159148,-3.4138159038,-4.1156671538,-4.6606986755,-0.3291685154,-3.0929374902,-4.6132472874,-4.9221131635,-3.4346124636,-4.7304386134,-1.3290517369,-4.068878913,-4.9319415783,-4.4189136912,-1.0418190654,-4.5151782678,-2.9795656587,-0.5358458465,0.7878569403,-2.9871793558,-3.9702514248,-4.909333747,-3.4030226938,-3.7544651353,-4.4152337833,1.6689912883,0.8227768271,1.8468814801,-3.1579116725,0.683753868,0.4276826757,-3.8013058785,-4.8188234177,0.726045792,0.9240978314,-3.4958232636,-4.4295703209,-3.346775641,0.5369947186,-0.2789358476,0.4370236374,0.8937204441,-3.1260230795,-4.5156918437,-3.569019753,-4.0440930907,1.215402844,1.273352946,2.11155153,1.0712748311,1.5275508728,1.2858769756,0.4733421884,0.7884632907,1.0025441647,0.0150478274,0.9350754627,1.3865224384,0.8595038431,0.1549260062,1.2734444628,-0.2030764275,1.0954561428,0.3746715203,0.5321210107,-0.3115258913,1.6840044311,0.8416926731,0.625725856,-4.1838461857,-4.4444011914,0.2179541823,-4.2790708046,-4.5779487574,0.0077731641,1.073492418,0.7341241015,0.3371423656,-0.1497522599,-2.9932908007,-3.3286288542,-4.7313924395,2.0549277396,2.561449884,0.8373620071,-3.0253622161,-3.0972794389,-4.6678431667,3.1377737785,1.7855425758,4.0168166893,3.181993197,1.0185036143,1.3533135724,2.5869942508,2.2147802201,0.0844734367,1.4331201508,1.0890449423,2.7010132862,1.0803182933,2.6594508221,-0.4377091944,-0.0330071045,3.3669608369,0.1228238279,3.0341655763,3.971980346,3.1066998795,2.1306500955,0.430604896,2.9864600507,3.5313334916,1.3648214662,1.0697925783,4.3373832524,1.7921067714,-4.2735961096,-4.2115575352,-4.074829607,-4.1153087418,-4.7333307388,-0.1304496555,0.7416051055,-0.3481777577,-1.6316847817,-0.2543651907,0.5493518276,-0.8979296755,1.1053643464,0.7502534259,0.1437361219,0.4715275051,-0.2690446261,1.2376404723,-0.9793707462,1.697060383,0.4529229332,0.3977918982,-0.0707665857,-0.2109307086,0.6060585437,0.6622160877,1.2226257419,1.1040286996,0.0228499244,1.0480250742,1.3184500466,-0.6892158366,-0.4765000413,0.9874278157,-0.3578259686,0.5486880065,-0.0700565143,0.9105605819,0.7003947235,-1.2731762148,0.3674750521,-0.2900532527,0.7635224956,-0.8645347991,-0.9031257649,0.1990521485,0.5192644039,-0.3201120539,0.7697424609,0.3920347988,1.4696740593,0.4637080559,-1.2396350635,-1.3278534312,-0.6975485383,-1.3006740344,1.0460457848,0.7153764069,0.2223439158,0.910413905,-1.6788566615,-1.9039587423,-1.4524300187,0.890993068,0.7029187799,0.404712592,-1.7305211003,-0.4729089495,-0.9610760597,-0.4110253039,-1.4661964208,0.0512768761,-1.2346983116,-0.3137654464,-1.0332468392,-1.4622542348,-0.434112299,-0.00132391,-1.1388261878,-0.4268317369,0.5971813657,-0.0566865238,0.3024569654,0.8346821993,1.6119884797,-1.7594144388,1.9053595193,0.6501044371,-0.7392409473,0.2646059258,-0.4739838317,-0.8842261612,-1.3400917392,-0.1355455042,1.4240808533,-0.0244598517,-0.3106111726,-2.0056336288,-0.4332217329,0.0323531953,0.2141047307,0.4020815093,-1.343733761,-1.5371657038,-0.4731431874,-1.4005636783,-0.5009850758,-1.5424654983,-0.3622161076,-0.7119002987,-1.1666965917,-2.0281947859,-1.1227851104,-0.8239168378,-1.5597154671,-2.2955891089,-1.1021216776,-0.9415208449,-1.121434593,-2.1184575184,-0.2604274184,-0.5538712117,-3.1383558775,-1.2692208024,0.9469042571,-1.4054210489,-1.9343187686,-3.6905023153,-0.6782192273,-3.2149514335,0.1204673678,0.4406940357,-0.257458244,0.171377467,0.0603181726,0.2361219011,-0.7109412025,-4.7216995591,1.2655046584,1.044973183,-4.8514314099,-4.4721669423,0.2501423415,3.0011406943,3.8189374903,4.7076266315,3.4135307086,4.889295606,4.8213014026,0.163217745,3.2882656374,3.6681400114,3.6845900225,3.1944692184,4.3806506375,3.9697270884,4.2402082503,3.9889158026,4.3691528382,-0.3656953383,3.9927006808,4.7937098649,-0.681054338,1.1374056419,3.265645888,3.9258868123,4.1898992031,3.5098052541,3.197610683,4.0561383056,-3.337994587,-3.8952162271,-4.1204139997,3.1380270284,-1.4415820688,-2.094589108,4.8516286072,4.4019255674,-3.087984374,-3.5711987125,4.6546960529,2.9997261857,3.5439770729,-2.970453106,-4.3679009926,-4.4729887628,-3.9218028799,2.9961251767,3.9995350071,4.2207950426,4.0414961126,1.1580719902,0.4612866566,0.6846013192,-4.8057358312,-4.5547690084,-3.1050709916,0.2878304964,1.6347343874,0.323485356,-3.8736332959,-3.6285223844,-3.2138821168,-0.2398191573,-4.6133841555,0.5931003916,-4.6547387326,-3.2581603157,-3.3477966565,-4.077607976,-2.9746430415,-3.6226949603,-4.0496841452,-4.307008188,4.1743250049,3.7455618005,3.7322109337,2.963930403,3.0544008754,-3.0820830382,-3.2109656597,-3.3818307522,-3.3956465352,-4.5397973405,3.9553148464,3.2143780471,3.336194102,1.7622275788,1.3088547566,-0.2185209147,4.6423119129,3.9710571232,3.4120339345,0.5346240179,1.4659346114,0.0505055944,1.114864973,0.0948335511,0.4034247354,1.8204354884,1.3991779212,1.1181702096,-0.4503668135,1.9283991035,1.3336697991,0.7547918106,1.3971462518,0.8765971523,0.4313567365,2.1717419353,1.2612571972,-0.2498888583,0.1833145549,1.7450122926,-0.3415249341,-2.0998566582,1.0837053064,1.7647587934,-1.209296818,3.6742484556,0.6320816986,-3.994521775,3.2050918865,3.9616610106,4.9506806742,3.4141800742,3.1690284007,0.0796970311,1.1059798298,0.9652913534,2.3035104623,0.1913854902,1.5658508591,-0.4044775635,-4.8054763536,-3.3055866531,-3.7871714202,-4.5950335916,-3.7651102278,-4.8208390894,0.1798424369,-4.8867658899,-4.4008127086,-4.5580808892,-3.8977069646,-3.3484689894,-0.6931228015,-3.8905013219,-3.4221103484,-3.7336229398,-1.4316837404,-3.5967702218,-4.1849201887,-0.6750600516,-0.5064067073,-4.1568452369,-3.9133094946,-4.8688494117,-4.3040123627,-4.0189368992,-4.7294427837,-0.850604362,0.2871615718,0.8422744355,-4.393880667,0.0138753452,-0.1824134007,-3.5112268081,-4.8427847718,0.3183648697,-0.2269184845,-3.4730344716,-4.9503790877,-4.4513297015,-0.3207173492,-0.1426271902,-0.7334890139,0.8682229501,-3.9139414827,-4.2020490484,-3.3498248023,-3.0697424972,0.1184402354,1.1878138788,0.6497791266,0.2680518139,1.0071754735,0.7924415226,0.2622086428,0.289082751,0.7430189611,-0.4916071897,-0.5602570339,0.4383321656,-0.9479099915,-0.5654398757,0.2468517641,-0.4156155032,0.8705427695,-0.8553221539,-0.3674143119,-0.1793827371,-0.7818284919,0.7849170043,0.3214282846,-4.772794039,-4.0579179364,-0.775443509,-4.0759397947,-4.1109798613,-0.9703231322,-0.2040914254,-0.0785923017,0.1456766052,0.7016955167,-4.5583393182,-3.6464154594,-4.3836539163,1.557345598,1.8965178264,1.1891735661,-3.8367466755,-4.3045395285,-4.2131537113,2.9707947719,0.4795677754,1.094861841,1.5598275479,-0.0027781347,0.9418699565,0.3316686409,1.3623297307,0.4280325095,0.473752066,0.0397613992,0.8726698962,0.3225868491,0.4689169059,-1.485281281,-0.1226349158,3.8671131158,0.5624532742,2.5928192563,3.9803088379,4.4656674069,3.4406566093,0.2274503124,1.6015250733,1.2688936733,3.7815565276,1.5786306924,4.1354961449,0.30085882,-2.9747372839,-4.871135342,-3.2421593427,-3.3491786563,-3.2337216132,0.2136898806,-0.9878735315,0.3936432182,-1.1010996446,-0.6651437649,-2.3101626703,0.6457459677,4.3440036642,4.3240599426,4.9311056297,3.4641518978,3.2773409544,4.1933734908,-0.5040700086,4.8817579449,3.4219363512,3.8913009182,4.5833000661,3.6463209907,0.6067396193,3.4306393232,4.0632606267,4.6119595552,0.0433591888,4.7588121686,4.5868289358,0.1278711247,-0.0327773985,3.9498531228,3.9916550952,3.1198808106,4.2461835218,3.9445178533,4.0892957241,-1.1589603106,-1.3210937398,-1.4956012973,3.6586265205,-1.1533716307,-0.6561224118,4.0886342234,3.3271166508,-0.9935079317,-1.8691883135,3.5688611636,3.2875909948,4.4013698305,-1.9605552003,-0.3374030851,-1.829611073,-0.7262566082,3.8581854101,4.5192099669,4.9059484583,3.5761061045,-4.5305061349,-1.9854802501,-0.8571820824,-2.3188495593,-1.9524493769,-2.1205479943,-1.8793521821,-1.4705924799,-1.5854333358,-2.0074528961,-1.4554938348,-2.1480397184,0.0419005885,-1.4388999231,-2.1290820793,-1.7336333516,-1.3492432161,-2.4317446383,-1.3358857119,-1.1937208109,-2.5437696022,-0.8114574995,-2.1669548343,4.3637367905,3.4933279095,-0.8425675398,3.041935756,4.6498246239,-1.110774312,-2.4070471399,-1.2150802322,-1.522196522,-1.620696486,3.2626448183,4.7637615363,3.5942772668,-3.3907419474,-3.3132955547,-4.8502524049,4.089697032,4.776981432,3.3307522138,-4.9205596783,-4.0804713459,-3.651117044,-4.7637342867,-1.524442275,-1.4356302414,-3.9713154534,-3.5424763127,-2.1514578157,-1.3213126277,-4.4084540092,-4.2621412359,-3.2254710135,-3.0059500292,-0.0491480727,-0.7717456991,-4.2024562114,-0.5436005545,-3.4151042014,-3.7516631768,-3.9637984937,-3.6712250304,-1.4342553534,-3.8199155029,-4.2278067365,-4.4591330345,-3.5120238638,-4.199320277,-1.3460469366,3.9726014525,4.1093079687,4.4639155184,3.1007330252,3.0268585246,0.3940079177,-4.5873782103,-0.0896103812,1.1974451567,-3.790551364,-4.1736166195,0.6188068882,-1.346633082,-0.3473588221,-1.5495383598,-2.3082340264,-1.4150679882,-1.0413768716,-0.7947349315,-1.8419524194,-2.6650814301,-2.1100137007,-1.5878518451,-0.4774307266,0.9867079212,0.240150896,-1.6052280081,-2.1390090507,-0.3145830955,0.2229920979,-1.445810606,-3.0814365895,0.9395295001,-2.8003824511,-1.2291716353,-1.9815679598,-1.9602900171,-1.9902871554,-2.7779114115,-4.5126568488,-4.8158037188,-3.2673764306,-0.4188421046,-0.2322753374,-1.2096719769,-1.3927079847,-1.2433614608,-4.1298026272,-4.0049832563,-1.5394675548,-0.0356948352,-0.2131413205,-4.8028960145,-4.2450035306,-4.941508487,-4.5577487684,0.0615218039,-0.0243256288,-1.0811638367,0.3680182138,3.1874507593,3.2943910792,3.5363047956,-4.3584597901,-3.6421187096,-3.5603002509,4.0589279269,3.4752499791,4.2601002853,-3.3957859942,-3.9635194546,-3.0590904524,-4.2927525554,-4.5449480116,0.1941662205,-3.3905157953,-4.2276094656,-2.9614070506,-4.8081833311,-4.5554498834,-2.9773674171,-4.0798161111,-3.9591466166,-1.0894915755,-0.0216046404,3.584395165,-1.3766935605,0.2196740118,-4.5398671887,-3.1079758966,-3.264630534,-4.474124574,-4.0773786676,-2.2269887288,-0.8795145778,-0.911814048,3.0020805329,3.0655764874,3.8906246923,-1.2028480598,-0.1667691993,0.2744601099,4.2828509564,3.1408985203,3.4594037192,4.4181304489,3.8799226429,4.2143153034,4.0555727367,4.6168372379,4.4688966609,3.0330879587,4.1759885007,4.023790457,3.613170736,4.441495316,3.7379267621,3.7253868873,4.1578777458,4.5689218901,4.1727481193,3.5025317459,3.9388067076,4.7653747732,-1.0973839801,3.1549549878,3.5073970253,4.2123156756,3.2770804887,4.2455616144,-3.0093195719,-0.9655615953,-0.6537122366,-0.1867065468,-2.7121733184,0.2089712313,-0.9651106461,-1.2765503495,-0.5601825051,-2.0264072514,0.2113949247,-0.9321760719,0.713387225,4.5482579078,3.0799471971,4.3294209827,3.7394417492,4.9100401617,4.7808729606,-0.7623684328,4.1896867098,3.0553074537,4.8032812672,4.2091808661,3.1108659908,2.1327357204,4.5446227751,3.4609015709,4.5295997336,1.5852860519,3.6758984686,4.6195574989,-0.8651487186,-0.1432070606,3.7839970324,3.6432694741,4.5504229171,4.7498069257,3.6772519429,4.7313597435,-2.2454594815,-1.1950684887,-1.9852130601,3.8205222642,-0.9795890204,-0.2661136773,3.9532771573,3.3198943011,-1.5325637767,-1.8170321063,4.3394554461,3.703192391,2.9825503166,-1.8579724168,-1.867600303,-2.2141415328,-1.0230443416,3.4569349758,3.6765734847,3.7246198352,3.6711985539,-4.1149323301,-4.4042234429,-3.7423008639,-1.0490063157,-1.1576728456,-2.4477993012,-1.4817408625,-0.7880163891,0.0747909801,-1.0728995043,-0.9601423682,-2.5402093665,-0.2533482397,-2.2589389927,-2.0575565717,-1.5978785903,-2.5875220527,-2.2706152437,-0.8324143483,-1.1730516542,-1.3897836524,-2.3647207724,-0.9449333769,4.5946819959,3.955556112,-0.0486126213,3.4978218632,4.8364413763,-2.1652710934,-1.3139896513,-0.9365909348,-0.9308634221,-2.3988948338,3.2156135936,3.2863976521,4.9124269757,-4.5672953966,-3.3333131162,-3.9662172866,4.1703078195,3.4993108776,3.3400275906,-3.7651553261,-4.656148497,-4.9518249809,-3.4206601673,-1.7338758982,-0.5576226608,-4.9494932314,-3.1310511308,-1.600616145,-2.3446042924,-2.0962676874,-3.0631623261,-0.9730360068,-0.7994262359,-0.0068985229,-0.4350240219,-2.9581252366,0.2697839531,-3.9909168227,-3.298564805,-3.7751594014,-4.4329971987,-1.2667378934,-4.918974978,-3.8246627204,-3.2535022267,-2.3112682599,-4.4371807434,-1.3615998141,4.4062846218,4.729267167,4.1102348889,3.6117742094,4.6992154876,-0.2838711148,-4.5744061656,0.648468349,-1.2188473495,-3.7412493066,-4.4381461077,0.4355817568,1.1377883321,0.7621618508,0.1297385921,1.6620894146,-0.2304073327,-0.5166305348,-3.1408352882,1.0677949259,0.7541750047,1.18362189,1.3585972074,4.5741109298,1.4170927572,4.4514794088,1.8242363289,3.3609452558,-0.2662952889,1.776160496,0.5994635889,-1.4447534136,0.1355123873,3.3689292933,0.3926880627,0.803848762,-0.2419905212,0.5545939168,1.0162485866,-3.902156564,-4.5901508461,-3.7873280305,1.9613740387,-0.9041434358,-1.4929303724,0.9800154725,0.5965117726,-4.1374324958,-4.4648097995,4.6681137988,3.8339437708,1.3885292602,-4.1650415684,-4.9228144084,-4.7588294698,-4.1006308419,4.1589320681,4.2504103405,1.0642077587,0.858575831,-0.4425406579,0.3141002051,0.6956910345,-4.196859298,-3.0419275539,-3.2327502279,0.8655805168,-0.1914323565,0.5219791939,-3.9408310825,-4.0780634915,-3.6162031465,-4.9179355149,-3.4418049905,-2.1284047495,-3.2087436507,-4.6854459448,-3.8461030215,-4.0964014472,-3.9716189072,-4.4442649818,-3.5982252028,-3.1252739702,3.2070333709,3.179112958,-0.634691978,3.7806070117,3.964054275,-4.5426378864,-3.7129798881,-4.099299221,-3.2689041619,-4.8665493802,1.9259516346,0.1249834151,0.8375990833,0.6803625438,-0.4305725379,-0.0474471457,1.2622676459,1.0884116882,1.3691312564,-0.9489847395,1.1631645011,-0.9983923989,-0.7688946094,0.1459803917,0.9806363894,-0.7526116044,0.9129851995,0.3938226063,-0.1563804314,0.6104366655,-0.5654641156,-0.5192393403,-0.8262350312,-0.3605611157,1.0833284358,0.2186084297,-0.3529675406,-0.3170913164,-0.8571743853,-0.197547057,-0.9468814518,-1.5690416224,-0.3725866612,0.3520550068,-0.396374363,-0.8113857481,-1.936174372,-4.4864623369,1.2420249008,3.9687554162,-0.5550673854,3.1016705811,4.4311061351,-0.9789254606,1.686624351,1.2739705999,2.2625382332,2.3217196394,4.3358735906,-0.6649750004,-3.9262355339,-3.4704698542,-4.3128529245,-4.6102044731,-3.0744119577,-4.9395246917,0.8111997158,-3.320264689,-4.8437024495,-3.0713140603,-4.685991629,-3.5751629401,-1.5869506675,-4.1404081189,-3.0691861736,-3.5120581299,-0.1263164712,-3.9523968488,-3.7379537891,0.1458495667,-0.2959492325,-4.7453399338,-4.3003674641,-3.5039525529,-4.0467689938,-3.1494261764,-4.1571258835,4.4784271902,4.6782886386,3.9624688762,-4.4133801422,1.3558598419,1.2166330355,-4.6203199662,-3.7293406776,2.5609126915,2.0324327883,-3.3313221245,-4.4256928432,-4.7041329956,4.2175678152,4.7664713711,4.9344442264,4.4920858461,-4.8130450734,-3.7270022067,-4.7654764364,-3.2443992768,-0.4119165827,0.3893161318,0.676842379,2.751488309,1.9600981206,0.8535868299,-0.2811896804,-0.4811603878,0.0263881496,1.8966740567,1.9337942136,1.2214922075,-0.2898281209,1.4088252922,1.7559931493,0.8239456291,1.7344486183,1.4885985097,1.6196711986,2.5930556455,1.7824069095,1.0082028711,2.4945538384,-3.9292035537,-4.6081829732,0.9741229042,-3.553433604,-3.184302022,1.2766782063,2.3821598407,1.9745361006,2.0097766772,2.3803553073,-3.5987828071,-4.859280441,-4.6263002194,-0.2956792024,0.3688295896,-0.4576084212,-4.8974195971,-3.0771431515,-4.0682556217,2.6254582429,0.8983709245,1.3536087758,1.9708923234,0.8568311926,1.436481078,0.8299174013,-0.1399182695,-0.6584819062,-0.5650650868,1.1490467255,-0.715973991,0.4529498977,0.9932228966,-0.3813549417,-0.7202056496,0.3559702238,0.9314673019,1.5268253266,2.4955474422,1.7244996662,1.6960898396,0.2989735866,0.725713106,-0.0461453667,4.0683478291,0.7899450736,3.4068640632,2.4967512558,-4.1389496911,-2.9816911734,-3.2064106588,-3.9857610032,-3.7435264024,0.2647500575,0.5230877868,0.5128276975,-1.8865068501,0.7232135454,-0.296298641,-0.3072298269,4.4199373954,3.3458870103,4.8624087564,4.872245404,3.5301659102,3.5850396328,0.9660005811,4.2381930126,4.0608937039,3.8493015325,4.0318669888,4.6171280211,1.1738101606,3.1806848051,3.3290720008,4.0329810322,1.4790119871,3.9443049278,4.8741278491,0.4767240493,-0.7699991021,3.6940402356,3.0115738699,3.348490408,3.8955728045,3.7903490193,4.0444739672,0.4612769958,-0.9077443798,-1.0903564607,3.3174966484,0.1671462757,0.8211298718,4.5343052698,3.0330799289,-0.459303974,0.4789560722,3.7405513604,3.1514235439,4.6505140951,-0.7241264707,-1.2522153163,0.1096730045,0.5184205977,3.663626906,3.842690121,3.5536126769,3.1596373136,-3.6019672216,-3.2323362895,-4.6746310694,-0.3404454373,-0.9078584426,-0.7328835986,-1.3843957502,-0.9663624463,-1.3289289054,0.232261444,-0.0779791244,0.4070234419,0.4872514012,-0.919230364,-0.529880945,-0.141319915,-0.8312566072,-0.2331877503,0.016254884,0.9195654078,-0.4145915577,-0.7693396513,0.0986059745,3.4658365318,4.0404111181,-0.5552865575,3.0917588539,3.3094300482,0.0222647757,-0.6112319431,-0.7888630838,-0.9013834741
   -0.5735302217,3.4462899597,3.4589670267,3.1666665499,-3.7286892855,-4.5877944808,-3.6286512115,3.0586157275,4.1044153829,3.3436469811,-4.3972443853,-3.2946148126,-3.0915638425,-3.8470324498,-3.7827504478,-3.3687842547,-4.5000217686,-4.7697610883,-1.781289965,-3.4189273514,-4.1571459898,-4.1594909865,-3.3553034145,-4.7117166752,-0.5897230837,-0.7691996709,-3.7751994622,-3.5192623561,-3.3389567028,-4.367670006,-4.3099502631,-3.2024633198,0.1852886874,-4.8336265656,-4.4533414439,-4.1964402346,-0.5549914838,-4.1630675325,-1.0301179443,4.1364856928,3.3236446402,4.3349998592,3.8345650617,3.5285886809,-0.6547989665,-4.1844443574,0.1312110525,0.3383248907,-4.3593556749,-4.4024461451,0.4340928129,-0.8767607529,-2.1062082902,-2.0374536721,-1.9007048505,-3.4671065955,-1.7973220088,-0.8821407049,-3.2339515945,-3.4703705887,-2.8929710021,-1.9046478664,-3.1868058925,0.5848796202,-1.6287740851,-2.2732944268,-3.3079448834,-2.4914656186,-2.7604842917,-3.5499558281,-1.2054125863,1.5649102368,-2.0572370591,-1.8350250362,-2.8485525479,-1.9466406294,-3.5666962666,-2.6295302636,-4.8293485009,-0.7212891866,-3.7156773419,-1.6328732738,-0.2820276185,0.2740970382,-0.8403928503,-2.2272443619,-4.0600392564,-4.101715218,-4.6876420667,-4.6752391849,-3.2653884164,-3.7504498777,-4.786697222,-4.8247721745,-3.8662569575,-3.129001776,-2.8502656516,-2.5156035362,-2.6789560872,3.4882951345,3.3359807416,4.9326995258,-4.8363801549,-3.1562765457,-4.8230768275,4.7374723703,3.653055442,4.3235276023,-3.3367409532,-0.956819783,-1.3014858516,-1.1946502431,-1.4979617347,0.3615384625,-0.8081052107,-1.6885474588,-1.6719546414,-1.0073099053,-1.9156759842,-4.8547541388,-4.0710289196,-4.8585404959,-2.2705191926,-2.2763993715,4.1811684126,-2.2487172087,-1.9958017731,-4.9342032579,-4.4966069468,-4.9148598305,-3.9121244528,-4.1684522757,-3.1844141406,-2.6487076138,-1.9896282648,4.2755451908,4.591283502,3.578276603,-2.6556584899,-0.8923484022,-2.060348908,3.6370309857,4.4901001182,4.3632006728,3.9277100429,4.4052086602,4.418507859,3.598271755,3.4611156884,3.8306506905,4.464914997,3.678057292,4.2488451458,3.6701820991,3.5367594682,3.6629516384,4.6996285468,4.1969945252,3.4261570902,3.6490789032,3.4030809573,4.9366035099,4.1508323091,-0.5719767084,4.0645415594,3.348343328,3.524707735,4.5611792858,4.3141376235,-4.6055736113,-3.2360220484,-1.6921518985,-1.1291630223,-2.9944511062,-4.5295501667,0.3519581999,3.833369061,-0.7570135333,-0.4697542869,3.3844215007,3.2318476301,-0.592399285,-0.8474790745,-1.3924957071,-0.5854357034,-0.5406468381,-1.690865275,-1.7621496092,0.1284810865,-3.1974725782,-4.2578158377,-3.8673970723,-3.4722083764,-4.5397572787,-4.0756971545,-3.3001244388,-3.4622646984,-4.8235447007,0.371591168,-4.4393375645,-4.8056308572,1.6491484853,-1.9914604554,-1.2502042823,-0.5846991293,-1.6738124543,-1.9024198947,-1.9651915327,-1.2500531044,4.2502807898,3.6861112327,3.0847130075,-0.5763808015,-0.3877929919,-0.5030584443,-1.4545345395,-2.2253160551,3.5456525222,3.5379813858,-2.5968034666,-1.1366089974,-0.6519677016,0.9864096579,1.2576638278,2.2135550863,1.4575539106,-3.4066558409,-0.9032474493,-1.0286956846,-2.5569524435,-0.4683174644,-0.5195262639,-0.4494017374,3.1414410698,4.538789547,3.909263916,-0.4801822549,-0.9862750652,-1.5293940313,4.2348821329,3.6650692443,3.1271331201,0.3813322519,3.2391448592,-0.4053470145,3.0171722436,4.2812105555,3.3572172926,3.2163457845,3.5087287802,4.2646004956,4.0793443105,3.1792120228,-1.3435718123,-0.2256822417,-4.5633257087,-1.1001294724,0.106261953,3.6126815988,4.4693049937,4.7699094769,4.370198571,3.0585638063,-3.4319329498,-3.3297214278,-4.4318091486,-1.0178745962,-2.1391781448,0.1577681452,-1.4875853533,-1.5003299011,-2.1648205564,-4.104721396,-3.8494718239,-1.8362204506,-1.3777332871,-1.1143878224,-0.8171604331,-0.5210928081,-0.3998307685,-1.7154920333,-0.7730848094,-1.2805945386,-0.9989773389,-3.0272032676,-4.8725024574,-3.7815653491,-4.6844615033,-4.482850654,-0.8949931492,0.5478466536,0.0502402685,-4.0632260281,-0.3041008773,1.0670368094,-1.5168807197,-0.5291773065,-0.1671352272,-3.4109741658,0.3162859981,4.4348984602,-3.1970928696,-2.4142483188,-1.8701769298,-1.1944908103,-1.9903556666,0.5507192824,3.8104633517,4.9155827967,2.2676952429,4.4533025137,3.0673490737,0.1255560111,-4.1878164986,-4.6939181723,-3.0132089026,-4.2485321693,-3.2911392807,-3.2148470015,0.6917942155,-4.6119838226,-4.2372336646,-4.9255044312,-3.7517269305,-4.2243160296,-0.6694103136,-2.9834357632,-3.692170952,-3.4929328965,0.2425146159,-4.6320307329,-4.4143304544,0.889393991,-0.279064,-4.6015688106,-3.8897021083,-4.8761697375,-4.0074152375,-3.6428850326,-3.1162213983,3.5010502417,4.8004739453,4.623120456,-3.9675827004,1.2723606444,0.9032942177,-3.2681553003,-4.1933970924,3.1118924163,4.7823516457,-4.5770684089,-4.9379634486,-2.2618944849,4.5022506778,4.9070570461,4.0069218601,4.4457621173,-3.4182365652,-4.0362924455,-4.4638365348,-3.2727863903,0.7381386906,0.1891872643,-0.6527934644,4.7146226484,4.6233777106,4.1233730705,-0.4673180579,0.7457047326,-0.5932315382,2.9659054188,4.0840048303,4.7284746478,0.5175535174,3.0023298675,3.557142978,3.1944575107,3.735913117,4.1352038223,3.8845433189,3.9015707128,3.2740954415,3.8684088752,3.3331311898,-3.5554788387,-3.6393643706,0.4812685737,-3.014794564,-3.4021775297,4.9345730451,3.6623394615,4.4886058419,4.1840112477,4.3782999356,-4.1740275554,-3.7413358321,-3.3860905015,0.4444076633,0.1164882155,-0.294862218,-4.8171683262,-4.854658872,-3.7322377502,1.2443032938,0.6413153564,-0.0724913542,0.5687087816,-0.4180259891,0.1664000994,-0.9692595505,-0.1736384684,-0.9621550034,0.5808563284,0.5795385578,0.6274383628,-0.8753924445,0.2367961346,-1.019098998,-0.2905755636,1.0518886537,-0.6471857536,0.589692756,-0.2265564376,1.7210800358,0.5829453145,4.840154931,0.4355875172,0.9895611569,4.1364814339,0.7454480407,3.6735470365,4.5222892919,-4.8996764506,-3.0423592517,-3.1111675522,-4.5953754698,-3.3639387352,-0.0371640944,-3.4540597334,-1.3029598638,0.015258026,-3.3657750863,-4.1960706187,-0.1447661869,3.2630697827,4.7494026507,3.9875420245,4.8519902817,4.6398502132,3.6599014741,-0.6615924783,4.7911942881,3.5571449748,4.4783600214,3.2669161002,3.4705495242,2.2395554554,3.5709842662,3.6835564817,3.8211128894,0.7007052329,4.5684087024,3.4439563224,-0.873089729,1.2685645175,3.6343474374,4.7727362961,3.9411222931,3.8971325463,3.4517391709,3.3094926656,-4.2972815761,-3.517890966,-4.8630927485,4.6852025567,-0.4875252827,-0.8836153164,3.2141214165,4.2610544486,-3.9405326849,-3.7297920897,4.7599981847,4.604843975,3.8917972814,-4.040844904,-4.4411463597,-4.1421196579,-3.6740097092,4.5013534174,4.5771195236,4.3477189884,4.0113781334,-0.7164805566,1.8434170093,0.5274854948,-3.7962488081,-4.8971265108,-3.4143262658,-0.0063919973,0.4313437728,1.4368130033,-3.1721310981,-3.8374287668,-4.2505309794,-0.5993810814,-2.9770316287,-3.7074723872,-3.7041155608,-3.8539824538,-4.2565827945,-4.2372656015,-3.1154997146,-4.1144033221,-4.5811274265,-4.1157384661,3.1740170412,2.9944949217,3.2186052299,4.8004221945,4.950347867,-4.6591722714,-3.1430979215,-4.023769478,-4.6186819076,-4.5610684882,3.4449448496,3.4009145408,3.2933882776,0.8954976909,-0.0140856093,0.6751719612,4.5376164754,3.2128157432,3.029967447,1.0632978334,-0.1375823914,0.2083653242,0.952100245,0.1137777324,0.4549907186,1.4171241474,0.8691065472,0.1241481362,1.0584079034,0.4032873916,0.6606422997,-0.3330141039,0.8996492329,0.3888015768,0.7779299109,0.8742521501,0.3297706284,-1.7587029751,-0.7175104042,0.0819394702,-0.5056315334,-4.6421165587,0.5544023196,0.235372055,-1.1947819209,0.9991300125,-1.6979631122,-3.5655247797,4.360353601,4.250625761,4.8960116497,4.8213222959,2.9985293589,-0.389678003,0.1712417417,1.205022497,0.2510052633,-1.3100187617,-0.3563867654,-0.9085317383,-3.795328721,-4.5767202461,-4.5287101836,-4.3515329201,-3.1358416073,-4.367478093,-0.6300610984,-4.3099663656,-3.5610970077,-3.7139127744,-4.9029191892,-4.4894917402,1.0110831372,-4.5638925963,-4.5553546482,-3.2732028927,-1.9472570633,-3.1031114489,-4.4025283883,-0.0456889724,0.8594328976,-3.5060671395,-3.297823841,-4.0170255598,-3.7903350792,-4.3393057034,-3.9386673203,-0.8932101416,0.1764938183,-0.7440272669,-4.3005219193,0.6577253716,0.2958812947,-4.9194592583,-3.8968572576,0.5341448646,-0.2109973022,-4.0479047389,-4.511382562,-2.9652324991,0.6927090178,-0.6056968806,-1.1045816323,0.1768951072,-4.354924728,-3.0680730578,-3.9111909518,-4.4650177331,4.2353333549,4.489909565,4.853152305,0.5056712764,0.1723350189,-0.854725712,3.2562564121,3.5347258108,3.7004380734,-0.5330328899,0.7120913498,0.176600237,-1.292737297,0.2431751877,0.2162671348,-0.4875477271,-0.4495634844,-0.0709419358,0.524411611,0.0947022778,-0.1151784509,0.2481897774,-0.7493161105,-3.3171937133,-3.8569653524,4.1807439437,-4.3645155168,-3.8449559711,-0.1479289177,-0.0114956013,-0.4070308731,-0.6645942425,-0.9929416705,-4.5021846461,-4.8929394736,-4.5176765816,4.4065909291,3.1943333338,4.6530726803,-3.6450051344,-4.8379000324,-3.1398017595,4.7700734456,3.2326833888,3.1514821669,3.8940277077,3.885470715,4.0584716217,3.9995306466,3.7778008334,3.3077344152,3.4128465172,3.8195484183,4.0526405486,4.6591819515,3.6938488535,3.6939238659,3.7645827928,4.7974493914,3.1379639723,3.9550731495,3.4300201241,4.9214940175,4.8824187714,0.2552050435,4.0444832702,4.0078174245,3.4869479438,4.0541176523,4.6058832546,0.5356400877,-4.2336188013,-4.8873427865,-4.62850805,-3.3377619352,-4.7727618097,0.9204462715,-2.5941449595,0.2309613486,-0.4712198878,-2.0986986303,-3.9876299609,0.2884686524,1.2514081659,0.9517958713,0.594680324,1.4592449644,0.7065730429,-0.0632877774,-2.2299399021,0.5947835391,1.5341204373,1.9680597316,2.2814840944,0.8380549098,0.0584425808,-0.1015993308,2.0774529437,0.5992265533,0.6495629644,1.114516378,1.9578039907,-3.7590594083,-0.3837430068,1.1753423368,0.8298099781,1.6876931813,2.0839217147,1.0280280546,0.6601286766,-3.8165778467,-3.4800177798,-4.400828584,0.5731318782,-1.1672948199,-0.3513294725,1.0009411448,0.5077007201,-4.5083471843,-3.384240731,0.8311484441,1.1776828029,2.0029039728,-3.5023011113,-4.3597204935,-3.5606023375,-4.8529624539,0.9362912371,0.4856495117,0.4840672896,1.2662170845,-0.13522395,0.9055851239,0.9894624536,-3.1813648867,-4.7236974035,-3.209017047,-0.0522208967,0.9305599617,0.050573229,-3.6468011928,-3.686915902,-3.2031611356,-3.3726904917,-3.1219970651,-3.3946013445,-4.5065485471,-3.3681973241,-4.354628641,-4.8684138833,-4.2282389046,-4.0610151586,-4.3099983053,-4.5310610392,0.6052581484,1.7827013609,0.7766973101,0.3612849723,1.1162146363,-3.0485206965,-4.7376667587,-4.8291676027,-4.7871851316,-4.9442344412,1.4920849109,1.768922367,1.0888709049,1.125661065,-0.1109015953,-0.7100031779,1.350109777,0.9024173965,0.9691888954,-0.0434996913,-0.2952290819,0.5561665264,0.572906137,0.4231177414,0.5075085419,1.1788859356,0.4004663671,0.9332777016,0.5639418172,0.0805571574,-0.0958318114,-0.3377935756,-0.0236448915,0.6051226788,0.0980262194,-0.3072824642,-0.3429080788,0.2451087381,-0.3276869301,0.9792737068,0.2832363679,-0.4395168789,1.1769976185,1.0781833666,0.366770513,0.3348357458,0.8418918306,-4.0654875857,1.2080412494,0.2039639068,1.5913649814,3.9690305606,4.4945508241,-0.9662243264
##end
biasActivation=0,1,1,1
[BASIC:ACTIVATION]
"ActivationSigmoid"
"ActivationSigmoid"
"ActivationSigmoid"
"ActivationLinear"
