encog,BasicNetwork,java,3.4.0,1,63663371355994
[BASIC]
[BASIC:PARAMS]
[BASIC:NETWORK]
beginTraining=0
connectionLimit=0
contextTargetOffset=0,0,0,0
contextTargetSize=0,0,0,0
endTraining=3
hasContext=f
inputCount=130
layerCounts=3,6,22,131
layerFeedCounts=3,5,21,130
layerContextCount=0,0,0,0
layerIndex=0,3,9,31
output=0,0,0,0,0,0,0,0,1,0,0,0,0,0,0,0,0,0,0,0,0,0,0,0,0,0,0,0,0,0,1,0,0,0,0,0,0,0,0,0,0,0,0,0,0,0,0,0,0,0,0,0,0,0,0,0,0,0,0,0,0,0,0,0,0,0,0,0,0,0,0,0,0,0,0,0,0,0,0,0,0,0,0,0,0,0,0,0,0,0,0,0,0,0,0,0,0,0,0,0,0,0,0,0,0,0,0,0,0,0,0,0,0,0,0,0,0,0,0,0,0,0,0,0,0,0,0,0,0,0,0,0,0,0,0,0,0,0,0,0,0,0,0,0,0,0,0,0,0,0,0,0,0,0,0,0,0,0,0,0,0,1
outputCount=3
weightIndex=0,18,128,2879
weights=##0
##double#2879
   -0.6527506901,-1.7582500949,0.6763853496,3.306070575,-0.7697817958,-0.9457779387,3.1621510921,-0.6090788245,1.1134065789,-8.1881458889,-0.7472512356,-0.5704183349,-0.7485711924,0.6297704924,-0.977530128,-1.6877854178,3.107368385,-0.6052043706,1.097644448,3.1485947979,-0.536273507,2.8267720851,2.9321389638,0.8432359628,-1.1041779476,-7.416229975,0.0614620597,3.1341091281,-6.9375624026,0.7138849612,0.5957528188,1.398793533,0.4496459908,-0.5771141065,1.9807683958,-2.1914315029,-1.7033277635,2.7709076159,-7.4480307014,0.2405139255,1.9861361359,0.8589469779,-1.6894962839,-1.9139398044,0.3476534234,-2.9703832178,0.7976013427,1.6477764232,0.4709609992,-1.1001336586,-0.1452801159,0.4156085758,1.4774250417,0.9075593711,1.7989293225,-1.9843801387,-0.6727907937,1.4784286347,2.931047792,-1.1490733737,0.6207692212,-0.6035776745,0.4373431935,-0.0245057381,1.3693533846,2.9181773325,2.3828805745,3.1932021341,-0.6885017811,-3.34399371,-1.4061348807,3.1610278448,0.015246436,-0.9451120977,0.3684184216,0.1567722716,-1.5933408567,2.1493572894,0.25350766,-7.8694473885,-1.9443917404,1.6461031493,0.3447808364,-0.0449113545,-0.451660146,-1.788403173,1.5042668727,-0.9917011399,-0.5691355722,1.5729435037,-1.1410001504,0.0970629027,-1.0333871149,-0.3851356604,2.087683263,-0.8658268016,-0.7409052114,-1.2287342301,-1.1311007695,1.3754791753,-1.4120777573,-0.509147196,-1.0463065341,-0.7348762503,2.1431747794,0.8376724788,-0.8896413358,-2.18108901,-2.6795783719,-2.6735214173,-3.0106634789,-2.1347924646,0.4859861267,1.8767653954,0.7640958599,-2.3702274002,0.7011325176,-0.0545281632,-0.0332585279,-0.5157620571,0.5405666575,-2.7199424725,-3.2507408493,7.9282663528,7.3361283015,-3.4128473443,0.6701630155,-1.1348471359,7.3240920217,0.0547472731,0.4699101627,6.3003515992,7.8185593828,0.7898569385,-7.2973462041,-7.7778580559,-6.4897304495,-6.896901428,-7.3471019115,-6.5994831567,0.9659712757,-8.1122018228,-6.5614930188,-7.8923517305,-7.0905665815,-7.2637456967,-3.6837164413,-8.1026455703,-8.0976500939,-7.6550729393,-0.90759088,-6.6135900925,-6.3793526227,0.8677281893,-0.6244568965,-6.6857182786,-6.2233853051,-7.8442804588,-7.1639274344,-7.7869995141,-7.0839766975,6.5267600539,7.26921853,6.7990847838,-6.7176115003,-0.1412002226,1.0206726352,-6.5191503541,-6.74728004,8.1693727914,7.3313574162,-7.1375583107,-8.1159330336,-8.1322610191,6.7714938039,6.9151541184,7.9402248541,7.9390930802,-6.4147778359,-7.7452334237,-6.9971763104,-6.9597475429,0.5891074947,-0.3705684704,0.3999937597,3.6506745945,4.3315080099,3.0873546802,-0.5686846592,0.0055190987,-0.9148569521,7.981102364,6.3219828922,8.0810881787,1.6853490017,7.1819280018,2.359637179,7.3015964949,7.6826954351,6.7658400724,7.0068356258,7.0678052077,6.4366175133,6.5414142219,6.6435558323,-6.2174083758,-6.783039557,-0.9455378823,-6.3564728406,-6.9926509786,6.7214112572,6.7334118534,7.6795572794,6.8081514521,6.2298686811,-6.5732200212,-6.747734979,-6.3653643476,0.6288618031,0.6289127883,0.0837553825,-7.6608006355,-6.9287284299,-7.9463843562,0.8082376852,0.625275088,0.3892527722,0.5249126905,-0.063222713,-0.7218364277,0.539155742,-1.1889635083,-0.441725069,0.0004598609,0.4986944161,0.1232677014,-0.1739873376,-0.3487684701,-1.6108710512,-1.5954515177,0.0745160922,-1.0942730258,0.7930908774,0.9535541549,-0.5297211999,0.8896653611,0.2349710224,-0.4062102254,-1.0975887409,-0.0277681696,0.493235736,1.1895794594,6.548910576,-6.5723761899,-6.4238821334,-8.1496881525,-8.1517295082,-7.6993239473,0.4815505747,6.5978450637,-0.9728880534,0.1101775638,7.9948645093,7.8831956562,-0.6585290054,-6.3084964948,-7.2177988733,-6.275336911,-6.4920109176,-7.9940987898,-7.5365625393,-0.339550297,-6.9964270539,-7.0797232421,-6.299568071,-6.6995650904,-7.5437873896,-0.4675368323,-7.1434102724,-6.2861698596,-7.134931968,1.0934320977,-8.1941627925,-6.9063811882,0.5853604453,-0.7807352631,-7.4390659421,-8.0153745933,-6.4400266624,-7.6047377471,-6.4048916568,-6.3605095549,7.0358160784,8.0377632267,7.5088055531,-7.9088656453,1.8345679436,1.0317422521,-6.4881168651,-6.8502250922,6.5569443145,7.5086216485,-6.3671081122,-6.3754789681,-6.2186794756,7.2410650025,7.5775132493,8.2024602787,8.1059597991,-7.5097970121,-6.7272904266,-7.3862374383,-7.7391370933,-2.1804768253,-0.308424996,0.3099904252,8.0658932085,8.0691895558,7.9572442061,0.0164897679,-0.7954983496,-0.8565294165,6.8411981112,7.3099669884,6.7975021752,2.4540158557,6.4415781033,2.9209306834,7.166612443,7.0648257345,7.6954826142,6.2953941366,6.5202154267,8.0919462032,6.7123974117,8.0439516696,-7.1589545472,-7.1966352355,-0.0707991418,-6.3324280968,-6.3641854609,8.0028087141,7.6346886732,8.0300498669,6.6375900248,7.6348444937,-7.0004063718,-7.2059375611,-7.4982973948,0.6066656035,-0.679095379,-1.0030521606,-7.5881843321,-7.4934517495,-7.4081836916,-0.7956735751,-0.3807953303,0.1323856404,0.2391677359,-0.786379844,0.2654836908,-0.5679791634,0.4421976559,-1.1681277707,-1.1083482876,0.4465558266,0.2870552574,0.0721176531,-0.5402040164,-2.587810891,-3.0159580284,-0.8786643501,0.1729921099,-0.0188740769,0.1405712097,0.1214929662,0.3723313049,1.0202172361,-1.5352657727,-0.5957058926,0.9484434258,-0.6592419427,0.8191076542,7.1615671045,-7.3446056056,-7.7806693863,-7.3049545293,-7.1622030944,-7.1010796599,-0.3568974352,-1.3615169341,-0.603652354,-2.8899397613,0.3237506604,-4.126476341,-0.7104968705,7.844605143,7.7741125587,7.308106462,7.2823883057,6.475550606,7.1181846125,-0.9199613757,7.9521024691,7.8332452669,8.162756279,6.7741396597,6.2878734553,1.1403154639,7.7311382477,7.007658373,7.6904800354,0.6683449907,7.7730860885,6.8695692367,-0.1778409224,0.2618189237,8.0633030095,6.4607775082,7.8751305936,7.6739593834,6.606557062,7.1958246468,-4.3394087992,-3.2780661088,-2.9542001918,6.7366673045,-0.5270167947,0.6879605234,6.5608769191,7.9801679178,-1.7519589822,-2.7594508115,7.8563507225,7.0897375461,7.1979429363,-1.9527319895,-1.5676878412,-2.9281543984,-2.6663120087,6.8181487278,7.0602390844,6.2290558647,6.8160120382,-1.8520197095,-3.6610257681,-2.2684278099,-2.198360991,-1.5712689599,-1.9346033067,-3.1690428692,-2.5993940005,-1.9330927646,-2.4965558373,-1.5073039569,-2.1102597306,-0.5877254874,-1.9152922204,-1.7715909641,-2.5960675101,-2.8515262573,-2.2743251467,-1.734686779,-1.6772107073,-4.1323686866,-2.7939986245,-3.4471780096,7.0275005804,6.9118504937,-0.5459126038,6.3947118726,6.8308753113,-2.0605024903,-2.5556022017,-3.334020636,-1.7930663369,-2.2536892866,6.3770319084,6.2097174516,6.823576825,-4.6544896964,-2.9401649344,-2.8709482118,6.6518355246,6.3602594165,7.2874629027,-6.5753364499,-2.8685171926,-6.4838996186,-7.3451168104,-2.8133092443,-2.0393897436,-4.4710270756,-2.6002233777,-3.2265014916,-3.0585349254,-3.0872371296,-3.9439168964,-3.1475897112,-2.8971383148,-2.0886582407,-2.1085777368,-2.2659263352,-3.1325948999,-6.619028629,-7.8156976241,-7.233372658,-6.6904362312,-1.772432086,-6.7939667527,-6.4497209406,-8.0833936221,-1.583288231,-6.3106469754,-2.6102325027,6.4719702733,7.3067110884,8.0312667013,7.9784365761,7.3718918912,0.1502143213,6.8402520225,-0.8581860847,-2.7500830432,7.0662209833,4.2892154167,-0.5103665771,1.9581911021,1.6617594805,2.7926501279,1.708845276,2.099185868,2.850727698,1.9226085484,1.7895910402,3.0475185749,2.6916275864,2.1734802265,1.4741693274,0.1430177878,2.9381366626,2.6757661264,3.2606909381,1.7902335427,2.4389235973,2.6928756341,4.5049122732,-0.6676311364,2.7890458891,3.0334013629,2.30331814,2.0032222241,2.647214328,1.5956049464,4.6543526428,4.9240551306,4.5560025891,1.9768120877,1.4946439163,-0.0059054595,3.3875862066,2.0457992775,4.7873065978,3.6854229828,3.0034343659,2.2208003075,1.9412669295,6.4852375212,7.0890163001,7.2875206745,7.3681568778,1.8107359276,2.6605485697,2.211003797,2.8533578396,-7.4053206645,-7.8346396124,-7.1634334246,3.6640422994,4.398472286,4.1572462786,-8.1730749625,-7.9198791588,-7.2974453731,3.1331785801,6.9733430225,7.6374057025,7.7341970612,6.4603922601,-0.2726889087,6.9750041909,8.1924107624,8.1638715481,6.9032841365,6.9901772974,3.2415403869,4.1526549105,3.3415013334,2.6826582589,2.8612664744,-6.8345823607,1.875493854,2.0801144594,3.384850538,3.1188844279,3.0515906163,3.4938473,4.8072416907,2.2878832071,2.608103551,2.8855994383,-6.765096484,-6.6846168574,-6.3551264918,2.4791027624,3.0531163712,1.9464011693,-6.8596241374,-7.9824222474,-7.196359374,-7.1717872484,-7.0212425314,-6.499179639,-6.7122262728,-6.598471895,-6.9212248356,-7.5444441779,-6.3475085385,-6.3831940098,-7.7626163659,-8.0679432842,-7.2008185195,-7.7435976721,-7.6420357029,-6.914866051,-6.2679552911,-7.7157914822,-8.1446832548,-7.1356075289,1.7100232309,-7.0849221483,-8.0198468797,-7.2516234121,-6.8340743801,-6.8189810629,3.5253315481,3.2768287178,1.4675301635,2.770181535,2.0881901968,2.6962365286,1.3191341178,6.8845046324,-0.4357354258,-1.905049036,7.1157497153,6.3365747938,1.5513303288,1.0609489519,0.0543933728,1.2429600897,1.6344813259,0.93015506,0.0208949002,1.79304712,1.2245282513,0.9151286715,0.9564067264,0.2797835968,0.6477004554,-1.997466612,0.294552793,-0.2126069589,0.9987819202,0.2379108271,1.1554004317,0.8778287199,2.5024923226,-3.0830896126,-0.5519375113,0.2258639816,0.767865105,1.2212848213,-0.4722788755,-0.2406664128,7.4746457167,7.5911871043,7.4392102981,-0.2544996084,1.1072149463,0.6427585797,0.5240994726,1.2052289284,7.5654345859,7.3313850858,0.635750705,0.6005830796,-0.1675818896,7.5547857607,7.9259120336,6.956173559,6.2064170278,-0.0184433513,0.243705939,0.2107010982,0.3393496299,-6.772565216,-7.2998132803,-7.066896872,8.0569745366,6.6200704725,7.9229563091,-7.0353809161,-6.4700837751,-7.0262411585,8.068519215,7.0370525405,7.4250654453,7.7405861027,7.8917311633,1.0370456638,6.8623451602,7.2844920563,6.9877957938,6.9277001324,8.0973295205,7.0225105559,7.8321605481,6.6869541706,1.3128431728,1.2281503165,-7.8006850525,1.5890715803,0.1692727566,7.1438356353,6.5656863424,6.2043618094,6.2082238886,8.0113954152,0.2959867069,0.2862340674,0.3522970794,-7.788391548,-7.4837107757,-7.6424263955,0.2513673476,-0.0799264729,0.6658021822,-6.3856805731,-6.7868877288,-7.7872296802,-7.4635512005,-6.5098249289,-6.4906396187,-6.8110834539,-7.0345550146,-8.1121312109,-6.5508312864,-6.429527347,-7.9875879696,-6.559454064,-6.25890976,-7.4322813624,-6.4068169324,-6.20850047,-6.8808546423,-6.6909346033,-6.8453553871,-7.0677889636,-6.243965934,2.1526887625,-7.2709039566,-6.9386265076,-6.7516612133,-7.6085643318,-6.5506435559,7.7266915615,1.1436802632,-0.0954779421,-0.0186148738,-0.375524409,1.1854249722,0.9759353647,1.0321116989,-0.3712468363,-3.1016266808,2.5792789878,0.0739524617,-0.6485636279,6.5721926104,7.0088647216,8.1898737633,6.4854852558,7.9364537073,7.9721502455,-0.469884185,8.1604812824,7.4013300254,7.4266108457,6.7493544949,7.2376570706,1.2615731792,6.3361546481,7.228546523,6.2654535724,3.5986146402,6.9361698072,6.6410924654,0.7722248374,-0.7815357932,6.8667347303,6.7466057588,7.7806593876,6.4108506069,8.1040228996,8.1202826602,-0.771871822,-0.674010704,0.2529748962,6.7042031476,0.2060413472,-0.5452941744,7.5639698241,6.4669757151,-1.3625029606,-0.6496603878,8.0925830313,6.9412717301,6.8558641554,-1.3671653052,-1.0597670985,-1.1812397907,-1.630225294,7.8504378533,7.0849212086,7.1773082776,6.2577932197,-7.5871170337,-8.1249980861,-6.9141391332,-0.7887182451,-0.6600359595,0.5215276671,-7.5582332226,-6.9385171666,-8.1284975325,0.0352670305,-0.9580811429,-0.8651654086,1.8815282748,-0.6271792005,-0.4029817698,-1.2081568595,-0.1128138308,0.2686010522,-0.8879020036,-0.2906627045,-0.5275399029,-0.0717346839,0.5903884284,7.511353511,6.9394951903,-1.4774852327,7.6474265435,8.0918222395,0.0024252687,0.0892217416,0.374049233,0.7886331993,-0.4496256651,7.1376556171,6.385959534,6.4966338436,-8.0212951441,-7.9819586173,-7.6466251981,7.6721155194,6.3018264091,7.7121766682,-6.2151271561,-6.917779079,-7.9532389192,-7.8456668069,-7.2871894385,-6.941231306,-7.5866397532,-6.798589309,-6.4027058986,-8.060992903,-7.4155342072,-7.9510650978,-6.2856522966,-8.003777962,-7.4932552572,-7.7242223115,-6.2097536809,-6.9280789013,-7.2887420072,-7.0455328453,-6.3185685808,-7.7907985661,-0.4116558257,-7.8422750195,-7.5208232716,-7.4939316703,-2.8606754768,-7.5820224384,0.3160790868,8.0263585056,7.906521837,8.1725749773,7.1225020666,7.0662700351,-0.8103800756,-1.2794840185,2.2486746909,3.4354173809,-1.0870759419,1.1879150125,-0.0958277152,-7.9353745252,-7.863697592,-7.6409790084,-6.8899072151,-6.8772796637,-6.3517464465,-0.202550369,-7.4889246529,-6.2438866645,-6.8784687829,-7.2285318118,-7.0443642059,-0.8927058094,-7.3836629778,-6.6477360671,-6.343408023,-1.2013614128,-6.7307670267,-7.9095133085,-0.5164291477,0.0590248396,-6.4512752146,-6.7057890615,-6.7284335096,-8.0428600869,-7.2010507467,-8.0518542052,0.5645265843,-0.4873228249,0.1491216115,-7.2585888305,-0.9137769105,-0.4573248218,-6.6852027375,-7.559665878,0.8685646229,0.6977904778,-7.1559982006,-6.8412547282,-6.2519812854,1.4008210078,1.2815438583,-0.0136231237,0.717129939,-6.919785444,-7.9150120046,-6.9249582964,-7.3157455442,4.5034870237,3.9624016493,3.7099026034,0.1488857981,0.3438211517,-0.0577722897,5.0928592774,5.0997321418,5.2886135494,0.6555821623,0.8990806699,-0.1424573493,-1.2957941281,-0.7861017998,0.8399728376,0.0542447465,-0.1197271385,-0.7057140175,1.038455985,-0.3236534709,0.0370291882,1.2738402427,0.9294953677,-6.8566013009,-7.1547903553,0.4785618654,-6.3309496874,-7.4453068334,-0.3919014613,1.0327314379,0.6744533476,1.0948499645,0.7750273587,-7.4400295527,-7.991331823,-7.8137964762,6.9780270274,6.2262088889,5.3170266021,-6.7647261985,-6.6356965249,-7.0855186669,6.5884978018,8.0810252176,8.1940462626,7.6452749853,4.9759892354,3.9294978458,6.6854840388,4.404086771,5.3487051614,3.7169914015,5.049032376,7.5830085414,6.4309640797,6.4569990356,4.3737385632,3.7216662115,4.6332231813,3.5721192492,6.2194213168,6.7921543953,7.13808665,7.8877816739,1.2782293551,7.9518903688,6.9213249696,6.5223135158,1.472231403,6.9195381806,0.6266170556,-7.5585090915,-7.2995341592,-6.2632555906,-6.308952379,-6.5404234325,0.0136890376,-6.8458204933,-1.0453468387,3.5899298094,-7.7234698373,-3.7676299604,-1.1984380777,-0.7975026856,-0.4432371185,-0.6599713147,-2.360793977,-1.3733141055,-0.5386542074,-2.923390155,-0.9242602385,-0.6936689888,-3.7226040092,-0.1737732366,-5.3701601287,0.1309373176,-7.9216384187,-1.9735705118,-1.9071683028,-4.1886775233,-4.7166093089,-1.0052391578,-6.2413977952,0.5964972073,-2.853433452,-0.853937615,-3.2385957166,-2.090623882,-3.2634825343,-2.5179515477,-7.8190350828,-7.0697418986,-6.5468408811,-5.2584053107,-0.6681838537,-0.0729695712,-0.5630655058,-0.9115151142,-7.1952705574,-7.015992897,-7.186714997,-7.710343098,-7.1234613046,-6.2248030118,-7.9413399099,-7.3286922206,-7.8178055154,-3.9585267827,-5.5951709746,-4.227351322,-4.2716275101,6.6057259954,7.1302372109,7.6216501805,-7.5043262994,-7.2986575072,-7.0019067706,6.5713928269,7.0701228207,7.2130844094,-6.7650291819,-6.7090091772,-8.1068584201,-7.742861917,-6.341209013,-0.4443740542,-6.9253899709,-7.3588733622,-7.5796119986,-7.1716885897,-7.6344929884,-7.3708509296,-6.2410735301,-6.6856730834,-1.3002241133,-1.136402823,6.2119613401,-1.4466584773,-1.7333331511,-8.0673415548,-6.7616876999,-7.2296895818,-7.8864664396,-7.4518182851,-2.7955639245,-4.1928724684,-2.5138224505,7.6502693441,7.0500607233,6.9846846176,-0.5813802755,-1.149613152,-0.0329400656,6.6750080103,6.3433233518,7.4222903816,7.8205295231,7.8853612754,7.8428021984,7.4769294742,7.1436863797,6.8984718875,7.9700565728,6.5617465806,6.6785315938,6.9977554673,8.006842017,6.3476358429,6.8844151211,7.6576349984,7.7894368467,6.3472138355,8.0660816849,7.494190821,8.0365947884,-1.526762527,7.9825047486,8.164122248,8.12572934,7.1696703066,7.1164421005,-8.1814292808,-2.6794160581,-5.2025779967,-2.7841811752,-5.3500215669,-4.4525366419,0.4133797257,-0.7537509687,-0.4773437806,2.7763021723,0.4147402687,0.9167060202,-0.1588857192,-7.3430872443,-6.6496966036,-7.5061054794,-7.11013311,-6.6848795537,-6.7761885181,0.7414339086,-6.7293653434,-7.8423095492,-6.7820746398,-7.6106034002,-7.7114686172,-0.8381786513,-6.3657671586,-6.3846743266,-7.9745950213,-2.1316834866,-6.4002437918,-7.3562154393,-0.0155306327,0.8212237571,-7.2133637587,-6.2529471116,-6.6694583848,-7.7889924745,-8.1122417412,-7.1779494839,-0.4220510931,0.0920496199,-0.5476398855,-7.700674636,0.1511776701,0.6949469228,-6.8071278206,-7.9349744495,1.3957245562,1.3081468025,-7.159754448,-7.7277374647,-6.4393807958,-0.1513775473,0.1130401598,0.3243072084,-0.1339701551,-7.3650219473,-6.6087851917,-6.3213789584,-7.0628872881,2.0975251219,1.9869239752,2.3781802054,0.5485149032,0.0222251623,0.9217316637,2.2066890778,2.4290975011,2.3106253962,0.6488960227,0.3246407964,-0.6537764181,-1.8177995529,0.4512282115,1.3680435638,0.4097142787,-0.3936105599,0.7420950197,0.5089882938,0.1710848592,-0.0529841858,-0.0390865973,0.5404421725,-6.8678811326,-6.7149190793,-0.2235478447,-6.4436793579,-6.9735804241,1.1004932791,0.4958526143,0.4694947205,0.8392039544,-0.6165718539,-8.0048384889,-7.693960292,-7.3323730803,3.0610494426,3.9548221408,3.2435569334,-6.5033616751,-8.1006761602,-7.9545000483,3.5991622069,2.6544066664,2.0699328111,3.6796924387,1.3411676651,3.1951423734,3.9612734924,1.4122539815,1.6577995654,2.551171864,1.6130824016,2.8497740717,4.4222978384,4.5429192217,2.0536602795,1.9425445053,2.3603768279,2.458733073,3.3128603229,3.3671053618,3.3483719228,4.6425053481,1.7302834489,3.7417086586,4.1607317386,4.1820754792,1.3801490338,4.2055410931,1.1798137991,-6.554185223,-6.605966502,-7.110153342,-7.9529434534,-7.371827438,0.1030299258,2.2749092504,0.2556979379,-2.6915848095,2.6733228649,1.6772114453,-0.2732958761,6.6431034349,6.9316035652,6.7221915677,8.0552433197,7.6057168168,6.3986330834,0.0912147509,7.3709028219,7.8669571251,7.2072337274,7.5316298647,6.4715293498,-0.5499622372,7.4856096027,7.0118076395,7.0024596447,3.7168611118,7.6226971165,7.2794835796,0.6352609545,-1.4017185189,6.5634184155,7.9646453753,8.1660262448,6.3230250124,7.4907197213,7.6564672819,0.4713947362,2.1767495943,2.2489091668,7.0036722108,-0.4639344506,0.1827798543,7.5815590663,6.2764482051,0.5602677501,0.7322359309,6.6271823991,7.5896281839,6.2156257219,1.4379955777,1.5355465659,2.8418327907,3.36561243,7.3270197339,6.8626460398,6.4234927307,7.4869451826,-6.4750393611,-6.3374217823,-8.2031005509,1.6715069521,2.5222567208,2.1849946071,-7.7195773616,-6.3572646855,-7.4637208866,0.4695315202,2.5414429261,2.3033756101,7.4474069696,1.7056246611,0.1507595794,3.352337887,3.2604545377,2.9437498983,3.0553144825,2.5464278581,1.0254895133,-0.0190667268,0.9740577214,7.9590624346,8.0879797441,-8.1583671569,6.4493564908,7.0181786049,0.503287138,0.0692079005,0.6378741941,1.4347697785,0.4371965523,6.4203355471,6.5686973996,8.0028202346,-6.8023096428,-7.4176360979,-8.1276951357,7.4839993432,7.1616399916,7.7401143952,-7.7132416197,-6.8663581556,-7.1264883116,-6.4384820024,-7.115475383,-6.8026455829,-6.8794903562,-7.5734629954,-7.1380517487,-6.5431399328,-8.1065385127,-7.057615423,-7.5646346664,-7.6435067725,-7.8828753492,-7.2173162591,-7.3311003889,-7.6774266937,-8.0046747549,-7.0306587549,-7.074181422,-7.341236576,0.7540942492,-6.2715235799,-7.1572541813,-8.1090200421,-2.3383957065,-7.925981541,3.2795179797,7.1596423745,8.1183346816,7.0159035543,6.5087241895,6.788825637,0.4771620096,-8.141274224,-0.7610895946,1.0159341302,-6.7817501866,-6.4228445422,-0.6771755263,7.3089795862,6.2301020678,7.9580622491,7.0433884239,6.6964393996,6.9478477177,-1.3381250654,7.3588677463,6.7882388739,6.7038762059,7.3197179106,7.7920904502,3.2966772789,7.5009736164,7.3690697137,7.7994944125,-1.9489049587,8.0816912855,6.3480259618,-2.1680045639,0.6349771581,6.5593472124,7.0888986163,6.6858523415,7.693538482,7.5207020795,7.3576933877,-6.6073731968,-7.140529714,-7.8804233193,6.5717273319,-0.9807895872,-0.7574467177,6.7485882512,8.0669642621,-7.9928972478,-6.8791240065,6.5334654191,7.045122608,7.1717356485,-7.7482063283,-6.5229691203,-7.1376070608,-7.9943353579,6.3871411393,7.7746398884,7.8759979762,7.7863621225,1.5254476578,1.4654246405,1.5956187998,-6.7218844082,-7.3035031608,-6.4547707821,2.5386920748,1.5941731115,1.6604022677,-6.4814445163,-6.4874246289,-8.0132072092,-3.0140103929,-6.5276983363,-4.3175913389,-6.2839965336,-7.9903845553,-7.7542486486,-8.1341251637,-7.8523717409,-6.917438933,-7.7414287261,-6.4497684325,2.6317136371,2.4405125518,0.81383882,2.4325757174,3.5471031185,-6.3702919679,-8.0183004316,-7.2056859456,-7.3792070668,-7.385413731,6.4015418059,6.3332672622,6.5506679566,2.074964686,1.6266399487,2.2872005272,7.9819290646,6.3537547272,6.4995076797,1.1839066504,2.3255126736,1.3881602961,1.6768884179,1.4251512535,2.2747130094,1.7505528792,1.0584261829,2.3950016907,1.6161543471,2.0409798182,2.2153538929,2.5533505119,0.9112666269,2.2438405481,1.6257738262,0.1614340774,0.836169297,0.2834590409,0.8508972848,1.9103468441,0.5008028095,-2.1148332835,1.0912760293,2.4083266769,1.0078907383,1.6846205671,0.1713889545,-6.4980709339,8.0811947266,6.3062689379,7.137887834,7.5214486808,7.8240254873,-0.9605452632,3.8278194573,-1.6929971133,1.497795003,3.3598210828,6.3072066624,0.9403465291,-7.7045642517,-7.9885793932,-6.6629351267,-8.0888326903,-7.6877082313,-8.052469137,-0.0054219581,-6.9419550293,-7.6906051214,-7.7399443143,-7.3188883741,-6.8321949023,-0.9850817068,-7.9189916978,-7.6692801525,-6.6833736153,-1.3586943756,-7.4239803269,-6.6351096539,-0.6437346212,-0.5283346496,-6.4863846424,-7.064776732,-6.2871609256,-6.4579357375,-8.0799373192,-7.9716413886,6.9117286581,6.3597467048,6.5108979886,-6.2444229265,1.3290337406,0.7080645975,-6.5831036783,-7.2361755999,7.5922417433,6.7962715703,-8.1271867993,-6.4089135333,-7.294419046,8.0285926413,6.8639465508,6.4780407577,7.2423223224,-7.9508729147,-7.3794006198,-8.1775907427,-6.5464619176,-0.7841889563,1.8526220621,0.4865008373,7.6977746139,7.6673387891,7.3837071606,-0.5010975848,-0.6019251037,0.6282426611,8.1730870772,0.5156504793,0.2587690065,0.4974472838,0.7390895116,0.2869522731,0.7898287757,0.0900554265,1.3033889165,1.0941995908,1.9738957415,7.7914957933,6.5336676688,7.0972313289,-6.6787186723,-7.1293823918,-0.6985284735,-8.1371661936,-6.2236995604,3.6538018063,3.1923055675,3.417414938,2.5543618654,3.3710884488,-7.9864217768,-7.4248360801,-6.94373001,-0.390924445,-1.4451970729,-0.3885349269,-7.996244205,-7.3401308549,-7.5612193948,0.8599114353,-0.3584361036,0.6459196404,0.9415884921,-0.5496960224,-0.1547349147,0.2201747509,-0.4382314758,-0.1387137245,0.040969498,-0.2133009234,-0.3488684265,1.291009643,0.8310965278,-0.952692894,-0.2413376303,0.4028508735,-0.1586124316,-0.143695964,1.8953513465,-0.5866463099,0.294765051,2.4757481733,1.1030638496,-0.2663725576,1.3509550697,-0.2489759862,0.2842173664,6.8350647327,-6.9173082423,-7.5806683047,-6.8520746988,-7.9974758093,-7.0120404953,0.2435284684,6.2387694148,2.8736813213,0.707414509,7.3208966148,7.8570883579,0.4154351649,-6.6530052891,-6.5587261516,-7.8917405166,-6.3154947218,-6.8337117073,-6.7745105505,0.9908258053,-8.0785871324,-7.0746413212,-8.2023692326,-6.260719724,-6.7515120536,-1.0335624585,-6.3639540077,-6.8731043714,-6.7447753951,0.9381380323,-7.4165368951,-7.940277417,-0.7525197105,0.196616916,-6.2196376323,-7.9209499097,-7.9286984902,-8.1680595334,-7.4391944628,-6.8268707798,6.3444512841,7.8826803004,8.1219004261,-7.5814446561,0.7143980185,1.1063097852,-7.7918267527,-6.9197010513,1.8516496288,3.0548270126,-6.7271715563,-8.0784465297,-7.800847776,7.8535110269,7.8506047863,7.3140206817,6.5152872867,-6.8187059781,-7.8743262,-7.3052717713,-6.2089692782,-0.0920398207,0.0443150445,-0.3722446407,7.0719694247,7.9038395535,8.1704125413,0.2828035812,0.4177951535,-0.4157465997,7.0730380736,2.9392821054,3.2510617294,-0.7508140894,3.233942156,3.949985999,3.3686758804,2.6444865353,2.7506678021,1.9316680335,2.3030182727,1.6875748893,2.1034921799,2.6041023268,-7.4770643297,-7.3373754467,-0.6095257526,-6.718212588,-7.0803881431,7.3257824094,7.3210693081,7.5131846802,6.5009273813,7.498422722,-7.977166524,-6.3922857633,-7.1120857749,-0.4298081794,0.677553881,0.5250788179,-6.4342249996,-6.2520552138,-7.6686782722,0.6308657453,0.8717632772,1.2436262189,1.5307550503,0.1383277169,0.9693719442,0.3591233118,0.7064438108,0.8873491706,0.7165375529,-0.1000285771,-0.8721201977,0.5415706335,0.7448767786,0.5137200053,-0.8089361397,0.5572044696,0.3715584761,1.5596635477,-0.1535960089,0.9685453631,1.4026697093,2.9117524824,0.7490924867,0.1541460312,1.6776651832,0.9808580257,2.9623033466,7.9835003799,-7.1211769128,-7.3006799598,-7.0411323881,-7.1382376183,-7.9273567459,0.269164814,7.577107608,1.8708109419,-0.0518919088,7.8593387611,7.490656938,-0.3262973836,-7.7080815469,-7.9900560154,-7.7229989355,-7.4916383937,-7.7963398087,-7.7533103039,0.4456060773,-8.1742296004,-6.7200733081,-7.7542195914,-6.8726520755,-7.0052959363,-1.9699615798,-8.0922744571,-7.4758472439,-6.2085062638,0.6574204288,-7.6739801072,-7.7745243141,0.9793873622,-0.3223049853,-6.5579918289,-6.7653316485,-6.6658437608,-6.5826156336,-6.8838638117,-7.5804387076,7.5004879707,6.9997956104,7.4610523112,-7.733377041,1.2324022256,0.9689372978,-7.3653836451,-8.0863088573,6.4316404733,7.6938795305,-7.3654954122,-8.141616635,-7.2251360644,6.2198387729,7.7067775388,8.0598504728,7.1784400516,-8.2023790134,-6.2566614458,-6.8730551994,-6.9515679007,0.0272290981,0.6793169336,0.1192328931,7.4329485573,6.7876709925,7.5226773718,0.126120403,0.7202677726,0.3077633154,7.123886838,6.6060366585,7.862630259,-0.3579448231,6.2819767604,1.54182172,7.385018339,6.9023347425,7.8224118471,7.12036615,7.9625152339,8.1425412054,6.8346984817,8.0987140787,-6.3056523977,-7.7495681538,-0.4833176187,-6.7948904748,-8.0386978163,6.8396889253,6.896470126,8.1915101911,7.2573653613,7.0749166146,-7.6252280163,-7.8074436595,-8.0289958295,-0.1846915581,-1.6532962902,-1.0673239119,-7.6614676534,-7.6498512846,-6.9355829929,0.8849977196,-1.1425089808,1.0500380531,-0.2122414282,1.0124875377,-0.3924339406,-0.1903588293,-0.3978529696,0.8141704503,0.357640634,0.4397821433,0.2400493181,-0.470206212,-0.9494946878,-1.3539793308,-0.6294112168,0.8665475398,-0.0873462755,0.8090021113,0.3231930018,1.4747688275,1.1135330597,1.9228820291,0.8089885953,0.1948339377,0.5587203088,0.0930306287,1.1726735037,7.8058314479,-6.5702543167,-7.489245596,-6.3520048438,-6.4777047682,-8.2014694316,0.578114439,-1.0345068153,0.1524887119,3.1825418171,-0.3882792894,-0.2192315515,-0.7864207469,-6.654373713,-7.9679772852,-7.2942084088,-7.1459727496,-7.9868367806,-6.701422915,0.4067741494,-7.9860890422,-6.9610680177,-8.1202145991,-6.9836659584,-7.8035137679,-1.2989183958,-7.2193912523,-7.5880074395,-7.0607512001,-1.6876789796,-7.6087339312,-7.7390568189,-0.6163160042,0.1505766699,-6.4640913951,-6.6247420955,-7.6272021361,-7.7788587182,-7.0387997025,-7.4033568777,1.0617473061,-0.0123184587,0.1041822598,-7.6745531137,0.6808872072,0.0370422978,-7.4006850957,-6.7938899735,-0.267306173,0.3704377679,-7.1551881213,-6.7348026011,-8.1951399315,1.2137861075,0.3178626965,1.0341373532,0.7456385705,-8.1070103076,-6.9947755508,-6.9860173728,-7.5445637755,2.8651448566,3.4290756314,4.9064610077,0.6287045788,0.939700548,1.2438236527,3.5158005963,4.008338434,4.2158433641,-0.8358489332,0.615529323,0.5082167228,-1.2058166588,0.5417912667,0.2014288052,-0.4195963773,-0.3514667624,-0.9212276915,0.3463287203,0.3770740776,0.8782987099,-0.4686107765,0.4826687915,-7.5350650452,-7.4076261451,-0.1948604957,-6.6708086377,-6.6004200756,-0.8651226359,-0.8568526004,-0.5287599591,0.7077588064
   0.4955798421,-7.2007652563,-7.9752814964,-7.997979598,3.6962150803,7.0570860322,4.6896162291,-8.0357419251,-6.4207289396,-6.2982433699,8.1182427294,3.8768229906,4.3046890018,3.7790464025,5.297073151,4.2968416265,7.1516472524,4.0388555567,4.3936784273,5.0141806732,4.7867273807,7.3328946731,6.3630113565,8.0452003916,4.0161769161,3.8479129134,3.8320023839,5.2433587759,7.108438454,7.4241675675,7.9709686123,6.2225890308,1.1262944613,7.1859721201,7.9799783005,7.2639509071,2.9577731988,7.0414521558,1.0730847405,-6.2098012436,-8.1043596518,-7.7674470066,-6.6792256443,-6.3462622222,0.6476669655,-0.3429672026,-1.8384815913,-3.9285264202,-0.4489007758,-3.4248169136,0.1956143116,8.1078661186,7.0438299611,6.2740033716,6.669516884,6.2292289436,7.010348487,0.5303803935,6.7712355882,6.8018681298,6.3223679895,7.8739997752,7.5921274066,0.6294068994,6.90371516,8.0600416221,6.9269906621,1.1981959375,7.5585761328,6.7658393888,-0.3260687482,0.4310337718,7.5215901412,8.0773838888,7.8060362886,6.7891577019,6.4046819974,7.2709131087,-2.0303423854,-2.6215973436,-3.4312470899,6.8084744692,-0.2420219073,0.5263525119,6.9885334692,7.8010155789,-2.8603657993,-3.3535334886,7.2110026166,7.2322948412,6.9701239637,-1.5492801909,-1.9349854628,-1.826118949,-2.0806082434,7.9416683976,6.3636356388,7.9614204306,7.034694007,-3.99081142,-2.8209707958,-1.725824076,-2.8336727588,-3.2015547984,-2.0681668318,-5.0405208998,-4.4790025052,-3.9735041152,-2.1073760365,-2.5680249068,-2.4303266811,0.0092501738,-2.1162398432,-2.9608772683,-1.584776057,-2.6165982546,-3.1856160535,-2.0182759112,-1.9807131684,-1.4985508723,-2.0570872224,-2.7794448627,6.8566901724,6.4445881863,-0.9473899133,8.1829916415,6.7411685541,-1.8772382393,-2.194282587,-2.9459750892,-2.6626563664,-2.9820290997,6.664133737,7.2173751802,6.3708252441,-6.8173701607,-7.6517192933,-5.1181800085,7.1063966829,6.6348994599,6.4950868954,-7.1307142735,-6.7477330093,-1.7609028446,-3.4001942557,-2.6736129426,-1.613788535,-2.3087496352,-2.0752954207,-2.4335312141,-7.5772326734,-6.3714773534,-8.1748085832,-6.3189336388,-6.9998379725,-0.8131789125,-2.3991049719,-8.1835912913,-3.377481536,-7.3368422226,-7.1699262238,-7.0068417921,-6.7858357534,-2.2935980486,-6.6686657669,-7.6348252861,-6.5477565994,-0.2450877819,-6.7663429745,-2.6509892601,7.2655323013,6.7658935992,7.3687699722,7.4789551744,6.2563409125,-0.2577657151,7.7036760428,0.5354577881,-1.1117250961,6.2235943544,7.3631708115,1.2755289125,-0.3479338674,0.4770565833,-1.0415746503,0.8622500476,-0.2542014201,0.271653136,2.6732883045,0.5970157505,0.0041083634,0.0024725932,-0.8741152835,0.1152880549,-5.1503493698,0.0675358282,0.0587782268,0.0755112313,2.6899053227,-1.0500275231,0.3423521605,7.9495587506,-0.9940366392,-0.8339481149,0.6294191723,1.7487852213,0.7232239179,0.293236611,1.3491485911,7.2551201689,6.7522840176,7.9338082995,-0.5325873306,0.7278267434,0.4592904056,0.2830549758,-0.7808311316,7.5452977164,7.0695243938,0.69902431,0.6716083853,0.3797747534,6.4830441653,6.4382208484,7.5997320084,8.0050064128,-1.5554663378,-0.0111025339,0.3603445265,-0.3402980586,-6.8458648299,-2.7944925522,-2.9955111866,7.5323045995,6.6118969118,7.4690808007,-7.96228478,-7.1090513947,-6.456706591,7.5810770017,7.0087486825,7.534506071,7.5394481072,8.1067194286,2.7486349357,7.7122061688,8.180203475,6.9861042158,6.2320500016,7.4640981989,8.1166176264,6.7809879717,7.2923962637,1.0886745038,1.3288430745,-4.0282684845,0.3450288401,1.1957856338,7.9988901819,6.5062956355,6.4694768973,6.2708045989,7.7612541036,-0.2140342627,0.0111976848,0.7791397841,-4.1271561562,-5.8273052685,-6.2839904139,-0.506148429,-1.3825463958,-0.7506716721,-4.742945067,-4.671975884,-7.0807126773,-6.9895736606,-6.2280829129,-6.3540555043,-4.3717231613,-5.6366136352,-6.317265165,-5.5269073283,-5.2264409267,-5.0465959083,-5.8139747977,-4.4702379129,-7.898183869,-7.0706355519,-5.3068811164,-3.9512222381,-4.5768299208,-1.3644316866,-4.4018240778,-5.4207684963,0.4123593461,-1.0759078918,-2.1898193422,-4.9147355375,-4.6178837366,-6.6210598193,8.18841747,-0.2440506345,0.2381225986,0.5918041543,-0.0924942028,-0.1078514932,0.8133887403,-7.2869127481,0.7444002207,2.5644112453,-6.2566504404,-0.816465308,-0.1347450785,-7.9430166463,-7.7947491787,-7.1969552082,-7.3920775042,-6.4634122551,-7.6308042898,-4.1230909014,-6.2979735676,-7.626092645,-7.8941112075,-6.2447888423,-7.5268876577,0.7689661494,-7.1341333673,-6.6359526256,-8.0551389548,-3.1426428132,-7.4426396942,-7.5660314473,-7.9259390755,1.9912672582,-7.649589121,-7.7691033461,-7.0563122801,-6.5092687747,-6.6569305036,-6.5099470905,-6.43512325,-7.2352846735,-6.3200521749,-8.0515339811,0.0408389271,-0.0320984907,-7.7390544207,-8.1475573442,-6.571228956,-7.9573463526,-7.9694612872,-7.9826267304,-8.0933431619,-7.5103458181,-7.4511281136,-6.5746370602,-7.2337723127,-7.4537542561,-6.7371886514,-6.4656600776,-6.3317490826,8.0748622556,7.828185438,6.7307588516,-6.4364271956,-6.9203606214,-6.7666067232,6.9006249507,6.7548264379,7.6382136463,-2.8686727511,-2.1125689334,-2.3933634599,-6.5915236921,-1.7403507919,0.2545222674,-3.094894959,-2.7253793069,-1.8469770306,-3.1281338719,-3.3647344731,-3.6344046106,-3.3899562579,-3.2744252147,-7.0583044098,-7.3041501134,6.2882036436,-7.106946669,-7.6609961695,-0.7068592396,-0.6264706182,-1.5485087705,-1.7653335303,-0.1305201426,-8.0066823138,-7.4078834584,-8.1937581477,8.1374477753,6.8569592194,7.898830015,-8.0447951675,-6.5350643351,-7.8722169667,7.4577821322,7.6927533473,6.604717943,7.2038527387,7.8798323076,7.2497845157,8.1843254771,6.5239546226,6.4269823479,7.2810869836,6.6422108628,8.082206848,7.7615714099,6.7753768817,7.9029664833,7.3768823897,7.1780463573,8.0051943249,6.8758649596,8.0135907483,6.3579315711,6.4259443638,-0.0217206296,7.2851970126,8.1487625846,7.8712333383,8.016545493,7.0604139058,-2.4827509103,-8.0738243301,-6.3790377323,-6.964352582,-6.4416169916,-7.6853581161,-0.7588469812,-2.0795931362,-0.535113737,2.6964663445,-1.4920844557,-0.8412561275,-0.0824040006,-7.3073766497,-8.1472542863,-6.6401828985,-7.384519829,-6.4991222798,-7.6544792388,-0.3594295455,-6.7395727441,-7.8557798674,-7.4443595303,-6.2287916075,-7.5262544366,-0.2444597443,-6.2877969881,-7.217722164,-7.0959026622,-3.2519489028,-7.525140789,-7.5525970204,-1.5086831216,0.4957695128,-7.2761628288,-6.7661905235,-8.0833818157,-7.2375644161,-6.8337020066,-7.8966830799,-0.189992768,-0.5582093125,-0.5690597253,-6.8330307875,-0.0726870641,0.0638594611,-7.4521752657,-6.7765620465,-0.199440963,-1.0410527836,-6.9163533601,-7.3716578191,-7.0521994861,-1.5033528887,0.2874716819,0.1038413299,-1.4672877712,-7.754525284,-7.3373766192,-7.4379941426,-6.2958978564,7.1230258452,7.6413994661,6.7413918397,-0.4172940248,-0.3484651729,0.6648826424,7.0219471607,7.2998808897,7.5837947313,-0.1064547061,-2.6056695101,-2.2814819611,-6.2964265216,-1.2872601225,1.283208708,-1.9496484932,-2.0190341168,-2.3701731632,-1.6562450175,-2.1183270787,0.424880701,-0.6000028017,0.566314781,-6.8656338996,-7.6913794826,6.7753691079,-7.464871286,-7.6500816417,0.604724304,-0.2195794166,0.9623235272,0.7642925086,0.6345360337,-6.9652519229,-6.4326956822,-7.4518147042,8.0928364777,6.3144182004,8.1641742605,-6.5388442065,-7.1152299302,-6.833221677,6.7931605282,7.723793037,6.9061627102,7.2389706275,8.095938675,7.6450334188,7.8575526548,6.8489192345,7.4154603431,7.8076273769,7.8617977917,7.5580520915,6.7390416779,6.5380979861,7.9216364527,7.6929880825,6.4344778415,6.6890421567,6.9218360077,6.5641738932,7.9603016254,7.4765465228,-1.1474001492,7.7677988342,6.6906991938,7.8820590394,1.7768688621,6.2989352467,0.6962312368,-7.1452215253,-6.4631594187,-8.0836741188,-6.4695639276,-7.1534378765,-1.0742879685,7.6242873442,0.1809774422,-1.6445318243,7.0167680973,3.3466618356,-0.2548254197,1.9836338542,1.8689557572,3.3531532012,3.202111551,2.6737583411,3.4122025831,1.7981997901,2.4357304443,1.5511080311,2.1797921461,2.0594122529,1.7748931634,0.4347647307,1.7205253566,1.4684336842,2.6889032238,2.0194049633,2.9163167116,2.3207025611,7.382257069,-1.3556282369,1.5484924992,1.8029174494,1.6793439813,1.4474745826,2.7392567118,2.5830207943,7.0543142458,7.0952263851,7.0988945965,2.9448512981,1.9395591427,0.9722239553,2.9683780458,2.3756172629,7.0779739277,7.2833766737,1.5956042796,1.7705224256,3.1100866621,7.6142373445,6.5754258094,6.3227879368,7.4986777693,2.6940770718,3.0370282021,2.4200566951,2.4347764263,-7.8127235395,-7.3069873662,-6.770815368,6.4560098332,8.181878874,8.0085754337,-7.801917346,-7.7714936358,-6.2103836517,8.0146293797,6.5808069279,7.9184778797,7.2450488065,6.5319804941,0.308907751,7.2920570779,6.2746179504,6.3774826723,6.7894976663,6.4593407848,7.5656202432,8.0408281282,6.9666997328,1.7691750095,1.7028304158,-7.9053217329,1.762447517,2.263372084,7.3178679333,6.4567362024,6.7788778881,6.5617888776,7.7831141704,1.7446527403,2.3332562586,1.9761324048,-6.3810461341,-6.5883127164,-7.4516926488,1.5343568805,1.8992169013,3.2958004609,-7.7536886453,-7.4705056814,-7.696038203,-6.3165318323,-7.65473951,-6.3338805782,-7.1570193976,-8.1598414396,-6.7217690602,-7.1481291777,-6.5717970274,-7.5355517619,-7.9378314119,-7.0514663256,-6.2295457432,-6.9199058556,-7.5514384356,-7.1150677571,-7.1424068552,-8.0511573142,-6.7762438657,-6.549443042,1.4240379835,-7.9724388559,-6.4986914136,-7.1729453881,-7.8044993335,-7.0907018784,6.6934772136,2.5633604723,2.3573254942,3.1658552022,2.3885515658,1.470526923,0.4052040608,-7.8256125131,1.8801425811,0.768383676,-7.7929008042,-7.3434063024,-0.2334004068,2.3783797129,2.4903636474,3.1205645674,6.4202449835,1.8939633573,1.7690397024,-1.2873874143,7.3677093345,7.4249182712,7.9729195375,6.863341301,7.0237845214,4.0021125199,6.2346427133,6.370006633,7.5830327409,-1.7625415512,7.1458990811,3.1854527123,-1.6980807116,0.5681373452,7.3728870354,7.3374357815,6.573119457,7.1964794495,7.0555389527,7.3763694396,-6.9490417739,-7.571107905,-6.9528039715,7.6806097698,-0.97453014,-0.2583398761,7.6082965049,3.299618974,-7.8550611788,-7.9801254364,8.0242331269,6.3742328873,6.7271388883,-6.7903925807,-7.1021690801,-6.4869738893,-6.8161584765,6.692624082,6.698082573,7.8401549792,6.8356911347,1.4691063226,1.7833384774,2.0830097112,-6.6949237568,-7.484555882,-6.4091795795,2.3107701902,1.4412429038,2.1087909329,-6.346472376,-6.6324187705,-6.259530792,-2.0269808916,-6.5675072904,-0.8347729039,-6.7490013588,-7.0738392578,-7.770027396,-7.9827721509,-6.6114341963,-7.7407063886,-6.4671528461,-7.3332881867,2.0514296877,2.5661314884,5.6858389786,2.320737222,3.2031787012,-7.9168361135,-6.2142527075,-7.5091646422,-7.7355089055,-7.5467339294,3.04018198,2.5098413594,2.8721386785,0.9284709088,1.1591851211,2.0250387553,6.268886893,8.150335485,6.7717436638,1.4908478404,1.5188130461,0.9392055852,1.528553897,2.2092817852,2.5426891744,0.6500800038,0.9733936509,0.9407640213,0.8527354189,1.5359362414,2.0158309188,1.0446637868,0.8422249265,2.4157435847,3.0840363086,2.0707416485,1.8343010494,0.9681469516,0.5476846113,-0.1738953054,0.7150315589,-1.6910912147,2.6036893595,0.6654425338,2.4259034273,3.8880531769,1.5635799602,-8.1502825813,7.0943605941,8.0290874251,3.0242527308,7.122529033,7.4319361118,-1.2212179324
##end
biasActivation=0,1,1,1
[BASIC:ACTIVATION]
"ActivationSigmoid"
"ActivationSigmoid"
"ActivationSigmoid"
"ActivationLinear"
